tree
version=v2
num_class=1
num_tree_per_iteration=1
label_index=0
max_feature_idx=826
objective=regression_l1
feature_names=Log-Built Log-NbhdPPS Log-SqFt Year Log-Fixtures Quarter_1 Quarter_2 Quarter_3 Quarter_4 Building-Grade_A Building-Grade_B Building-Grade_C Building-Grade_D Building-Grade_E Building-Grade_X Building-Type-Custom_CONDO Building-Type-Custom_HRISE Building-Type-Custom_PLEX Building-Type-Custom_SINGLE_FAM Building-Type-Custom_VACANT Neighborhood_1026.0 Neighborhood_1027.0 Neighborhood_1028.0 Neighborhood_1029.0 Neighborhood_1030.0 Neighborhood_107.0 Neighborhood_1126.0 Neighborhood_1127.0 Neighborhood_1129.0 Neighborhood_1130.0 Neighborhood_1226.0 Neighborhood_1228.0 Neighborhood_126.0 Neighborhood_1326.0 Neighborhood_1327.0 Neighborhood_1328.0 Neighborhood_1329.0 Neighborhood_1330.0 Neighborhood_1426.0 Neighborhood_1626.0 Neighborhood_1627.0 Neighborhood_1926.0 Neighborhood_2026.0 Neighborhood_2126.0 Neighborhood_2127.0 Neighborhood_2128.0 Neighborhood_2132.0 Neighborhood_2133.0 Neighborhood_2134.0 Neighborhood_2136.0 Neighborhood_2139.0 Neighborhood_2142.0 Neighborhood_2143.0 Neighborhood_2144.0 Neighborhood_2145.0 Neighborhood_2211.0 Neighborhood_2226.0 Neighborhood_2227.0 Neighborhood_2228.0 Neighborhood_2229.0 Neighborhood_2230.0 Neighborhood_2231.0 Neighborhood_2236.0 Neighborhood_2237.0 Neighborhood_226.0 Neighborhood_2326.0 Neighborhood_2328.0 Neighborhood_2330.0 Neighborhood_2426.0 Neighborhood_2427.0 Neighborhood_2428.0 Neighborhood_2430.0 Neighborhood_2431.0 Neighborhood_2433.0 Neighborhood_2434.0 Neighborhood_2436.0 Neighborhood_2440.0 Neighborhood_2441.0 Neighborhood_2443.0 Neighborhood_2445.0 Neighborhood_2447.0 Neighborhood_2448.0 Neighborhood_2526.0 Neighborhood_2527.0 Neighborhood_2529.0 Neighborhood_2530.0 Neighborhood_2626.0 Neighborhood_2627.0 Neighborhood_2628.0 Neighborhood_2630.0 Neighborhood_2631.0 Neighborhood_2632.0 Neighborhood_2634.0 Neighborhood_2635.0 Neighborhood_2637.0 Neighborhood_2639.0 Neighborhood_2640.0 Neighborhood_2641.0 Neighborhood_2642.0 Neighborhood_2644.0 Neighborhood_2645.0 Neighborhood_2726.0 Neighborhood_3026.0 Neighborhood_3027.0 Neighborhood_3030.0 Neighborhood_3031.0 Neighborhood_3032.0 Neighborhood_3033.0 Neighborhood_3126.0 Neighborhood_3127.0 Neighborhood_3128.0 Neighborhood_3129.0 Neighborhood_3130.0 Neighborhood_3131.0 Neighborhood_3132.0 Neighborhood_3133.0 Neighborhood_3134.0 Neighborhood_3135.0 Neighborhood_3179.0 Neighborhood_3226.0 Neighborhood_3227.0 Neighborhood_3228.0 Neighborhood_3229.0 Neighborhood_3230.0 Neighborhood_3231.0 Neighborhood_3232.0 Neighborhood_3233.0 Neighborhood_3235.0 Neighborhood_3236.0 Neighborhood_3237.0 Neighborhood_3238.0 Neighborhood_3239.0 Neighborhood_3240.0 Neighborhood_3241.0 Neighborhood_3242.0 Neighborhood_3243.0 Neighborhood_3244.0 Neighborhood_3245.0 Neighborhood_3246.0 Neighborhood_3247.0 Neighborhood_3248.0 Neighborhood_3249.0 Neighborhood_3250.0 Neighborhood_3251.0 Neighborhood_3252.0 Neighborhood_3253.0 Neighborhood_3254.0 Neighborhood_3255.0 Neighborhood_3256.0 Neighborhood_3257.0 Neighborhood_3258.0 Neighborhood_3259.0 Neighborhood_326.0 Neighborhood_3260.0 Neighborhood_3262.0 Neighborhood_3263.0 Neighborhood_3264.0 Neighborhood_3265.0 Neighborhood_3266.0 Neighborhood_3267.0 Neighborhood_3269.0 Neighborhood_3270.0 Neighborhood_3271.0 Neighborhood_3272.0 Neighborhood_3273.0 Neighborhood_3274.0 Neighborhood_3275.0 Neighborhood_3276.0 Neighborhood_3278.0 Neighborhood_3279.0 Neighborhood_3280.0 Neighborhood_3281.0 Neighborhood_3282.0 Neighborhood_3283.0 Neighborhood_3326.0 Neighborhood_3327.0 Neighborhood_3328.0 Neighborhood_3329.0 Neighborhood_3330.0 Neighborhood_3331.0 Neighborhood_3332.0 Neighborhood_3333.0 Neighborhood_3334.0 Neighborhood_3335.0 Neighborhood_3337.0 Neighborhood_3338.0 Neighborhood_3339.0 Neighborhood_3341.0 Neighborhood_3343.0 Neighborhood_3345.0 Neighborhood_3347.0 Neighborhood_3348.0 Neighborhood_3349.0 Neighborhood_3350.0 Neighborhood_3351.0 Neighborhood_3426.0 Neighborhood_3506.0 Neighborhood_3527.0 Neighborhood_3528.0 Neighborhood_3529.0 Neighborhood_3530.0 Neighborhood_3531.0 Neighborhood_3532.0 Neighborhood_3533.0 Neighborhood_3534.0 Neighborhood_3535.0 Neighborhood_3536.0 Neighborhood_3626.0 Neighborhood_3627.0 Neighborhood_3628.0 Neighborhood_3629.0 Neighborhood_3630.0 Neighborhood_3726.0 Neighborhood_3727.0 Neighborhood_3728.0 Neighborhood_3729.0 Neighborhood_3730.0 Neighborhood_3731.0 Neighborhood_3732.0 Neighborhood_3733.0 Neighborhood_3735.0 Neighborhood_3736.0 Neighborhood_3737.0 Neighborhood_3738.0 Neighborhood_3739.0 Neighborhood_3740.0 Neighborhood_3742.0 Neighborhood_3743.0 Neighborhood_3744.0 Neighborhood_3745.0 Neighborhood_3746.0 Neighborhood_3747.0 Neighborhood_3748.0 Neighborhood_3750.0 Neighborhood_3751.0 Neighborhood_3752.0 Neighborhood_3753.0 Neighborhood_3754.0 Neighborhood_3755.0 Neighborhood_3756.0 Neighborhood_3757.0 Neighborhood_3758.0 Neighborhood_3760.0 Neighborhood_3761.0 Neighborhood_3762.0 Neighborhood_3764.0 Neighborhood_3765.0 Neighborhood_3766.0 Neighborhood_3826.0 Neighborhood_3827.0 Neighborhood_3828.0 Neighborhood_3829.0 Neighborhood_3830.0 Neighborhood_3831.0 Neighborhood_3926.0 Neighborhood_3927.0 Neighborhood_3928.0 Neighborhood_3929.0 Neighborhood_3930.0 Neighborhood_3931.0 Neighborhood_3932.0 Neighborhood_3933.0 Neighborhood_3934.0 Neighborhood_3935.0 Neighborhood_3936.0 Neighborhood_3937.0 Neighborhood_3943.0 Neighborhood_3944.0 Neighborhood_3945.0 Neighborhood_3946.0 Neighborhood_3947.0 Neighborhood_4015.0 Neighborhood_4026.0 Neighborhood_4027.0 Neighborhood_4028.0 Neighborhood_4029.0 Neighborhood_4030.0 Neighborhood_4031.0 Neighborhood_4032.0 Neighborhood_4033.0 Neighborhood_4035.0 Neighborhood_4036.0 Neighborhood_4037.0 Neighborhood_4038.0 Neighborhood_4039.0 Neighborhood_4040.0 Neighborhood_4041.0 Neighborhood_4042.0 Neighborhood_4043.0 Neighborhood_4045.0 Neighborhood_4046.0 Neighborhood_4047.0 Neighborhood_4049.0 Neighborhood_4050.0 Neighborhood_4052.0 Neighborhood_4053.0 Neighborhood_4054.0 Neighborhood_4055.0 Neighborhood_4056.0 Neighborhood_4058.0 Neighborhood_4059.0 Neighborhood_4060.0 Neighborhood_4061.0 Neighborhood_4062.0 Neighborhood_4064.0 Neighborhood_4065.0 Neighborhood_4066.0 Neighborhood_4067.0 Neighborhood_4068.0 Neighborhood_4069.0 Neighborhood_4070.0 Neighborhood_4071.0 Neighborhood_4073.0 Neighborhood_4075.0 Neighborhood_4076.0 Neighborhood_4077.0 Neighborhood_4078.0 Neighborhood_4079.0 Neighborhood_4080.0 Neighborhood_4081.0 Neighborhood_4082.0 Neighborhood_4083.0 Neighborhood_4084.0 Neighborhood_4085.0 Neighborhood_4086.0 Neighborhood_4087.0 Neighborhood_4088.0 Neighborhood_4090.0 Neighborhood_4091.0 Neighborhood_4092.0 Neighborhood_4093.0 Neighborhood_4094.0 Neighborhood_4095.0 Neighborhood_4096.0 Neighborhood_4097.0 Neighborhood_4098.0 Neighborhood_4099.0 Neighborhood_4113.0 Neighborhood_4126.0 Neighborhood_4127.0 Neighborhood_4128.0 Neighborhood_4129.0 Neighborhood_4130.0 Neighborhood_4131.0 Neighborhood_4132.0 Neighborhood_4133.0 Neighborhood_4135.0 Neighborhood_4136.0 Neighborhood_4137.0 Neighborhood_4138.0 Neighborhood_4139.0 Neighborhood_4140.0 Neighborhood_4141.0 Neighborhood_4142.0 Neighborhood_4143.0 Neighborhood_4144.0 Neighborhood_4145.0 Neighborhood_4146.0 Neighborhood_4147.0 Neighborhood_4148.0 Neighborhood_4150.0 Neighborhood_4151.0 Neighborhood_4152.0 Neighborhood_4153.0 Neighborhood_4155.0 Neighborhood_4156.0 Neighborhood_4157.0 Neighborhood_4158.0 Neighborhood_4159.0 Neighborhood_4160.0 Neighborhood_4161.0 Neighborhood_4162.0 Neighborhood_4163.0 Neighborhood_4164.0 Neighborhood_4165.0 Neighborhood_4166.0 Neighborhood_4167.0 Neighborhood_4168.0 Neighborhood_4169.0 Neighborhood_4170.0 Neighborhood_4171.0 Neighborhood_4172.0 Neighborhood_4173.0 Neighborhood_4174.0 Neighborhood_4175.0 Neighborhood_4176.0 Neighborhood_4177.0 Neighborhood_4178.0 Neighborhood_4179.0 Neighborhood_4180.0 Neighborhood_4181.0 Neighborhood_4183.0 Neighborhood_4184.0 Neighborhood_4185.0 Neighborhood_4186.0 Neighborhood_4187.0 Neighborhood_4188.0 Neighborhood_4189.0 Neighborhood_4190.0 Neighborhood_4191.0 Neighborhood_4192.0 Neighborhood_4193.0 Neighborhood_4194.0 Neighborhood_4195.0 Neighborhood_4196.0 Neighborhood_4197.0 Neighborhood_4198.0 Neighborhood_4199.0 Neighborhood_4226.0 Neighborhood_4227.0 Neighborhood_4228.0 Neighborhood_4229.0 Neighborhood_4230.0 Neighborhood_4231.0 Neighborhood_4232.0 Neighborhood_4233.0 Neighborhood_4234.0 Neighborhood_4235.0 Neighborhood_4236.0 Neighborhood_4237.0 Neighborhood_4238.0 Neighborhood_4239.0 Neighborhood_4240.0 Neighborhood_4241.0 Neighborhood_4242.0 Neighborhood_4243.0 Neighborhood_4244.0 Neighborhood_4247.0 Neighborhood_4248.0 Neighborhood_4249.0 Neighborhood_4250.0 Neighborhood_4251.0 Neighborhood_4252.0 Neighborhood_4253.0 Neighborhood_4254.0 Neighborhood_4255.0 Neighborhood_4256.0 Neighborhood_4257.0 Neighborhood_4258.0 Neighborhood_4259.0 Neighborhood_4260.0 Neighborhood_4262.0 Neighborhood_4263.0 Neighborhood_4264.0 Neighborhood_4265.0 Neighborhood_4266.0 Neighborhood_4267.0 Neighborhood_4268.0 Neighborhood_4269.0 Neighborhood_4270.0 Neighborhood_4271.0 Neighborhood_4272.0 Neighborhood_4273.0 Neighborhood_4274.0 Neighborhood_4275.0 Neighborhood_4276.0 Neighborhood_4277.0 Neighborhood_4278.0 Neighborhood_4279.0 Neighborhood_4280.0 Neighborhood_4281.0 Neighborhood_4282.0 Neighborhood_4283.0 Neighborhood_4284.0 Neighborhood_4285.0 Neighborhood_4286.0 Neighborhood_4287.0 Neighborhood_4289.0 Neighborhood_4290.0 Neighborhood_4291.0 Neighborhood_4292.0 Neighborhood_4293.0 Neighborhood_4294.0 Neighborhood_4295.0 Neighborhood_4296.0 Neighborhood_4297.0 Neighborhood_4298.0 Neighborhood_4299.0 Neighborhood_4326.0 Neighborhood_4327.0 Neighborhood_4328.0 Neighborhood_4329.0 Neighborhood_4330.0 Neighborhood_4331.0 Neighborhood_4332.0 Neighborhood_4333.0 Neighborhood_4334.0 Neighborhood_4350.0 Neighborhood_4351.0 Neighborhood_4352.0 Neighborhood_4353.0 Neighborhood_4354.0 Neighborhood_4355.0 Neighborhood_4356.0 Neighborhood_4357.0 Neighborhood_4358.0 Neighborhood_4359.0 Neighborhood_4360.0 Neighborhood_4361.0 Neighborhood_4362.0 Neighborhood_4363.0 Neighborhood_4364.0 Neighborhood_4365.0 Neighborhood_4366.0 Neighborhood_4367.0 Neighborhood_4368.0 Neighborhood_4369.0 Neighborhood_4426.0 Neighborhood_4427.0 Neighborhood_4428.0 Neighborhood_4429.0 Neighborhood_4430.0 Neighborhood_4431.0 Neighborhood_4432.0 Neighborhood_4433.0 Neighborhood_4441.0 Neighborhood_4443.0 Neighborhood_4444.0 Neighborhood_4445.0 Neighborhood_4446.0 Neighborhood_4447.0 Neighborhood_4826.0 Neighborhood_4827.0 Neighborhood_4828.0 Neighborhood_4829.0 Neighborhood_4830.0 Neighborhood_4831.0 Neighborhood_4832.0 Neighborhood_4835.0 Neighborhood_4836.0 Neighborhood_4837.0 Neighborhood_4839.0 Neighborhood_4840.0 Neighborhood_4841.0 Neighborhood_4842.0 Neighborhood_4843.0 Neighborhood_4844.0 Neighborhood_4845.0 Neighborhood_4846.0 Neighborhood_4847.0 Neighborhood_4848.0 Neighborhood_4849.0 Neighborhood_4850.0 Neighborhood_4851.0 Neighborhood_4926.0 Neighborhood_4927.0 Neighborhood_6011.0 Neighborhood_6026.0 Neighborhood_6027.0 Neighborhood_6028.0 Neighborhood_6029.0 Neighborhood_6031.0 Neighborhood_6032.0 Neighborhood_6033.0 Neighborhood_6034.0 Neighborhood_6035.0 Neighborhood_6036.0 Neighborhood_6037.0 Neighborhood_6040.0 Neighborhood_6041.0 Neighborhood_6042.0 Neighborhood_6043.0 Neighborhood_6044.0 Neighborhood_6213.0 Neighborhood_6226.0 Neighborhood_6227.0 Neighborhood_6228.0 Neighborhood_6229.0 Neighborhood_6230.0 Neighborhood_6231.0 Neighborhood_6232.0 Neighborhood_6233.0 Neighborhood_6234.0 Neighborhood_6235.0 Neighborhood_6236.0 Neighborhood_6237.0 Neighborhood_6238.0 Neighborhood_6239.0 Neighborhood_6240.0 Neighborhood_6241.0 Neighborhood_6242.0 Neighborhood_6243.0 Neighborhood_6244.0 Neighborhood_6245.0 Neighborhood_6246.0 Neighborhood_6247.0 Neighborhood_6248.0 Neighborhood_6249.0 Neighborhood_6251.0 Neighborhood_6252.0 Neighborhood_6253.0 Neighborhood_6254.0 Neighborhood_6255.0 Neighborhood_6256.0 Neighborhood_6257.0 Neighborhood_6258.0 Neighborhood_6259.0 Neighborhood_6260.0 Neighborhood_6261.0 Neighborhood_6262.0 Neighborhood_6263.0 Neighborhood_6264.0 Neighborhood_6265.0 Neighborhood_6266.0 Neighborhood_6272.0 Neighborhood_6278.0 Neighborhood_6326.0 Neighborhood_6327.0 Neighborhood_6328.0 Neighborhood_6329.0 Neighborhood_6330.0 Neighborhood_6331.0 Neighborhood_6332.0 Neighborhood_6333.0 Neighborhood_6334.0 Neighborhood_6335.0 Neighborhood_6337.0 Neighborhood_6338.0 Neighborhood_6339.0 Neighborhood_6340.0 Neighborhood_6341.0 Neighborhood_6342.0 Neighborhood_6343.0 Neighborhood_6344.0 Neighborhood_6346.0 Neighborhood_6347.0 Neighborhood_6348.0 Neighborhood_6349.0 Neighborhood_6350.0 Neighborhood_6351.0 Neighborhood_6352.0 Neighborhood_6355.0 Neighborhood_6356.0 Neighborhood_6357.0 Neighborhood_6358.0 Neighborhood_6359.0 Neighborhood_6360.0 Neighborhood_6361.0 Neighborhood_6362.0 Neighborhood_6363.0 Neighborhood_6364.0 Neighborhood_6365.0 Neighborhood_6366.0 Neighborhood_6369.0 Neighborhood_6370.0 Neighborhood_6371.0 Neighborhood_6372.0 Neighborhood_6373.0 Neighborhood_6374.0 Neighborhood_6375.0 Neighborhood_6376.0 Neighborhood_6377.0 Neighborhood_6378.0 Neighborhood_6379.0 Neighborhood_6380.0 Neighborhood_6381.0 Neighborhood_6382.0 Neighborhood_6383.0 Neighborhood_6384.0 Neighborhood_6385.0 Neighborhood_6386.0 Neighborhood_6387.0 Neighborhood_6389.0 Neighborhood_6390.0 Neighborhood_6391.0 Neighborhood_6393.0 Neighborhood_6394.0 Neighborhood_6395.0 Neighborhood_6396.0 Neighborhood_6397.0 Neighborhood_6398.0 Neighborhood_6399.0 Neighborhood_6426.0 Neighborhood_6427.0 Neighborhood_6428.0 Neighborhood_6430.0 Neighborhood_6431.0 Neighborhood_6432.0 Neighborhood_6433.0 Neighborhood_6434.0 Neighborhood_6435.0 Neighborhood_6436.0 Neighborhood_6437.0 Neighborhood_6438.0 Neighborhood_6439.0 Neighborhood_6440.0 Neighborhood_6441.0 Neighborhood_6442.0 Neighborhood_6443.0 Neighborhood_6444.0 Neighborhood_6445.0 Neighborhood_6446.0 Neighborhood_6447.0 Neighborhood_6448.0 Neighborhood_6449.0 Neighborhood_6450.0 Neighborhood_6451.0 Neighborhood_6452.0 Neighborhood_6453.0 Neighborhood_6454.0 Neighborhood_6455.0 Neighborhood_6456.0 Neighborhood_6526.0 Neighborhood_6527.0 Neighborhood_6528.0 Neighborhood_6626.0 Neighborhood_6726.0 Neighborhood_6727.0 Neighborhood_6728.0 Neighborhood_6729.0 Neighborhood_6730.0 Neighborhood_6731.0 Neighborhood_6732.0 Neighborhood_6733.0 Neighborhood_6734.0 Neighborhood_6735.0 Neighborhood_6736.0 Neighborhood_6737.0 Neighborhood_6738.0 Neighborhood_6739.0 Neighborhood_6740.0 Neighborhood_6741.0 Neighborhood_6742.0 Neighborhood_6743.0 Neighborhood_6744.0 Neighborhood_6745.0 Neighborhood_6747.0 Neighborhood_6749.0 Neighborhood_6751.0 Neighborhood_6752.0 Neighborhood_6753.0 Neighborhood_6754.0 Neighborhood_6755.0 Neighborhood_6757.0 Neighborhood_6758.0 Neighborhood_6759.0 Neighborhood_6760.0 Neighborhood_6761.0 Neighborhood_6762.0 Neighborhood_6763.0 Neighborhood_6764.0 Neighborhood_6766.0 Neighborhood_6767.0 Neighborhood_6770.0 Neighborhood_6773.0 Neighborhood_6774.0 Neighborhood_6775.0 Neighborhood_6776.0 Neighborhood_6777.0 Neighborhood_6780.0 Neighborhood_6782.0 Neighborhood_6783.0 Neighborhood_6784.0 Neighborhood_6785.0 Neighborhood_6787.0 Neighborhood_6788.0 Neighborhood_6789.0 Neighborhood_6790.0 Neighborhood_6792.0 Neighborhood_6793.0 Neighborhood_6794.0 Neighborhood_6795.0 Neighborhood_6797.0 Neighborhood_6798.0 Neighborhood_6799.0 Neighborhood_6826.0 Neighborhood_6828.0 Neighborhood_6829.0 Neighborhood_6831.0 Neighborhood_6834.0 Neighborhood_6926.0 Neighborhood_6927.0 Neighborhood_6928.0 Neighborhood_6929.0 Neighborhood_6930.0 Neighborhood_6931.0 Neighborhood_6932.0 Neighborhood_6933.0 Neighborhood_6934.0 Neighborhood_6935.0 Neighborhood_6936.0 Neighborhood_6937.0 Neighborhood_6938.0 Neighborhood_6939.0 Neighborhood_6940.0 Neighborhood_6941.0 Neighborhood_6942.0 Neighborhood_6946.0 Neighborhood_6950.0 Neighborhood_6955.0 Neighborhood_6956.0 Neighborhood_6957.0 Neighborhood_6958.0 Neighborhood_7226.0 Neighborhood_7227.0 Neighborhood_725.0 Neighborhood_726.0 Neighborhood_7326.0 Neighborhood_7327.0 Neighborhood_7328.0 Neighborhood_7329.0 Neighborhood_7330.0 Neighborhood_7331.0 Neighborhood_7332.0 Neighborhood_9026.0 Neighborhood_9027.0 Neighborhood_9028.0 Neighborhood_9126.0 Neighborhood_9226.0 Neighborhood_9227.0 Neighborhood_9228.0 Neighborhood_9326.0 Neighborhood_9327.0 Neighborhood_9328.0 Neighborhood_9329.0 Neighborhood_9330.0 Neighborhood_9331.0 Neighborhood_9332.0 Neighborhood_9333.0 Neighborhood_9334.0 Neighborhood_9335.0 Neighborhood_9336.0 Neighborhood_9526.0 Neighborhood_9527.0 Neighborhood_9528.0 Neighborhood_9529.0 Neighborhood_9530.0
feature_infos=[0:11.433425886186699] [3.5620447018917334:6.6239056142842987] [5.1647859739235145:9.3367086707909888] [2015:2018] [0:3.1354942159291497] [0:1] [0:1] [0:1] [0:1] [0:1] [0:1] [0:1] [0:1] [0:1] [0:1] [0:1] [0:1] [0:1] [0:1] [0:1] [0:1] none none none none none [0:1] [0:1] [0:1] none [0:1] [0:1] [0:1] none none none none none [0:1] [0:1] [0:1] [0:1] [0:1] [0:1] none none none none none none none [0:1] [0:1] none none none [0:1] [0:1] [0:1] [0:1] none none none none [0:1] [0:1] [0:1] none [0:1] none none none none none none none none none none none none none [0:1] [0:1] [0:1] none [0:1] none [0:1] none none none none none none none none none none none none [0:1] [0:1] [0:1] none none none none [0:1] [0:1] none [0:1] [0:1] [0:1] [0:1] [0:1] [0:1] none [0:1] [0:1] [0:1] [0:1] [0:1] none none none none none none [0:1] none [0:1] [0:1] [0:1] [0:1] [0:1] [0:1] none [0:1] none none none none none none none none none [0:1] none none none [0:1] none none none none none none none none [0:1] none none [0:1] none none none none none none none none [0:1] [0:1] [0:1] [0:1] [0:1] [0:1] none [0:1] none [0:1] none none [0:1] [0:1] none none none none none none [0:1] none [0:1] none [0:1] [0:1] [0:1] none [0:1] [0:1] [0:1] [0:1] [0:1] [0:1] [0:1] [0:1] [0:1] [0:1] [0:1] [0:1] [0:1] [0:1] [0:1] [0:1] [0:1] none none none none none none none none none none none none none none [0:1] none none none [0:1] none none none none [0:1] none none none none none none [0:1] [0:1] [0:1] [0:1] none none [0:1] [0:1] [0:1] [0:1] [0:1] none [0:1] none none none none none [0:1] [0:1] none [0:1] [0:1] none [0:1] [0:1] [0:1] [0:1] [0:1] none none [0:1] [0:1] none none [0:1] [0:1] [0:1] none [0:1] none none none none [0:1] [0:1] [0:1] [0:1] none [0:1] [0:1] [0:1] [0:1] [0:1] [0:1] [0:1] [0:1] [0:1] [0:1] [0:1] [0:1] [0:1] [0:1] [0:1] [0:1] [0:1] [0:1] none [0:1] [0:1] [0:1] [0:1] [0:1] [0:1] [0:1] [0:1] [0:1] none [0:1] none [0:1] [0:1] [0:1] none none none [0:1] [0:1] none none [0:1] [0:1] [0:1] [0:1] [0:1] [0:1] [0:1] [0:1] [0:1] [0:1] none [0:1] none none none none none [0:1] [0:1] none [0:1] none none none none [0:1] [0:1] none none [0:1] none [0:1] none none none none [0:1] [0:1] none [0:1] [0:1] none [0:1] none [0:1] [0:1] none none [0:1] [0:1] [0:1] none [0:1] [0:1] [0:1] none [0:1] [0:1] none none none [0:1] [0:1] none none [0:1] [0:1] none none [0:1] none none [0:1] [0:1] [0:1] [0:1] [0:1] [0:1] none none none [0:1] none none [0:1] [0:1] [0:1] none [0:1] none none none none none [0:1] [0:1] [0:1] none [0:1] [0:1] none [0:1] none [0:1] [0:1] [0:1] [0:1] [0:1] [0:1] [0:1] [0:1] [0:1] [0:1] [0:1] [0:1] [0:1] [0:1] [0:1] none [0:1] [0:1] none none [0:1] none [0:1] [0:1] none [0:1] [0:1] [0:1] [0:1] none [0:1] [0:1] [0:1] none [0:1] [0:1] [0:1] [0:1] [0:1] [0:1] none none none none [0:1] [0:1] [0:1] none [0:1] [0:1] none none [0:1] [0:1] [0:1] none [0:1] none none [0:1] [0:1] [0:1] none [0:1] [0:1] [0:1] [0:1] [0:1] [0:1] [0:1] [0:1] none none none none none none none none [0:1] [0:1] [0:1] [0:1] [0:1] [0:1] [0:1] [0:1] [0:1] [0:1] none none none [0:1] none [0:1] [0:1] none none [0:1] none none none none none none none [0:1] [0:1] [0:1] [0:1] [0:1] none none [0:1] [0:1] [0:1] [0:1] none none [0:1] [0:1] [0:1] none [0:1] [0:1] [0:1] [0:1] [0:1] [0:1] [0:1] [0:1] none [0:1] none none [0:1] [0:1] [0:1] none [0:1] none none none none none [0:1] [0:1] [0:1] [0:1] [0:1] none [0:1] [0:1] none none none none none none [0:1] none none none none none none [0:1] [0:1] [0:1] none [0:1] [0:1] [0:1] [0:1] none [0:1] none [0:1] [0:1] [0:1] [0:1] none [0:1] [0:1] none [0:1] none [0:1] none [0:1] none none none [0:1] none none [0:1] none none [0:1] [0:1] [0:1] [0:1] [0:1] none [0:1] [0:1] none none none none none none [0:1] [0:1] none none [0:1] none [0:1] none [0:1] [0:1] [0:1] none [0:1] [0:1] none [0:1] [0:1] [0:1] [0:1] [0:1] [0:1] none [0:1] [0:1] [0:1] [0:1] [0:1] none [0:1] [0:1] none none none [0:1] none none [0:1] [0:1] [0:1] [0:1] [0:1] none [0:1] none none [0:1] none none [0:1] none [0:1] none [0:1] [0:1] none [0:1] [0:1] [0:1] [0:1] [0:1] [0:1] [0:1] [0:1] [0:1] [0:1] none [0:1] [0:1] [0:1] none [0:1] [0:1] [0:1] [0:1] [0:1] [0:1] none none [0:1] none none none none none none [0:1] none [0:1] none none [0:1] [0:1] [0:1] none none none [0:1] [0:1] none [0:1] none none [0:1] none none [0:1] [0:1] none [0:1] [0:1] [0:1] [0:1] [0:1] [0:1] [0:1] [0:1] [0:1] [0:1] [0:1] [0:1] [0:1] [0:1] none [0:1] [0:1] [0:1] none [0:1] [0:1] none none none [0:1] none [0:1] [0:1] none none none [0:1] [0:1] none none [0:1] [0:1] [0:1] [0:1] [0:1] [0:1] [0:1] [0:1] none none none [0:1] none none [0:1] [0:1] [0:1] none [0:1] [0:1] none none [0:1] none none none none [0:1] [0:1] [0:1]
tree_sizes=4071 4184 4330 4417 4200 4343 4361 4661 4527 4289 4326 4403 4358 4457 3972 4021 3997 4020 4144 3752 3295 3621 3884 3854 3516 4062 3430 3684 3622 3746 3912 3973 4295 4055 3680 3445 2748 3004 2580 3155 2674 2887 3473 2543 2715 2849 3055 2008 2132 1362 1763 1728 1741 2435 1277 1516 2680 3140 900 1365 1672 2090 2634 979 1043 1288 1125 2108 1621 1682 2301 910 1288 1742 1277 1216 1679 1766 3307 1770 1752 1872 759 1372 1215 1947 2607 2368 1679 915 2693 1509 1364 1750 897 1160 1214 1851 2553 762 2066 1226 1217 1281 1304 829 823 1145 2130 1200 1136 1531 1079 1057 765 1464 767 1453 982 1598 985 915 1984 1223 2208 1452 2171 1063 1627 1930 839 1220 926 2040 1361 1671 841 1303 827 818 915 1309 2195 1655 907 837 1776 2054 922 1852 2397 766 1060 908 2498 1061 914 985 1208 1285 1150 1305 1988 839 920 682 762 689 921 1741 995 1076 2741 2284 828 1673 907 1240 1435 1403 1569 844 992 761 2192 1521 1064 2152 1148 771 692 1666 1452 1306 1146 1243 2031 1512 1215 1843 1294 1691 762 987 1432 1588 842 830 1375 840 983 1074 1270 2460 1071 845 919 1312 998 1320 1497 1066 836 974 836 1447 1724 2252 1520 1304 1122 764 915 916 989 763 1363 1438 2271 1552 1311 2172 2219 1232 2080 1896 1271 912 910 1517 1366 1982 2655 1130 997 1675 842 759 1084 831 1353 842 1131 1311 929 1303 1674 1657 830 1461 2071 1454 1281 1663 832 1059 1202 756 838 839 1060 1089 1126 1056 1131 2535 1362 1360 1134 1798 1134 1509 1136 907 1206 1000 1908 1055 1071 995 763 1064 981 1136 1381 1516 1209 1072 1751 3235 1668 1906 1367 1875 2003 1071 1538 1381 843 3047 2371 838 1540 2257 1370 1070 2655 2637 1459 1096 1589 1674 1987 2121 838 761 841 838 1315 832 2075 1157 981 988 1074 920 918 1817 991 1369 1511 1281 983 830 1081 2197 847 1067 1068 834 1893 928 761 1591 1770 1597 973 1532 1093 3334 1157 1070 770 1235 758 761 1006 1528 768 2070 922 1070 2051 845 1447 2196 1316 1310 2451 830 1720 1832 2061 831 1832 1060 769 992 1399 1302 1384 1686 977 1390 922 901 926 1791 1336 1629 848 1384 1863 1675 1214 1077 1277 978 1557 1143 965 1198 988 770 685 831 920 1061 1796 1004 1273 2429 1229 1316 1222 1997 1134 916 1164 691 1216 1820 1149 1226 1610 1277 1156 2465 991 1310 756 971 771 837 768 751 764 1159 1060 772 758 1071 1301 2014 1146 1368 1319 2322 1692 1680 925 1065 1604 1218 1066 1620 1754 1140 2104 919 1085 1522 930 1397 1615 1165 1680 2638 1228 849 2138 1364 917 918 840 855 1428 2839 697 1819 1356 915 1455 843 1599 2284 1507 2282 1559 1294 773 997 1510 1282 767 1001 997 1679 1695 1055 1078 838 696 765 767 1606 2510 1539 1203 840 1041 1242 2084 1223 1365 1204 1446 1648 983 1374 844 1074 1914 1744 1518 2478 2037 1145 915 2082 916 1304 1134 1998 836 1310 1303 1950 1461 1701 1236 1077 1369 1372 1524 1666 1598 1511 995 1211 1002 2405 2445 2299 1995 2405 1664 1140 1459 984 1226 1984 1306 1160 1147 1068 1294 1068 1152 1140 1380 1586 1562 1380 1158 776 1547 920 1597 1792 1499 1604 1167 1528 1744 1447 1267 2126 1544 1463 759 2002 1375 1562 2096 1528 2004 842 2390 1678 1508 1455 1467 1598 1084 922 1597 1428 1586 1920 1985 1317 992 998 1684 2043 1370 1439 769 1002 920 1741 1462 839 852 1341 1441 1044 2133 1070 1377 1529 2071 761 1691 1368 1163 1601 1462 1081 1135 1702 989 845 1069 2160 1146 1816 1691 1961 1366 2144 1511 1852 2074 1525 1074 1308 771 1713 1926 1470 1327 1989 2932 3371 1396 1162 1227 1002 1617 1301 1750 1065 1141 1142 2366 1085 1224 1615 1966 845 2382 1137 1543 1154 1080 853 1459 1016 1018 1174 1544 1068 1165 1222 2103 924 769 2253 2549 921 846 1140 1078 837 998 926 1153 1318 1477 911 853 1253 1450 992 1383 1686 1495 1621 1640 2737 1012 1928 915 2809 1459 920 1085 1365 1008 848 1008 2010 1286 2036 1653 1565 1149 1525 1370 1876 1306 2166 1842 1225 1821 1754 1670 1389 994 1241 932 779 1234 3065 815 1084 927 692 1022 994 1237 841 782 770 1440 997 1402 693 1157 1150 785 1445 1478 777 1147 984 1072 1866 1227 932 1384 1780 706 1075 1203 1516 1298 1330 1001 1394 996 1690 1835 997 1002 1538 914 2040 1589 2650 1005 1004 1329 1147 2171 1059 1527 1072 1540 2756 1291 1008 936 1615 701 843 853 1743 1443 1130 784 703 773 930 771 915 912 694 1766 1317 853 2422 1083 3256 822 1658 1949 1085 993 1077 1390 1142 1313 1981 1020 1241 936 1779 1453 1013 2320 1366 856 1826 1292 1417 1197 3830 3023 1600 1994 1431 935 1593 988 1506 1019 849 1301 1553 2900 2583 2442 1379 2296 701 2304 1275 1709 1520 1749 1701 1148 1445 1005 1086 709 3321 2607 1898 1576 3311 1525 1730 3438 1111 777 925 1143 1603 1909 1767 1527 2390 1311 1611 1304 1397 1462 1077 1370 1922 850 1991 836 2123 1907 849 1158 1766 1399 1897 1843 2786 2156 3092 1291 1827 2672 1440 2226 1611 2353 2773 1087 1313 2367 929 991 1153 1624 1600 1713 2537 1320 1725 3475 1305 2003 922 706 1012 991 705 937 1303 1303 1147 1685 1998 1242 771 1467 994 906 1751 1240 1066 2147 1465 1009 1075 1435 1287 1084 1020 1940 1715

Tree=0
num_leaves=52
num_cat=0
split_feature=1 1 3 1 3 2 0 2 18 1 1 3 1 2 17 2 10 3 1 3 467 0 17 1 1 3 2 12 2 786 4 2 509 0 10 2 3 0 0 3 2 11 3 2 307 0 17 1 2 2 8
split_gain=20854 1445.59 1130.16 1008.28 642.027 423.129 275.281 215.89 312.639 170.651 148.468 140.784 139.311 132.018 127.957 106.465 160.693 93.5145 88.8862 76.7576 75.5852 73.5932 56.9167 56.3595 49.1267 48.8299 52.154 42.8033 31.9325 31.1746 29.8864 29.7913 27.4682 25.1458 24.8364 22.3552 19.1703 18.4571 18.17 16.1538 14.0535 12.8973 11.9476 17.6811 11.2347 10.8116 10.7316 8.9494 6.23219 5.91072 5.66674
threshold=4.9959944770855627 5.1759291929220641 2016.5000000000002 4.8201899076756805 2016.5000000000002 7.408227444727113 1.0000000180025095e-35 7.2474365831768024 1.0000000180025095e-35 5.2920829919657217 4.9144865712347068 2015.5000000000002 4.9144865712347068 7.4818373127308169 1.0000000180025095e-35 7.8052708347646744 1.0000000180025095e-35 2015.5000000000002 5.087413967748045 2017.5000000000002 1.0000000180025095e-35 2.8565375825806449 1.0000000180025095e-35 5.0534087684027602 4.7900892153594752 2015.5000000000002 7.3476217619459261 1.0000000180025095e-35 7.9968221406501296 1.0000000180025095e-35 2.524928003624769 7.8401161716663745 1.0000000180025095e-35 2.2200899629856092 1.0000000180025095e-35 7.8802372726319891 2017.5000000000002 6.4950424989761482 8.309806047539519 2016.5000000000002 6.9861041385228182 1.0000000180025095e-35 2015.5000000000002 7.1176108538148393 1.0000000180025095e-35 3.8151391385171745 1.0000000180025095e-35 4.8063570445119543 7.3476217619459261 6.9082550291486795 1.0000000180025095e-35
decision_type=2 2 2 2 2 2 2 2 2 2 2 2 2 2 2 2 2 2 2 2 2 2 2 2 2 2 2 2 2 2 2 2 2 2 2 2 2 2 2 2 2 2 2 2 2 2 2 2 2 2 2
left_child=2 4 10 7 11 12 -3 8 24 14 38 23 20 22 17 16 -7 -8 28 -10 -5 35 27 45 -4 44 40 -6 -13 36 -20 46 -33 -25 -23 -15 -9 -14 47 -16 -27 -17 -40 -44 49 -2 -11 -1 -49 -12 -28
right_child=1 6 3 5 13 15 9 29 19 31 25 18 37 21 39 41 -18 -19 30 -21 -22 34 -24 33 -26 26 50 -29 -30 -31 -32 32 -34 -35 -36 -37 -38 -39 42 -41 -42 -43 43 -45 -46 -47 -48 48 -50 -51 -52
leaf_value=140.50212097167969 144.89542465209962 139.99904098510743 141.93282356262208 145.74513092041016 148.79879074096681 144.43658676147462 147.51507110595702 142.27357177734376 144.68966598510741 155.60614013671875 143.84302520751953 145.35427551269532 147.41100311279297 148.36819534301759 142.87947540283204 144.21049880981445 145.77425842285157 149.91814270019532 146.92261505126953 146.36392669677736 144.32308578491211 145.26586990356446 142.98236770629882 146.06246032714844 144.26365661621094 145.87874526977538 143.66427841186524 149.01135482788087 143.80414581298828 145.31707000732422 145.08433074951171 153.26906127929686 145.46198425292968 144.67790985107422 146.40047760009764 145.5881462097168 143.13448410034181 147.55716857910156 140.35468597412108 146.15145645141601 144.6246368408203 142.57089653015137 143.65398521423339 140.87942123413086 144.47983703613281 143.27280883789064 151.2052017211914 142.37015647888182 142.45187301635741 142.6264575958252 144.27487030029297
leaf_count=5757 53 96 907 1184 1739 981 1088 2428 643 7775 89 858 304 345 76 737 682 3687 599 448 75 459 44 110 213 121 512 247 52 45 72 3233 41 658 224 45 1476 549 360 63 272 187 145 235 55 415 147 979 2178 843 178
internal_value=0 0.689958 -0.676039 -0.443227 0.266554 -0.0938498 0.844502 -0.709416 -0.457259 0.854624 -0.891505 -0.0784523 0.237689 0.580406 0.697599 -0.365288 -0.212267 0.725236 0.11828 -0.0742438 0.0246227 0.293569 0.731034 -0.331715 -0.828571 -0.645411 -0.493998 0.756294 -0.0835165 -0.850089 0.394933 0.923365 0.838119 -0.161458 0.0922401 0.641026 -0.859631 0.549824 -0.944065 -0.23741 -0.195929 -0.638528 -0.778378 -0.636842 -0.809524 -0.606838 0.958344 -0.957595 -0.90624 -0.83691 -0.66087
internal_count=44709 22126 22583 10859 5920 4699 16206 6160 2211 16110 11724 2817 2112 3103 4914 2587 1663 4775 1581 1091 1259 1073 2030 1236 1120 2070 1083 1986 910 3949 671 11196 3274 768 683 390 3904 853 9654 139 393 924 740 380 987 468 7922 8914 3157 932 690
shrinkage=1


Tree=1
num_leaves=53
num_cat=0
split_feature=1 3 1 1 3 2 1 0 2 18 1 1 1 2 2 10 17 17 467 3 3 0 3 11 0 1 2 1 0 2 2 2 1 3 1 274 3 2 3 2 1 1 2 2 0 274 2 307 2 15 1 0
split_gain=19663.2 1221.95 1138.28 1107.46 424.085 412.127 262.033 236.118 219.203 329.437 156.921 123.544 114.944 102.834 99.1023 134.896 92.1716 78.2211 76.4241 72.6114 72.4006 67.162 65.2835 54.182 53.1993 51.3199 45.1591 44.0099 41.0347 38.4365 37.4105 34.04 30.2709 24.1569 23.3747 22.2413 20.365 22.2561 19.6722 18.3355 16.7964 16.5056 15.4568 13.1174 10.4036 9.7399 16.9048 8.70452 5.38187 4.1531 0.942222 0.550957
threshold=5.0256195055983719 2016.5000000000002 4.8313628400548678 5.2204836853639813 2016.5000000000002 7.4027563059541679 4.9188205903793181 1.0000000180025095e-35 7.2671763876743825 1.0000000180025095e-35 4.9144865712347068 5.4099858957428033 5.087413967748045 7.7149005387165177 7.8870207923844946 1.0000000180025095e-35 1.0000000180025095e-35 1.0000000180025095e-35 1.0000000180025095e-35 2017.5000000000002 2015.5000000000002 7.882609606860842 2015.5000000000002 1.0000000180025095e-35 4.0124941667989411 4.7846680404426616 6.9861041385228182 4.7727882981483694 3.8151391385171745 7.4268466029029616 7.6489780543884391 7.5809547892104554 4.7727882981483694 2017.5000000000002 5.1394961702659332 1.0000000180025095e-35 2015.5000000000002 6.959873120617643 2017.5000000000002 7.9548988038803028 5.087413967748045 4.981889574011003 7.8657635858091473 7.5855349501855809 0.86429506858956606 1.0000000180025095e-35 7.3935706924357971 1.0000000180025095e-35 6.7895344892530387 1.0000000180025095e-35 5.4671793810892249 6.2258275760622821
decision_type=2 2 2 2 2 2 2 2 2 2 2 2 2 2 2 2 2 2 2 2 2 2 2 2 2 2 2 2 2 2 2 2 2 2 2 2 2 2 2 2 2 2 2 2 2 2 2 2 2 2 2 2
left_child=1 6 8 4 12 10 32 50 9 27 18 16 28 17 15 -7 21 24 -4 -11 34 -9 45 40 -6 38 48 -3 49 -30 -22 -27 -1 -12 -14 -28 -34 -38 -10 51 -15 -16 -25 -18 -41 47 -47 -8 -24 -2 -5 -13
right_child=3 2 5 7 13 14 22 11 25 19 33 39 20 23 41 -17 43 -19 -20 -21 30 -23 26 42 -26 31 35 -29 29 -31 -32 -33 36 -35 -36 -37 37 -39 -40 44 -42 -43 -44 -45 -46 46 -48 -49 -50 -51 -52 -53
leaf_value=-4.6097858428955076 0.9519808959960927 -3.3073967361450203 0.2918626403808588 -6.1678240203857433 3.4177161407470695 -0.91933387756347718 -2.301194801330567 4.0121624755859386 -3.0106526184082045 -0.69783088684081918 1.3650917053222658 11.280819702148438 -0.51975021362304685 0.88518974304199105 -1.4108066558837891 0.21770507812499887 1.6003187561035164 -2.0471109771728506 -1.0214847564697267 0.81527206420898324 1.7385873413085933 4.5667858886718751 1.7363831329345716 0.013806076049803551 3.275820083618163 -1.0085858154296887 -1.2701042938232421 -1.3857032775878908 -0.2641720581054699 -1.4584179687500012 0.12629638671874943 -2.1339615631103528 -3.5472762298583973 2.460733795166016 0.48146713256836055 -0.0017361450195323869 -2.1342156600952138 -2.4046715927124014 -2.3059738922119153 9.0325756835937518 3.4362792205810551 -0.02339584350585824 -1.0989828491210945 -2.2256416702270498 7.9067028808593767 0.33938629150390515 -2.9229824829101574 -0.88040863037109318 -0.068923110961912934 1.417076416015624 -3.7776819610595709 10.015440368652344
leaf_count=5113 82 870 1012 50 1011 1067 990 3734 1986 749 655 3688 312 156 631 863 87 69 75 508 816 2947 51 155 1729 380 1059 331 558 427 210 474 2208 450 571 102 200 2248 1176 108 147 43 75 49 1774 42 42 55 99 40 40 2395
internal_value=0 -0.629967 -0.392192 0.698069 0.348223 -0.0225188 -0.849292 0.847499 -0.66574 -0.428804 0.296533 0.857394 0.0755968 0.593656 -0.291859 -0.17513 0.757078 0.670345 0.024839 -0.0692124 0.224725 0.773687 -0.554098 0.185741 0.69708 -0.810259 -0.398932 -0.803497 -0.179765 -0.248731 0.405458 -0.58548 -0.922817 0.561991 0.0124575 -0.465978 -0.860825 -0.792484 -0.870335 0.943001 0.465347 -0.623145 -0.173913 -0.0441176 0.848034 -0.732507 -0.357143 -0.760766 0.106667 0.360656 -0.755556 0.972053
internal_count=44709 23479 11270 21230 6358 4796 12209 14872 6474 2458 2192 14782 3016 3342 2604 1930 6817 2809 1087 1257 1909 6681 2440 533 2740 4016 1311 1201 1107 985 1026 854 9769 1105 883 1161 4656 2448 3162 7965 303 674 230 136 1882 1129 84 1045 150 122 90 6083
shrinkage=0.1


Tree=2
num_leaves=55
num_cat=0
split_feature=1 1 3 1 3 2 0 1 1 1 1 3 2 18 2 3 0 0 1 2 3 2 3 2 3 2 12 2 1 10 1 2 3 1 2 18 2 2 3 5 17 2 0 18 436 1 2 0 3 2 0 2 1 0
split_gain=18124.6 1374.65 1075.17 884.835 514.088 360.393 214.776 191.962 180.396 172.462 160.057 141.526 132.863 246.744 110.574 103.08 93.1808 91.9177 74.9962 67.5839 62.3044 61.7614 60.9994 59.9416 49.7134 48.5051 48.2794 46.4766 41.057 41.033 33.5496 28.1445 28.1243 25.9496 23.27 41.9483 22.1504 21.1517 16.656 16.6553 14.9288 10.0552 9.63359 8.97274 7.72393 7.10474 6.70949 6.68773 6.36857 5.04994 3.81987 2.02683 1.30889 0.726695
threshold=4.9959944770855627 5.2204836853639813 2016.5000000000002 4.7900892153594752 2016.5000000000002 7.5540728378669906 1.0000000180025095e-35 4.9144865712347068 4.892013436306959 5.053469173930865 5.4099858957428033 2017.5000000000002 7.4503701830095199 1.0000000180025095e-35 7.4538514748950266 2017.5000000000002 2.8565375825806449 6.7437502630913899 4.865129039929994 7.6489780543884391 2015.5000000000002 7.7623833278391379 2015.5000000000002 7.3148856110385276 2015.5000000000002 7.8052708347646744 1.0000000180025095e-35 6.9861041385228182 5.1394961702659332 1.0000000180025095e-35 4.7679905697822482 8.0062008731996297 2017.5000000000002 5.1039849160777768 7.3585123255376939 1.0000000180025095e-35 7.5008058048275839 7.7534089082220445 2017.5000000000002 1.0000000180025095e-35 1.0000000180025095e-35 7.7000688054085522 3.8151391385171745 1.0000000180025095e-35 1.0000000180025095e-35 4.7700022069370203 6.869533931231917 8.5050873402112561 2016.5000000000002 6.8569880235699889 3.1277824844220317 7.6556273312211056 5.4671793810892249 8.2078741485697844
decision_type=2 2 2 2 2 2 2 2 2 2 2 2 2 2 2 2 2 2 2 2 2 2 2 2 2 2 2 2 2 2 2 2 2 2 2 2 2 2 2 2 2 2 2 2 2 2 2 2 2 2 2 2 2 2
left_child=2 4 8 12 9 7 52 11 30 24 17 -5 13 49 26 -15 37 25 41 22 43 -20 -11 -19 42 -8 38 47 -18 -21 53 40 -9 -28 35 -32 -29 -16 -6 -26 -12 -7 -2 -10 -36 51 -45 -22 -33 -4 -47 -14 -3 -1
right_child=1 6 3 5 14 18 10 32 20 19 31 -13 45 15 16 -17 28 23 21 29 27 -23 -24 -25 39 -27 33 36 -30 -31 34 48 -34 -35 44 -37 -38 -39 -40 -41 -42 -43 -44 46 -46 50 -48 -49 -50 -51 -52 -53 -54 -55
leaf_value=-4.2028676223754875 -0.43891908073425445 -5.5510416183471678 -2.8222301063537603 -0.84692798614501896 2.459269721984862 -1.3066463699340831 3.8071547241210939 0.86171226501464848 -2.3678683929443367 0.14095774841308639 9.6863040161132812 0.59457264709472502 -2.2983394546508804 -1.3628397674560546 2.8295410232543929 -0.0018840522766126356 -0.08586299133300912 5.7854808349609357 -0.16062060546875045 -1.0843037490844736 -0.20189743804931481 -1.0482281646728524 1.4909172668457018 2.8551954956054688 -0.10068473052978676 2.6962974090576184 0.0062907485961915203 -0.80134528350830014 2.0858995895385761 0.34218305969238261 -3.659736297607421 5.7612489624023455 1.7692561035156247 6.0769511489868169 -2.9111010055541984 -2.2026022987365734 -1.6680963058471692 1.3522522811889646 3.6928222732543929 -1.1812986068725593 6.3252670288085939 -2.0673435134887712 -1.7985842437744139 -1.1518194541931166 -0.81728499221801776 -0.50657908630371085 -2.206665683746337 1.2262515563964855 8.6477205200195328 -3.0967765388488773 -2.4587645835876475 -3.2288756103515626 -3.3999137649536126 -4.684588165283202
leaf_count=4503 53 50 155 1338 1192 341 2408 666 292 816 6208 974 1030 1004 407 653 609 1614 617 293 74 866 946 2078 555 717 152 554 266 273 576 808 492 132 2560 1210 650 163 832 122 127 477 443 72 43 42 914 75 822 1108 215 881 40 201
internal_value=0 0.642954 -0.630519 -0.403444 0.285636 -0.134985 0.817106 0.0680115 -0.840669 0.00942588 0.826546 -0.0977509 -0.707547 -0.566438 0.542766 -0.310803 0.323183 0.712777 -0.441982 0.167526 -0.607754 -0.305462 0.264472 0.604009 -0.302643 0.84064 0.679376 -0.454545 0.115429 -0.130742 -0.907841 0.923666 0.400691 0.28169 -0.841422 -0.74692 -0.519934 0.638596 0.73419 -0.1226 0.955485 -0.687042 -0.544355 -0.768388 -0.905494 -0.896679 -0.713996 0.0604027 0.798773 -0.900238 -0.70428 -0.921507 -0.711111 -0.969388
internal_count=44709 22126 22583 10859 7254 5771 14872 3470 11724 3501 14782 2312 5088 2920 3753 1657 1445 6817 2301 2328 2631 1483 1762 3692 1173 3125 2308 1353 875 566 9093 7965 1158 284 4389 1786 1204 570 2024 677 6335 818 496 1278 2603 2168 986 149 1630 1263 257 1911 90 4704
shrinkage=0.1


Tree=3
num_leaves=56
num_cat=0
split_feature=1 3 1 1 2 3 1 0 1 1 2 18 1 3 18 2 0 1 2 0 2 3 17 2 1 2 2 12 2 2 3 1 274 3 2 3 3 1 18 3 477 2 2 17 1 0 1 274 2 307 0 2 18 2 1
split_gain=16572.9 1102.28 1026.44 946.725 353.813 317.751 291.717 204.774 196.493 171.475 131.075 246.164 120.089 117.081 104.922 89.3811 87.9693 98.6026 87.6942 77.4535 68.5882 64.5591 62.3025 59.8401 55.1344 53.187 51.389 48.5277 47.0421 41.9188 39.3677 35.9129 34.852 33.8878 35.5988 33.8712 32.0863 32.0487 28.221 28.126 27.788 23.9984 23.1391 23.0403 20.3362 16.4056 16.082 15.2463 19.9524 11.1991 6.78393 5.52865 20.7895 3.16541 1.30889
threshold=5.0256195055983719 2016.5000000000002 5.2204836853639813 4.7900892153594752 7.4027563059541679 2016.5000000000002 4.9144865712347068 1.0000000180025095e-35 5.341252056663933 4.9144865712347068 7.2170764592029961 1.0000000180025095e-35 4.887811142953848 2016.5000000000002 1.0000000180025095e-35 7.7780020504256626 2.8565375825806449 5.1139184392225419 7.4268466029029616 2.8565375825806449 7.773384073921366 2015.5000000000002 1.0000000180025095e-35 7.3892550256480369 4.7679905697822482 7.8158121855971094 7.8330057325829623 1.0000000180025095e-35 7.5008058048275839 7.7534089082220445 2015.5000000000002 5.0066725050294663 1.0000000180025095e-35 2017.5000000000002 7.4818373127308169 2017.5000000000002 2017.5000000000002 5.1394961702659332 1.0000000180025095e-35 2017.5000000000002 1.0000000180025095e-35 7.749106900957945 6.8227417564880897 1.0000000180025095e-35 5.4611595483283883 4.0124941667989411 4.6495066790653956 1.0000000180025095e-35 7.3935706924357971 1.0000000180025095e-35 8.2592160389793801 7.0979622446027903 1.0000000180025095e-35 7.4268466029029616 5.4671793810892249
decision_type=2 2 2 2 2 2 2 2 2 2 2 2 2 2 2 2 2 2 2 2 2 2 2 2 2 2 2 2 2 2 2 2 2 2 2 2 2 2 2 2 2 2 2 2 2 2 2 2 2 2 2 2 2 2 2
left_child=1 6 5 10 9 16 24 54 13 14 11 46 35 20 -5 -14 26 23 27 41 -9 47 -19 -18 51 43 40 45 32 -15 53 -30 -23 50 -35 -6 -13 -21 -32 -11 -2 -20 -29 -10 -27 -7 -3 49 -49 -8 -12 52 -1 -26 -4
right_child=2 3 7 4 12 18 21 8 25 39 33 36 15 29 -16 -17 17 22 19 37 -22 28 -24 -25 30 44 -28 42 31 -31 38 -33 -34 34 -36 -37 -38 -39 -40 -41 -42 -43 -44 -45 -46 -47 -48 48 -50 -51 -52 -53 -54 -55 -56
leaf_value=-5.076953800201415 1.2946791473388659 -3.766758537673951 -4.9959374565124506 -0.76223518753051855 -1.6014586547851566 3.0793590614318833 -1.9127668460845939 2.3753908508300783 8.6384042053222654 1.1052503009796126 -2.4532976520538328 -0.46289953308105397 0.033928267669676875 4.5605132110595692 0.60584486351013145 -0.91795340576171902 -0.016872298812867826 1.0141993499755841 2.5092517158508287 -0.082226845550538039 0.74373417358398519 -0.43765515213012524 -4.9174521263122575 -1.2456244590759269 -3.081564952087402 3.6158006713867197 -1.0758964988708499 7.2315909339904785 -1.569112562942506 2.1895925491333004 -2.3554355651855476 0.5629184410095206 1.5690612945556623 -1.2321956966400167 -2.095391024398805 -0.78957346878052026 0.718944554519652 1.8178715354919435 -1.7730623247146611 1.9560638420104965 -0.046688777160645151 1.121664351654053 0.64281377334594658 5.2172398376464857 6.6953340820312519 3.1906565925598147 -1.0807046894073495 0.48530608673095799 -2.4508258102417018 -0.57170119895935156 -2.0809037387847895 -3.748930652618407 -1.9624171333312974 -2.8807273704528797 -3.0599223884582503
leaf_count=470 452 451 50 719 842 549 1046 2236 6075 655 2051 454 1153 2221 1107 682 781 1010 478 523 486 662 55 592 1101 867 70 88 577 588 597 62 69 570 727 574 309 278 2033 450 56 158 189 120 2189 1079 400 42 42 55 126 3917 317 1219 40
internal_value=0 -0.582009 0.637211 -0.356167 -0.0928502 0.300409 -0.790319 0.781065 0.790285 0.158649 -0.675708 -0.437423 -0.320209 0.639848 -0.0284775 -0.149864 0.0643236 -0.0180476 0.512867 0.323591 0.490081 -0.488063 0.20939 -0.195921 -0.870106 0.880013 0.415225 0.654593 -0.337226 0.784265 -0.793939 -0.536776 -0.160055 -0.785838 -0.651503 -0.539548 -0.0222805 0.113608 -0.706464 0.469683 0.527559 0.584906 0.256318 0.934786 0.768325 0.72113 -0.807286 -0.660759 -0.214286 -0.693006 -0.864952 -0.94983 -0.850064 -0.892241 -0.711111
internal_count=44709 23479 21230 11270 6182 6358 12209 14872 14782 2931 5088 1614 3251 5531 1826 1835 3016 2438 3342 1437 2722 2555 1065 1373 9654 9251 578 1905 1370 2809 4950 639 731 3474 1297 1416 763 801 2630 1105 508 636 277 6195 3056 1628 851 1185 84 1101 2177 4704 787 2320 90
shrinkage=0.1


Tree=4
num_leaves=53
num_cat=0
split_feature=1 1 3 1 3 3 2 1 0 17 2 2 2 18 3 3 3 2 2 1 18 0 1 1 10 3 3 2 18 19 17 1 1 17 1 309 2 9 2 0 2 0 10 0 18 3 2 1 1 1 2 1
split_gain=15178.2 1343.89 742.397 726.332 498.465 317.195 246.665 163.893 151.972 147.76 144.629 142.867 137.332 268.561 147.936 115.258 113.204 93.2859 83.8515 79.5946 69.6707 65.3004 57.6012 54.1882 50.4944 46.7199 42.8642 39.9509 80.2136 37.9394 34.8786 33.6206 32.7545 36.7306 29.0962 27.2511 21.8595 20.9212 22.0622 19.3359 18.5034 17.9027 17.232 16.675 14.4616 13.081 10.7953 9.95844 7.57829 5.0352 4.29417 4.1444
threshold=5.0471588451816096 4.8641835361783583 2016.5000000000002 5.2920829919657217 2017.5000000000002 2015.5000000000002 7.7581198379213294 4.7437759683901328 1.0000000180025095e-35 1.0000000180025095e-35 7.7000688054085522 7.4538514748950266 7.1970609624654713 1.0000000180025095e-35 2015.5000000000002 2017.5000000000002 2015.5000000000002 7.6398827302766898 7.545653950410574 5.1588508827141348 1.0000000180025095e-35 3.3754797222269679 5.4611595483283883 4.9144865712347068 1.0000000180025095e-35 2015.5000000000002 2016.5000000000002 7.36232791083878 1.0000000180025095e-35 1.0000000180025095e-35 1.0000000180025095e-35 4.9326993082272788 5.4671793810892249 1.0000000180025095e-35 4.7700022069370203 1.0000000180025095e-35 7.5328912131221761 1.0000000180025095e-35 8.014501053882185 4.0124941667989411 7.8052708347646744 2.2200899629856092 1.0000000180025095e-35 2.8565375825806449 1.0000000180025095e-35 2017.5000000000002 7.4268466029029616 4.7336427370471554 4.7457648675822561 4.6735669150252344 7.5727601205364659 5.2157465044645202
decision_type=2 2 2 2 2 2 2 2 2 2 2 2 2 2 2 2 2 2 2 2 2 2 2 2 2 2 2 2 2 2 2 2 2 2 2 2 2 2 2 2 2 2 2 2 2 2 2 2 2 2 2 2
left_child=1 4 16 5 12 19 15 27 -5 10 21 29 13 48 -15 23 31 32 20 41 -18 -7 25 -4 -12 -19 47 28 -6 -9 40 46 33 -10 -28 -20 -17 38 -8 -24 -21 50 -43 -13 -33 51 -3 -14 -1 -29 -2 -11
right_child=3 2 6 8 7 9 37 11 17 45 24 43 26 14 -16 36 18 22 35 30 -22 -23 39 -25 -26 -27 34 49 -30 -31 -32 44 -34 -35 -36 -37 -38 -39 -40 -41 -42 42 -44 -45 -46 -47 -48 -49 -50 -51 -52 -53
leaf_value=-3.865663422374725 0.97180412353515644 -1.7226749522018423 -0.46669441467285111 -3.2439826791381821 -1.9781342839431773 2.5349210877227764 -0.54757247100829998 0.56576596412658375 4.57422629699707 -3.2195089865875248 0.29145643463134835 -0.33565781806945838 -3.7266960498809798 -2.2767541809844971 -0.5218395789718614 1.3389931064605691 -0.94154373542785663 1.3133807551574705 -1.3920773963737489 1.1600050555419927 -0.080202446508407382 2.9139611242294325 6.2892808312988313 0.45511915782928442 1.7289464638519292 3.1828741259765652 -2.2578863228988637 -3.2535298836898821 -0.11724738628387571 -2.1462818721771271 -5.0013021765899657 -1.398723743400575 11.101230044555663 0.45019114685058814 -1.6510189612960802 0.62384385154724109 0.29133334968566943 0.66874733032226463 -1.3170930894470219 6.044055306396487 -0.14294965522765893 -1.3302997391128557 0.11147203910827558 -1.281186145629883 -1.6405670810317987 0.48651976654052764 -1.9904361935424788 -2.6913000344085676 -2.533230154876708 -1.6123766564559958 -0.050965804443359276 -1.8748965081024196
leaf_count=1159 63 301 577 71 383 1572 688 858 2789 74 723 177 2510 591 1390 1046 419 475 1065 1065 927 3751 1520 1478 656 1630 1972 265 297 54 42 228 3386 68 1138 47 366 61 285 1328 154 443 135 499 963 50 680 3208 602 383 40 57
internal_value=0 -0.530975 -0.226372 0.640354 -0.710448 0.425042 0.0624306 -0.336763 0.808822 0.525788 0.549985 -0.118388 -0.796977 -0.63442 -0.380111 0.190655 -0.507559 0.818149 -0.358828 0.0669413 -0.188707 0.625023 0.713709 0.0384428 0.258883 0.584798 -0.865655 -0.596386 -0.420588 0.138158 0.216495 -0.674954 0.900689 0.817291 -0.767203 -0.56295 0.410765 -0.365571 -0.40185 0.808287 0.248564 -0.207048 -0.276817 -0.467456 -0.556675 -0.359116 -0.816514 -0.918853 -0.919364 -0.777778 0.165049 -0.526718
internal_count=44709 24617 9131 20092 15486 8825 4501 2916 11267 6883 6702 1588 12570 3742 1981 3467 4630 11196 2458 1942 1346 5323 4953 2055 1379 2105 8828 1328 680 912 1261 2172 6243 2857 3110 1112 1412 1034 973 2848 1219 681 578 676 1191 181 981 5718 1761 648 103 131
shrinkage=0.1


Tree=5
num_leaves=55
num_cat=0
split_feature=1 3 1 1 1 3 2 2 18 1 1 0 3 1 467 3 2 2 3 3 17 2 2 0 1 2 0 1 0 3 18 11 0 2 2 17 2 2 1 411 1 2 18 2 2 1 1 0 18 2 0 3 2 0
split_gain=13752.9 1044.89 1002.36 730.315 321.648 302.921 256.463 168.626 245.248 164.187 141.654 129.095 129.049 111.185 101.616 87.3634 78.3264 76.6824 73.0679 71.1164 68.1595 62.8841 57.8097 53.7286 53.475 52.4628 51.0311 48.7549 48.5455 46.859 43.6947 39.3092 38.3964 37.0655 36.1401 35.9308 31.3796 30.8438 30.7621 30.6765 30.5705 26.273 23.1135 38.2181 21.5186 20.5344 18.6496 13.9384 4.6156 25.7372 4.12121 4.8192 2.30129 0.26111
threshold=5.0256195055983719 2016.5000000000002 5.2514692449626539 4.8063570445119543 4.8805297136857009 2016.5000000000002 7.3673928161276931 7.3984801841952077 1.0000000180025095e-35 5.5156486421783884 5.1394961702659332 1.0000000180025095e-35 2015.5000000000002 5.087413967748045 1.0000000180025095e-35 2015.5000000000002 7.6641119454010447 7.9231670853206753 2017.5000000000002 2017.5000000000002 1.0000000180025095e-35 7.6229085099002498 7.1232697219018464 4.1975395964856359 4.6685083381564203 7.505217171566799 3.8151391385171745 4.7456239333461516 4.0124941667989411 2015.5000000000002 1.0000000180025095e-35 1.0000000180025095e-35 8.0490925442743961 7.311552274248398 7.8730266149442336 1.0000000180025095e-35 7.9548988038803028 7.1970609624654713 5.3573017651521715 1.0000000180025095e-35 4.7336427370471554 7.5890828507392163 1.0000000180025095e-35 7.4268466029029616 7.4919242581119381 5.1394961702659332 4.9345339625042222 1.3918720653661192 1.0000000180025095e-35 7.1712726506405104 0.86429506858956606 2015.5000000000002 7.4220747473157358 9.8663718336582864
decision_type=2 2 2 2 2 2 2 2 2 2 2 2 2 2 2 2 2 2 2 2 2 2 2 2 2 2 2 2 2 2 2 2 2 2 2 2 2 2 2 2 2 2 2 2 2 2 2 2 2 2 2 2 2 2
left_child=1 4 5 7 27 10 14 8 24 11 26 -4 38 28 18 42 35 19 -5 -8 -14 23 -10 -12 -3 30 34 48 39 52 -17 -27 -23 -28 -2 -15 53 -31 -13 -7 47 -42 -6 -44 -30 -18 -19 -9 -1 -50 -38 -52 -29 -11
right_child=2 3 9 6 15 13 17 40 22 36 21 12 20 16 -16 25 45 46 -20 -21 -22 32 -24 -25 -26 31 33 29 44 37 -32 -33 -34 -35 -36 -37 50 -39 -40 -41 41 -43 43 -45 -46 -47 -48 -49 49 -51 51 -53 -54 -55
leaf_value=-4.1087292036819436 0.4056461513004308 -3.0808848872013104 -3.6062746665801999 0.27522505519485491 -1.6219275699272147 2.7217525753536211 -0.59746898386383129 -0.69364759867477521 0.30615844295120098 10.124354149230957 1.9121189010295851 1.282599057922363 4.1208177359619143 2.9152812815017684 -0.88784186550140598 -0.86621336701202267 -0.17781616111755627 -1.2413382636108397 1.2267822854232762 0.07540629581451129 0.78645650956726176 0.5997862083358797 -0.61935525133895908 1.5006141311073264 -1.0256324134397516 -0.78099256177139442 -0.13963441283035394 -2.6197636969871532 0.85287252016067328 -1.2410521233978302 -0.024756953358652824 -1.9501976551551836 -1.154357977901455 -1.0065066356620804 -1.632828630966185 -0.70138974795532372 5.0758186126861604 -1.8261604697151199 2.2550395132446286 0.057541216499328134 -0.79294094107437163 -1.7484276466636659 -1.2080170766944889 -1.6529145629920947 -0.18373276845168932 1.4908791417121876 -0.43955653841400139 -2.5995455286293039 -1.740796487800597 -3.0178379378128031 4.8287617264404332 7.8753681717529336 -2.819924700157165 10.209533401184082
leaf_count=1340 419 701 54 1318 382 367 1561 134 584 3393 253 768 6173 2318 75 350 142 516 955 1056 151 362 1066 1460 615 625 673 1027 564 645 628 333 264 667 40 56 70 1790 1070 92 487 712 506 872 323 630 153 1337 389 2216 217 590 1106 114
internal_value=0 -0.533455 0.577202 -0.313576 -0.73626 0.314253 -0.0585729 -0.568133 -0.402562 0.757143 0.118415 0.672833 0.683166 0.494212 0.193356 -0.488636 0.597584 -0.239197 0.231852 -0.160871 0.751423 0.280889 -0.144242 0.380035 -0.724924 -0.339876 -0.0917176 -0.843533 0.251114 -0.770578 -0.173824 -0.507307 0.00638978 -0.191045 0.1939 0.68829 0.91469 -0.672279 0.447225 0.51634 -0.751311 -0.626355 -0.651136 -0.586357 0.111612 0.316062 -0.542601 -0.851801 -0.927503 -0.89405 0.735462 0.759603 -0.881857 0.958939
internal_count=44709 23479 21230 11270 12209 8630 5634 5636 2966 12600 4138 8216 8162 4492 2348 3696 3146 3286 2273 2617 6324 2339 1650 1713 1316 1936 1799 8513 1346 4568 978 958 626 1340 459 2374 4384 2435 1838 459 2670 1199 1760 1378 887 772 669 1471 3945 2605 877 807 2133 3507
shrinkage=0.1


Tree=6
num_leaves=55
num_cat=0
split_feature=1 1 3 1 3 2 1 1 18 3 1 0 0 3 2 3 1 1 0 1 1 2 18 2 2 17 2 2 1 17 2 3 3 1 2 18 10 411 1 5 18 12 2 1 0 3 0 18 0 0 3 18 1 0
split_gain=12412.5 1156.01 893.177 520.882 325.6 300.454 273.216 229.699 182.162 165.053 135.373 128.16 104.424 97.0057 89.5909 84.7105 84.5294 73.8627 71.9419 68.9681 61.7751 110.386 54.8524 51.2116 47.8672 46.3468 44.858 44.3428 44.2877 42.6976 41.2906 37.7751 36.7839 32.8867 38.6868 40.3612 31.7994 24.8507 23.1716 19.3187 19.2116 19.1215 13.8301 10.6912 10.6639 9.9299 9.55779 8.12148 6.96462 4.36614 4.22987 5.37343 0.992934 0.65869
threshold=4.981889574011003 5.2204836853639813 2016.5000000000002 4.7296449820901794 2016.5000000000002 7.3984801841952077 5.5075694150822594 4.8189599748813157 1.0000000180025095e-35 2016.5000000000002 4.852217512042948 1.0000000180025095e-35 1.3918720653661192 2015.5000000000002 7.311552274248398 2017.5000000000002 4.8641835361783583 5.053469173930865 3.1277824844220317 5.2946094072085268 4.589193588319108 7.3527615103795085 1.0000000180025095e-35 7.8052708347646744 7.7834323062786455 1.0000000180025095e-35 7.6311891227336828 6.9861041385228182 5.0808406761304807 1.0000000180025095e-35 7.6964398604364357 2017.5000000000002 2015.5000000000002 4.7258628125714095 7.4220747473157358 1.0000000180025095e-35 1.0000000180025095e-35 1.0000000180025095e-35 4.9326993082272788 1.0000000180025095e-35 1.0000000180025095e-35 1.0000000180025095e-35 7.6603498904385932 4.9392805070234553 3.8151391385171745 2015.5000000000002 8.5050873402112561 1.0000000180025095e-35 0.86429506858956606 3.6035896143025741 2015.5000000000002 1.0000000180025095e-35 5.6290347088714787 4.5365361473354211
decision_type=2 2 2 2 2 2 2 2 2 2 2 2 2 2 2 2 2 2 2 2 2 2 2 2 2 2 2 2 2 2 2 2 2 2 2 2 2 2 2 2 2 2 2 2 2 2 2 2 2 2 2 2 2 2
left_child=2 4 7 20 17 8 9 33 15 12 31 -11 -3 38 28 -5 -10 32 37 -14 -4 22 -22 -12 53 30 -13 46 41 -20 -19 -7 40 50 35 -35 -29 -16 47 -34 -2 -6 -23 -40 -30 52 -15 -9 -47 -36 -1 -52 -26 -8
right_child=1 6 3 5 14 10 24 13 16 11 23 26 19 27 18 -17 -18 25 29 -21 21 42 -24 -25 45 -27 -28 36 44 -31 -32 -33 39 34 49 -37 -38 -39 43 -41 -42 -43 -44 -45 -46 48 -48 -49 -50 -51 51 -53 -54 -55
leaf_value=-3.6254477025337195 -0.8053705679981249 -8.6254340727859482 -3.7188611187046066 -1.0832729550397886 1.3223186393241861 -1.4027960867914218 11.199341180841067 -2.0719822179344178 0.11143096295814417 -3.2020533713394133 -0.10439357414398104 4.6308250955978396 1.3051934955844844 -0.52548918171844716 1.8684508080757127 0.010283271632673063 1.6392548415073407 0.49404425780840172 0.43182130775299471 2.5541430509613052 -1.2315343440378201 -1.5802387624157435 -0.38809259481926123 -0.75703004782485839 2.3195727844635017 -4.1575094702980016 2.8476291085601817 -1.3508732078073522 2.5421569314277637 -2.2542403111999536 -0.22825728380947227 -0.86091027583427726 0.050142520406339486 -2.3445118767816524 -1.7455067693260204 -1.3395634910305034 -0.63418016326599236 -0.26336434863204944 -0.8582104905353547 -0.90886340873747151 -1.0636716111186986 0.23212704670905851 -2.5590818164875033 -1.7294672301246636 3.837471624371338 4.5682367514175439 0.61708703383207253 -1.7260054957506179 6.5336550240112334 -2.7802327214744582 -3.4659783841438272 -2.1932960416145306 6.13094205248413 8.2235536747375484
leaf_count=1526 170 50 657 619 584 1291 2142 356 1504 55 1274 2858 2100 122 792 482 914 1803 1228 2985 452 835 609 746 225 66 2313 1431 258 76 459 820 614 611 418 1079 908 60 151 133 403 122 535 545 754 82 120 1283 912 1224 636 1167 92 1058
internal_value=0 0.521658 -0.532153 -0.324083 0.201808 -0.183791 0.683297 -0.724972 0.0304064 0.593283 -0.366739 0.719097 0.464849 -0.559805 0.403717 -0.306085 0.18445 -0.0120614 0.266234 0.479253 -0.670984 -0.595228 -0.34967 -0.180198 0.889603 0.0945017 0.735448 -0.424254 0.575087 0.116564 0.119363 -0.544292 -0.201515 -0.84657 -0.772509 -0.661538 -0.466439 0.492958 -0.708779 -0.0522088 -0.39267 0.376771 -0.783942 -0.545977 0.711462 0.722349 -0.00826446 -0.776693 0.77666 -0.885505 -0.920096 -0.874653 0.545741 0.9575
internal_count=44709 22394 22315 10738 7522 7650 14872 11577 3519 10361 4131 5226 5135 4916 3874 1101 2418 3648 2156 5085 3088 2431 1061 2020 4511 2328 5171 2581 1718 1304 2262 2111 1320 6661 3332 1690 2339 852 2335 747 573 706 1370 696 1012 1311 242 1639 994 1642 3329 1803 317 3200
shrinkage=0.1


Tree=7
num_leaves=59
num_cat=0
split_feature=1 1 3 1 3 1 3 1 2 1 3 2 2 0 3 1 2 1 2 2 10 2 3 10 11 0 5 1 2 2 0 18 2 520 2 1 12 18 18 1 1 18 611 2 2 611 11 3 2 2 2 5 0 2 4 3 0 1
split_gain=11027.9 1091.16 804.802 472.211 302.64 224.811 220.488 217.849 147.438 143.675 135.121 127.478 126.253 117.596 111.842 114.026 118.29 73.1097 61.4613 54.0278 53.6115 60.9837 49.5973 48.3353 46.591 45.4754 44.4293 43.6892 68.0367 40.5154 40.0783 36.6326 36.1943 36.163 34.7401 28.1233 27.7823 26.3788 26.0726 25.511 24.9659 21.3907 21.0704 50.8415 20.8778 19.9076 18.029 16.6097 16.06 15.5339 11.192 5.06681 3.10092 2.68239 1.40293 0.955313 3.02872 0.0438488
threshold=4.9799357762037051 5.2514692449626539 2017.5000000000002 4.8189599748813157 2016.5000000000002 5.5248080788510388 2015.5000000000002 4.7258628125714095 7.5194211808931817 5.1394961702659332 2015.5000000000002 7.7050371988994604 6.9861041385228182 1.0000000180025095e-35 2015.5000000000002 4.6892809365853516 7.408227444727113 5.0965291370918306 7.576865848924859 7.6229085099002498 1.0000000180025095e-35 8.0344689846312995 2015.5000000000002 1.0000000180025095e-35 1.0000000180025095e-35 4.1975395964856359 1.0000000180025095e-35 4.5625294889952182 7.1902991025390088 7.576865848924859 2.5564266076365922 1.0000000180025095e-35 8.0344689846312995 1.0000000180025095e-35 7.0711487357359051 4.8641835361783583 1.0000000180025095e-35 1.0000000180025095e-35 1.0000000180025095e-35 5.0965291370918306 5.3573017651521715 1.0000000180025095e-35 1.0000000180025095e-35 7.6687946983027908 7.5008058048275839 1.0000000180025095e-35 1.0000000180025095e-35 2015.5000000000002 8.1680611465969353 7.6603498904385932 7.6398827302766898 1.0000000180025095e-35 6.130883941134015 7.2474365831768024 2.8029010331479989 2015.5000000000002 4.5365361473354211 4.9144865712347068
decision_type=2 2 2 2 2 2 2 2 2 2 2 2 2 2 2 2 2 2 2 2 2 2 2 2 2 2 2 2 2 2 2 2 2 2 2 2 2 2 2 2 2 2 2 2 2 2 2 2 2 2 2 2 2 2 2 2 2 2
left_child=2 4 3 14 9 10 38 27 31 22 40 17 37 -12 42 41 -17 30 -15 25 45 -22 36 39 -21 -11 -14 -4 51 55 -6 34 -24 -19 -9 -33 -2 -8 57 -13 46 -16 53 -44 -40 -10 -3 54 -25 -30 -42 -29 -49 -1 -31 56 -7 -5
right_child=1 5 7 6 11 29 12 8 20 19 13 23 26 18 15 16 -18 33 -20 24 21 -23 32 48 -26 -27 -28 28 49 47 -32 35 -34 -35 -36 -37 -38 -39 44 -41 50 -43 43 -45 -46 -47 -48 52 -50 -51 -52 -53 -54 -55 -56 -57 -58 -59
leaf_value=-2.5290625095533827 -0.49747837544954199 1.5872009478488138 -2.9175031281272115 -1.9694754314807144 1.8755511758095538 16.38800081275696 -0.60107508955118194 0.54095042660183601 -0.94820225460117347 1.6686723698442734 -2.937806441035308 -0.87122008340706147 -0.60663346071670365 4.0107927698204806 -3.0937740562812053 -0.8987762854587743 -1.5769106244763038 2.3579998680715932 2.6851563209981921 0.61447235969660885 0.3040446609936851 -0.94406636791452747 0.074258832277658379 1.1255758339769741 -1.3221066064888163 1.2651511702026654 -1.3738263528200378 0.36094088785924899 -0.92140451731807227 3.3966260094671643 0.66752174987335311 0.57258735100414249 -1.3737820824897711 -0.43122642223747509 -0.33505294574313216 1.680878896578939 -7.2333956212675874 1.1209016601792869 -1.4556639148402994 0.22540550874389567 1.9884062906985478 -2.1342239515511885 0.53136170478656763 -2.2472319560408778 -1.5363647407448184 0.28064361869747073 0.27115580611171597 5.4563808141002657 -0.7586734336011518 -1.9125859658476658 1.4972858046145605 -0.36498813426887583 6.5903511877020264 -2.9626759768665298 3.0510542824301154 11.110392406690064 4.2418522989630105 -1.362363558463288
leaf_count=1037 989 323 220 322 479 456 110 157 632 253 53 228 3821 3139 1135 2256 2474 2287 3358 370 432 121 1338 439 256 1460 850 181 464 296 1276 802 61 65 394 469 96 411 820 317 515 1433 41 68 1054 53 445 789 44 203 618 99 459 1967 80 1873 196 125
internal_value=0 0.485504 -0.507833 -0.600424 0.237799 0.681111 -0.408758 -0.114739 0.0248366 0.0574331 0.586794 0.406816 -0.293529 0.655267 -0.738546 -0.669773 -0.576321 0.485756 0.667539 0.235571 -0.240711 -0.00542495 -0.109501 0.0894942 -0.0127796 0.327496 -0.34575 -0.482434 -0.385428 0.87274 0.328775 0.206367 0.0135811 0.602041 -0.00544465 0.299764 -0.270046 0.170825 -0.665661 -0.111927 0.349816 -0.841121 -0.899133 -0.431193 -0.610459 -0.427737 0.205729 0.743842 0.320911 -0.55922 0.445719 0.0214286 0.802885 -0.915446 0.542553 0.954851 0.880368 -0.892617
internal_count=44709 22558 22151 17924 9958 12600 7513 4227 3060 4823 8451 5135 5192 6550 10411 7298 4730 4107 6497 2339 1238 553 2484 1028 626 1713 4671 1167 947 4149 1755 1822 1399 2352 551 1271 1085 521 2321 545 1901 2568 3113 109 1874 685 768 1624 483 667 1133 280 1248 3004 376 2525 652 447
shrinkage=0.1


Tree=8
num_leaves=57
num_cat=0
split_feature=1 1 3 1 3 1 2 2 1 1 2 0 1 2 1 2 3 0 1 11 18 2 3 18 3 3 3 3 2 11 11 3 17 17 18 2 1 2 0 10 0 11 1 18 2 2 18 2 0 17 1 1 0 3 2 1
split_gain=9722.41 1008.61 766.471 431.308 332.655 252.538 220.835 171.617 148.724 144.092 136.547 103.082 92.2383 84.544 82.7238 101.496 76.9445 88.7432 75.4594 73.332 71.9249 127.869 68.5773 61.5716 57.2613 53.9634 51.9114 51.6087 50.8648 45.5187 43.5798 43.4262 42.7717 42.4691 40.7301 39.9418 39.0496 37.7678 35.7714 27.1044 25.5158 23.3316 22.9801 21.454 28.5614 21.0544 19.3122 13.9828 13.9559 12.3496 10.8397 7.88148 2.29341 2.46415 0.554837 0.302935
threshold=4.9799357762037051 5.2946094072085268 2016.5000000000002 4.7296449820901794 2016.5000000000002 4.8641835361783583 7.1712726506405104 7.576865848924859 4.8911427204068181 5.1851984178656076 7.7330265884759095 1.0000000180025095e-35 5.0965291370918306 7.6106052043540453 4.589193588319108 7.3585123255376939 2016.5000000000002 1.3918720653661192 5.5366247338655503 1.0000000180025095e-35 1.0000000180025095e-35 7.4327795784078505 2017.5000000000002 1.0000000180025095e-35 2015.5000000000002 2015.5000000000002 2015.5000000000002 2015.5000000000002 7.773384073921366 1.0000000180025095e-35 1.0000000180025095e-35 2017.5000000000002 1.0000000180025095e-35 1.0000000180025095e-35 1.0000000180025095e-35 7.4457095275129044 5.344475681483579 7.5498722538214809 2.5564266076365922 1.0000000180025095e-35 1.3918720653661192 1.0000000180025095e-35 4.8063570445119543 1.0000000180025095e-35 7.5008058048275839 7.8657635858091473 1.0000000180025095e-35 8.2473510285154621 1.837014069290728 1.0000000180025095e-35 5.5156486421783884 4.8449767400284136 4.5365361473354211 2016.5000000000002 6.6444403513266588 4.9409936986406162
decision_type=2 2 2 2 2 2 2 2 2 2 2 2 2 2 2 2 2 2 2 2 2 2 2 2 2 2 2 2 2 2 2 2 2 2 2 2 2 2 2 2 2 2 2 2 2 2 2 2 2 2 2 2 2 2 2 2
left_child=2 4 5 14 9 20 23 18 22 25 12 -9 38 32 54 34 17 -13 27 47 48 26 -8 31 43 39 -22 50 -10 -15 -23 -5 -11 -14 -16 -27 -18 46 -6 -2 -17 -39 -25 55 -45 -21 -26 -12 -1 -29 -3 -50 -20 -54 -4 -7
right_child=1 7 3 6 10 24 8 11 28 13 19 16 33 29 15 40 36 -19 52 45 21 30 -24 42 37 35 -28 49 -30 -31 -32 -33 -34 -35 -36 -37 -38 41 -40 -41 -42 -43 -44 44 -46 -47 -48 -49 51 -51 -52 -53 53 -55 -56 -57
leaf_value=-0.66430080276780645 -0.72001431911910463 1.8264916785186474 -4.7134610977851938 -0.75227544547652769 1.6348535230266066 -1.3216442137110604 -0.92998488724803396 -2.6107821205554331 0.13706173125414695 1.5947972125995193 1.2054123858852166 -8.7460123952680018 2.4026777196319018 0.61434566585432016 -0.9115782973984331 -0.36267848376454381 1.4441800818244361 2.2265252339982937 13.047939855397892 -0.11355217045164637 -1.7433110223941668 -1.2370929093460405 -0.45009647929700236 0.26172193570808416 -0.76922199832637261 0.38861569581831934 -0.83130820245420844 3.7437305419246729 -0.57590782421873143 -0.66598106754084085 -2.3274515298324943 0.24179442888975589 -2.6410780100192315 -0.50308211716024687 -0.23879256900104481 -0.2944337739622313 4.6024379672614488 -0.74760490438334848 0.59108989062370376 0.20443170349651896 -1.7468938535205298 -1.5544421764005407 1.4413428108230164 -0.89072281440403178 -1.2865349724590829 -1.1149054131390217 -0.11755805243113003 -0.020629433152603838 -2.9534312345620837 2.4851589592909962 -0.016644091825594388 -1.139773202016231 5.327195199407285 10.179938729680723 -3.0142140340105144 -1.2171204901792123
leaf_count=56 1116 630 40 353 494 230 2206 67 1368 1758 531 44 3214 505 455 143 282 2481 1629 290 1159 626 1456 474 268 1044 1349 2355 578 422 2758 255 52 84 619 671 2212 608 1312 246 1214 269 849 526 834 171 633 104 2021 60 42 114 370 372 617 73
internal_value=0 0.454562 -0.478127 -0.284088 0.256201 -0.65689 -0.154795 0.680387 -0.25535 0.0839353 0.417419 0.546992 0.486285 0.251005 -0.599093 -0.512135 0.563658 0.438416 0.804324 0.0948905 -0.753804 -0.69484 -0.374113 0.136199 -0.428654 -0.0640234 -0.521531 0.698737 -0.0308325 0.00323625 -0.822695 -0.125 0.376796 0.586416 -0.27933 0.0530612 0.689655 -0.301462 0.302326 -0.212922 -0.694915 -0.450399 0.257748 -0.56344 -0.505882 -0.206074 -0.154273 0.316535 -0.911456 0.768116 0.446429 -0.925059 0.940953 0.865229 -0.917808 -0.815182
internal_count=44709 22558 22151 10627 12014 11524 7539 10544 5608 5814 6200 5086 5104 2737 3088 2431 5019 2525 5458 1096 8083 5892 3662 1931 3441 3077 2508 3087 1946 927 3384 608 1810 3298 1074 1715 2494 1778 1806 1362 1357 877 1323 1663 1360 461 901 635 2191 2415 672 2135 2371 742 657 303
shrinkage=0.1


Tree=9
num_leaves=54
num_cat=0
split_feature=1 1 3 1 3 1 2 1 1 11 18 1 0 3 1 2 2 2 2 3 2 0 1 11 1 2 611 3 3 2 12 18 2 11 0 17 0 2 10 1 0 307 5 8 18 1 18 3 2 0 1 1 3
split_gain=8525.75 917.331 743.986 384.201 280.814 270.454 196.996 175.235 147.63 135.972 132.438 119.127 111.645 118.173 89.2819 85.6873 84.1516 77.1113 76.76 74.854 68.362 64.5898 62.8358 62.379 60.0383 81.2238 93.872 54.8978 53.6301 51.3257 49.3588 52.0655 42.1188 41.9335 39.6845 34.6679 33.3072 26.934 28.5166 25.0589 16.3124 15.7164 15.1046 13.6498 9.25916 7.65597 4.09519 5.95516 2.62682 2.32571 2.21429 0.647929 0.0588986
threshold=4.981889574011003 5.341252056663933 2016.5000000000002 4.7296449820901794 2016.5000000000002 4.8189599748813157 7.4538514748950266 5.6290347088714787 5.1672182652034255 1.0000000180025095e-35 1.0000000180025095e-35 5.1394961702659332 1.0000000180025095e-35 2015.5000000000002 4.5625294889952182 7.6603498904385932 7.5644977440381114 7.3793201401189288 7.5890828507392163 2015.5000000000002 7.7892474838720753 4.5365361473354211 4.8827726572537413 1.0000000180025095e-35 4.6781399637279257 7.5855349501855809 1.0000000180025095e-35 2017.5000000000002 2017.5000000000002 7.7946171789529961 1.0000000180025095e-35 1.0000000180025095e-35 7.7834323062786455 1.0000000180025095e-35 2.5564266076365922 1.0000000180025095e-35 7.882609606860842 6.8421493793580082 1.0000000180025095e-35 4.9188205903793181 2.5564266076365922 1.0000000180025095e-35 1.0000000180025095e-35 1.0000000180025095e-35 1.0000000180025095e-35 5.1039849160777768 1.0000000180025095e-35 2015.5000000000002 7.744353218491244 2.5564266076365922 4.9069293691838816 5.6609451655512029 2016.5000000000002
decision_type=2 2 2 2 2 2 2 2 2 2 2 2 2 2 2 2 2 2 2 2 2 2 2 2 2 2 2 2 2 2 2 2 2 2 2 2 2 2 2 2 2 2 2 2 2 2 2 2 2 2 2 2 2
left_child=2 4 5 14 8 24 10 12 30 20 28 17 -3 42 -4 27 21 33 35 39 -8 -10 -12 -18 46 26 -26 -16 -5 -11 31 -2 -15 -6 -19 -13 -20 50 -39 43 -17 -41 -14 -7 51 -32 -1 -48 -27 -46 -21 52 -9
right_child=1 7 3 6 11 19 9 44 16 29 22 18 13 32 15 40 23 34 36 37 -22 -23 -24 -25 25 48 -28 -29 -30 -31 45 -33 -34 -35 -36 -37 -38 38 -40 41 -42 -43 -44 -45 49 -47 47 -49 -50 -51 -52 -53 -54
leaf_value=-3.4642613031356362 -0.35921807335989514 -2.4095486133186172 -2.8717620207944381 -0.82210620294005998 0.48600415149919202 -1.4582396329594205 0.26559145719323568 2.8999151358149833 1.8808259536979108 -0.69226183114460305 0.066536234572303954 3.1413244064860724 1.54961750151856 3.5731315511532404 -0.99405076222659405 -0.75116521721927332 0.82200575568284229 0.85416315160325951 1.2119497116618534 -0.017825016518693816 -0.49501518071323292 1.4283331027700912 1.4398837108934899 -0.44912387815461446 -1.2814400841097253 -1.8460664616462226 1.1524197038404367 -0.33017206182600778 -0.023586743743223337 -2.0686441445419321 -5.4570678991146737 0.17659669343425721 3.3362615552993535 1.3068235727678457 -0.26160761931386961 -0.17828951319936268 0.45514242260248211 -1.0222388483700457 -0.43227205364876514 -1.103610425318172 -2.1462943067241582 0.18292810571290091 0.571534800621879 -1.0869694246875454 3.6838986514390228 -2.3951369267960163 -2.6992578230594209 -1.9544985269971002 -2.3004266372438367 7.5939286969340749 0.63869105186933273 13.444406745941476 5.830101668236094
leaf_count=899 807 57 589 666 319 1089 712 57 352 1658 1875 2368 1324 3199 1203 89 795 494 1128 40 898 1782 877 627 3098 716 47 756 515 449 155 1737 2255 1069 794 71 461 1560 909 799 451 55 261 392 50 117 446 519 936 350 72 1692 73
internal_value=0 0.426989 -0.446381 -0.256472 0.255889 -0.622355 -0.135948 0.666881 0.105148 -0.301049 0.0195779 0.398866 0.589346 0.600796 -0.554404 -0.470188 0.24072 0.233931 0.507944 -0.44345 -0.0807453 0.366448 0.140262 0.0506329 -0.754091 -0.693142 -0.59682 -0.371108 -0.259949 -0.468439 -0.0653409 -0.0212264 0.671067 0.397695 0.0559006 0.620336 0.334172 -0.324293 -0.346294 -0.574304 -0.825926 -0.430913 0.357729 -0.655638 0.913591 -0.470588 -0.909871 -0.846632 -0.875303 0.75 0.142857 0.948408 0.769231
internal_count=44709 22394 22315 10738 13076 11577 7650 9318 6372 3717 3933 6704 7096 7039 3088 2499 3556 2676 4028 4916 1610 2134 2752 1422 6661 4797 3145 1959 1181 2107 2816 2544 5454 1388 1288 2439 1589 2581 2469 2335 540 854 1585 1481 2222 272 1864 965 1652 400 112 1822 130
shrinkage=0.1


Tree=10
num_leaves=55
num_cat=0
split_feature=1 1 3 1 3 1 1 2 1 1 3 2 0 0 11 5 467 3 3 3 2 3 1 2 2 1 2 2 2 2 1 1 0 2 10 0 611 2 307 2 3 12 0 1 1 2 5 1 0 10 3 0 3 2
split_gain=7477.15 850.249 639.697 345.492 272.085 251.429 205.495 205.24 160.728 145.786 105.367 102.709 97.8481 94.4863 81.1331 80.267 77.9346 80.1503 77.2206 75.3108 72.1645 66.7038 58.9129 64.818 50.4231 49.9494 68.5135 49.273 43.9884 39.854 39.5728 30.3588 27.7042 25.103 39.8323 29.458 23.6961 50.0851 21.8174 23.5989 18.7824 16.7842 14.5578 11.1977 11.185 10.0534 9.26739 9.24124 8.32516 7.96182 7.62 6.55185 0.801204 0.359329
threshold=4.9799357762037051 5.3611754999717922 2016.5000000000002 4.6808160703307538 2017.5000000000002 4.8189599748813157 5.1526415290507801 7.2524081849530022 5.6609451655512029 4.852217512042948 2015.5000000000002 7.5644977440381114 1.0000000180025095e-35 2.5564266076365922 1.0000000180025095e-35 1.0000000180025095e-35 1.0000000180025095e-35 2017.5000000000002 2015.5000000000002 2015.5000000000002 7.6873094609923829 2015.5000000000002 4.6685083381564203 7.2030333588031672 7.6442013552795478 4.5625294889952182 7.2330942773995277 7.9000806799537164 8.014501053882185 7.5644977440381114 5.087413967748045 5.1394961702659332 7.882609606860842 7.6827128082063991 1.0000000180025095e-35 3.1277824844220317 1.0000000180025095e-35 7.6873094609923829 1.0000000180025095e-35 6.869533931231917 2017.5000000000002 1.0000000180025095e-35 4.1975395964856359 4.6735669150252344 5.8183651997265651 7.7099810294433491 1.0000000180025095e-35 4.589193588319108 9.3077560519801263 1.0000000180025095e-35 2015.5000000000002 8.5050873402112561 2017.5000000000002 7.311552274248398
decision_type=2 2 2 2 2 2 2 2 2 2 2 2 2 2 2 2 2 2 2 2 2 2 2 2 2 2 2 2 2 2 2 2 2 2 2 2 2 2 2 2 2 2 2 2 2 2 2 2 2 2 2 2 2 2
left_child=2 4 5 25 6 18 13 16 10 20 46 19 -12 27 -13 -15 17 -5 36 -8 -9 38 47 -24 30 52 40 -2 -11 -14 41 49 -33 34 -23 -35 43 -38 39 -7 -27 -6 -32 -1 50 -28 51 -20 -48 -26 -10 -3 -4 -52
right_child=1 8 3 7 24 21 11 9 44 28 12 14 29 15 -16 -17 -18 -19 22 -21 -22 33 23 -25 31 26 45 -29 -30 -31 42 32 -34 35 -36 -37 37 -39 -40 -41 -42 -43 -44 -45 -46 -47 48 -49 -50 -51 53 -53 -54 -55
leaf_value=-2.9891075839663688 0.70371310595343184 1.0794564115755407 -2.7276223585673933 -0.13257234157183007 1.083722969472936 -0.644727122479408 0.82795615235636155 -0.58557438945248996 2.5907221616581455 -0.040692347358640295 -2.1087490471680286 0.85738568956971195 3.6456861208698914 -0.04570819073722561 -0.13702224339116639 -1.199190352187101 -0.65333480869503124 0.68413089898080848 -3.0608579821641939 2.0156820544265628 -1.2540738690178359 -0.71369345098938342 -0.61314486109914412 -1.1702923740264453 -0.22494919246098705 -0.72940846303364859 -1.4555203600754738 -1.0359032166881832 -0.80360798751678719 3.1630652742043339 2.2635941341113908 1.7989506205195795 0.17110796398062292 -0.35197686586773502 0.12584200467669859 -1.2814245204583417 0.52355276430781572 -1.6495188780461469 0.16463529514161054 -1.1771415243003134 0.062616886641570349 -1.0967765584409961 3.4047384806548964 -1.8340676999672667 18.551896833829016 -2.0520614766079768 0.20801012714857736 -1.7437248868244197 2.6605815133394035 0.8890407654234963 7.4348464062395978 2.7638920344637286 -2.0371552098339962 5.4745860719773223
leaf_count=808 991 882 369 1652 525 135 1158 2393 231 2038 51 1597 2206 2641 1115 549 75 1158 321 2675 1122 1389 710 1910 159 292 626 86 278 3041 527 420 166 231 350 572 44 65 55 2131 187 69 988 2196 918 217 204 607 50 85 472 460 220 292
internal_value=0 0.395514 -0.422419 -0.24513 0.23991 -0.585734 0.166297 -0.160395 0.638242 -0.268393 0.56629 0.277617 0.634579 -0.00398406 0.127581 -0.0909091 0.0571924 0.0846975 -0.712356 0.383251 -0.396871 -0.411886 -0.609357 -0.530534 0.510037 -0.63056 -0.518911 0.251625 -0.0725389 0.64818 0.593172 0.296386 0.419795 -0.29819 -0.228292 -0.447073 -0.829104 -0.33945 -0.535545 -0.55075 -0.210856 0.367003 0.680528 -0.846205 0.896498 -0.691578 0.338346 -0.829741 0.149606 -0 0.811055 0.372578 -0.877759 0.866492
internal_count=44709 22558 22151 10627 13751 11524 10812 8716 8807 5831 6894 6545 5298 4267 2712 3190 2885 2810 6661 3833 3515 4863 3548 2620 2939 1911 1322 1077 2316 5247 2109 830 586 2542 1739 803 3113 109 2321 2266 479 594 1515 3004 1913 843 1596 928 254 244 995 1342 589 764
shrinkage=0.1


Tree=11
num_leaves=56
num_cat=0
split_feature=1 1 3 1 3 1 1 3 3 1 2 1 2 3 5 2 0 18 2 0 3 10 2 17 11 2 1 18 1 1 0 1 2 2 0 1 2 2 15 1 18 2 18 12 10 1 1 3 2 2 11 1 0 4 2
split_gain=6490.65 787.813 569.401 420.354 224.279 192.893 180.728 143.516 142.904 132.171 134.868 123.758 116.701 111.52 94.8059 89.3039 85.6992 85.6686 113.519 85.1752 83.5724 57.4963 61.1515 50.8029 49.8311 48.7589 44.4209 43.1413 38.0089 35.307 36.237 30.6915 28.3864 23.8058 22.7445 22.4306 37.6272 22.0918 21.6463 19.5715 17.7677 17.2049 52.6436 16.7885 14.1257 13.7953 12.113 16.4114 7.62331 6.67059 6.37771 3.52174 3.03531 2.38589 0.577813
threshold=4.9799357762037051 5.3611754999717922 2017.5000000000002 4.7993545273980258 2017.5000000000002 5.1851984178656076 5.7025279039243655 2015.5000000000002 2015.5000000000002 4.6685083381564203 7.576865848924859 4.6853326507482249 7.5644977440381114 2016.5000000000002 1.0000000180025095e-35 7.773384073921366 1.3918720653661192 1.0000000180025095e-35 7.342455459958285 1.0000000180025095e-35 2015.5000000000002 1.0000000180025095e-35 7.3001350905129803 1.0000000180025095e-35 1.0000000180025095e-35 7.4220747473157358 4.8382390010063778 1.0000000180025095e-35 4.807734240582902 5.1394961702659332 7.994492269523886 4.589193588319108 7.1857656600513717 7.1612339548017436 2.2200899629856092 4.547324234125135 7.1902991025390088 8.014501053882185 1.0000000180025095e-35 5.087413967748045 1.0000000180025095e-35 7.134492286379376 1.0000000180025095e-35 1.0000000180025095e-35 1.0000000180025095e-35 5.0752337012303501 5.8632128745418148 2015.5000000000002 7.6964398604364357 7.1037330777568206 1.0000000180025095e-35 4.7518184899700033 6.4950424989761482 1.8688348091416842 7.258059913877676
decision_type=2 2 2 2 2 2 2 2 2 2 2 2 2 2 2 2 2 2 2 2 2 2 2 2 2 2 2 2 2 2 2 2 2 2 2 2 2 2 2 2 2 2 2 2 2 2 2 2 2 2 2 2 2 2 2
left_child=2 4 3 8 5 14 13 27 41 31 -11 35 23 16 20 21 -3 26 -19 -15 -2 22 -13 -7 -14 39 -9 44 51 45 -31 -10 -18 -21 -29 -4 52 -30 -23 43 -16 42 -1 -6 -5 -27 47 53 -38 -41 -43 -17 -37 -8 -49
right_child=1 6 11 7 25 12 46 17 9 10 -12 15 24 19 40 28 32 18 -20 33 -22 38 -24 -25 -26 29 -28 34 37 30 -32 -33 -34 -35 -36 36 48 -39 -40 49 -42 50 -44 -45 -46 -47 -48 54 -50 -51 -52 -53 -54 -55 -56
leaf_value=-2.4437403779236306 -0.347421847207805 -7.6804526976088106 -1.9550786735307739 -1.7301860011533579 1.1690704932507969 1.7148780364022245 2.5916720534237019 -1.3872606425314005 -2.5069003393696576 -0.59608973591069803 -1.3478192488389276 0.45732460659442753 0.71752837702179029 -1.8751594119977328 -0.8612817902367994 -1.4206020608784073 2.0678806294938967 0.12424981823716906 -0.58854304460384987 4.1303941163309679 0.39975328883885058 1.1858553166704213 -0.21435684768765384 -2.1400561821238044 -0.090814407804711561 0.70586233869095172 -0.46961039767274571 -0.2962549848226651 0.04170450118497513 1.6190555584676218 0.7599162993370101 -1.4174131608213216 1.5943809291422 3.3587753425348867 -1.1174763913952745 0.4587197070977368 -1.088298781005659 -0.6693641342369262 0.162968554920775 5.1384864104995422 -0.5513452829469202 -1.0497979432688211 -0.67576655345379422 -0.82974653444237001 -0.72430536222189235 -0.23306608413125218 17.406118771539866 8.0864731062909936 -1.4443830209645954 2.2123883830552344 -2.1363836456859673 -1.3719438899536471 -0.079153249549057142 1.9076399950050389 5.1010559338416321
leaf_count=346 1161 45 196 360 332 3121 100 403 735 3089 1493 1251 1497 47 262 86 757 1560 3102 804 3045 242 1212 91 1025 318 887 323 259 698 306 1221 2683 2693 1802 47 301 142 150 480 610 212 277 63 188 189 838 429 98 553 1926 114 129 134 277
internal_value=0 0.369625 -0.392443 -0.470319 0.219839 0.152978 0.60327 -0.310841 -0.618023 -0.536556 -0.442601 -0.0617459 0.278689 0.530516 0.0106341 0.0185185 0.402009 -0.22379 -0.160017 0.656321 0.0732287 0.0928196 0.0353228 0.405355 0.116574 0.465124 -0.452713 -0.503928 -0.331115 0.336863 0.446215 -0.755624 0.420349 0.674578 -0.437176 -0.424125 -0.318261 -0.147132 0.44898 0.59944 -0.288991 -0.810214 -0.65008 0.397468 -0.759124 0.116371 0.889764 0.8 -0.488722 0.674734 -0.85594 -0.69 0.0568182 0.547009 0.88102
internal_count=44709 22558 22151 17924 13751 10812 8807 8625 9299 6538 4582 4227 5734 7029 5078 3456 3485 5952 4662 3544 4206 2855 2463 3212 2522 2939 1290 2673 601 1511 1004 1956 3440 3497 2125 771 575 401 392 1428 872 2761 623 395 548 507 1778 940 399 1033 2138 200 176 234 706
shrinkage=0.1


Tree=12
num_leaves=55
num_cat=0
split_feature=1 1 1 3 1 2 3 3 1 18 2 3 11 1 2 2 1 467 0 2 1 2 2 18 10 1 4 1 17 12 2 18 2 2 11 4 1 18 19 1 3 2 2 9 3 10 4 2 0 2 0 0 2 0
split_gain=5666.12 616.151 607.529 353.947 242.853 216.53 184.999 177.267 165.494 156.008 125.723 100.733 90.5795 82.1173 79.9455 77.4052 71.8252 67.3604 62.7042 62.1631 50.8996 52.3109 50.6871 69.6143 61.9831 49.8662 47.7166 44.2585 43.3986 41.6483 46.7613 37.2124 77.583 36.3269 35.8879 27.0717 25.1707 22.9664 22.5376 22.2041 25.5333 20.8594 19.5817 15.7353 12.8031 12.3436 12.3203 11.7286 10.4968 10.1638 5.53612 3.56578 2.47026 0.495074
threshold=5.0256195055983719 4.8641835361783583 5.4099858957428033 2015.5000000000002 4.6685083381564203 7.6873094609923829 2016.5000000000002 2016.5000000000002 5.7025279039243655 1.0000000180025095e-35 7.311552274248398 2015.5000000000002 1.0000000180025095e-35 5.1851984178656076 7.5644977440381114 6.9861041385228182 5.1394961702659332 1.0000000180025095e-35 1.0000000180025095e-35 7.7780020504256626 4.589193588319108 7.3793201401189288 8.024371178692137 1.0000000180025095e-35 1.0000000180025095e-35 5.0808406761304807 2.0126758453675748 5.117868238473104 1.0000000180025095e-35 1.0000000180025095e-35 7.4457095275129044 1.0000000180025095e-35 7.1796889219034155 7.1796889219034155 1.0000000180025095e-35 1.8688348091416842 5.0392597213015673 1.0000000180025095e-35 1.0000000180025095e-35 5.8632128745418148 2015.5000000000002 7.1857656600513717 7.4538514748950266 1.0000000180025095e-35 2017.5000000000002 1.0000000180025095e-35 2.1383330595080281 6.7458242390288694 6.6629232772652554 7.7330265884759095 8.2078741485697844 4.5365361473354211 7.0496886807624488 5.6088347100423794
decision_type=2 2 2 2 2 2 2 2 2 2 2 2 2 2 2 2 2 2 2 2 2 2 2 2 2 2 2 2 2 2 2 2 2 2 2 2 2 2 2 2 2 2 2 2 2 2 2 2 2 2 2 2 2 2
left_child=1 3 7 31 20 9 22 13 11 -6 25 37 -7 29 28 48 27 19 -13 -17 44 -22 23 35 -25 36 -18 -12 -15 30 -2 45 46 -20 -16 -3 -9 41 -27 40 -10 -4 -34 51 -5 -1 -33 -31 -8 -39 -50 -24 -42 -41
right_child=2 6 8 4 5 12 15 10 39 -11 16 18 -14 14 34 17 26 -19 33 -21 21 -23 43 24 -26 38 -28 -29 -30 47 -32 32 42 -35 -36 -37 -38 49 -40 53 52 -43 -44 -45 -46 -47 -48 -49 50 -51 -52 -53 -54 -55
leaf_value=-2.4137473942662333 0.3085324925335769 0.27182972029260882 1.0078251230751591 -2.2562103054326927 -0.84652568913733583 -0.49617831402762536 1.5888606003857662 1.7475122367666787 2.0313479583947411 -0.28222112466396826 0.26105120676423327 -1.7559664558748667 -1.5647266993643243 1.1913437256576784 0.59303781838393099 0.16613012908597682 -0.53920443227027881 -0.62339219178004157 3.2398511194551447 -0.37334930097116797 -0.72822609891514822 -1.628568529579917 -1.175154268073628 -0.72398779473120956 0.076329391410473596 3.1456879165562341 1.1464448465083805 -1.5263158009233651 -2.5073661065245947 -0.35646202425224377 -0.49550096277287992 -0.93159403179465272 -1.1954514130793272 2.5839759249253023 -0.37710535306919157 -0.69214284669348425 0.45232708084370188 2.4135785391552504 -0.26613493206508426 15.80303712137019 7.8587316971339849 -0.27012245327639167 -1.7648077695391338 -0.65711856402569069 -1.6154660428726992 -0.54700980360271245 0.28720926108442058 -3.3932440779797677 0.48300262581302605 1.168456596713314 2.8386837768520539 -1.432798997638848 4.5983386432779243 11.10686755771443
leaf_count=915 1225 61 202 735 1807 644 83 82 234 5372 1179 44 1286 2187 1116 2532 200 75 1143 892 838 790 157 1808 994 1927 2931 50 62 75 872 494 683 3665 657 850 375 356 51 797 341 230 1543 59 243 79 57 220 84 603 201 197 365 41
internal_value=0 -0.346054 0.366839 -0.462482 -0.376355 -0.298935 -0.12023 0.234764 0.584092 -0.218554 0.347461 0.506647 -0.596891 0.115061 0.202387 0.0364624 0.244954 -0.00885967 0.575021 0.0110981 -0.646201 -0.534398 -0.267571 -0.229733 -0.150607 0.530185 0.325455 0.0382425 0.327701 -0.0309365 0.0176443 -0.729515 -0.667267 0.586106 0.0423012 -0.470911 0.225383 0.266715 0.599596 0.854893 0.740426 0.0694444 -0.751123 -0.602906 -0.830266 -0.901408 -0.324864 -0.383051 0.472826 0.353493 0.368421 -0.683616 0.838527 0.980907
internal_count=44709 23479 21230 15486 11715 9109 7993 13209 8021 7179 6795 6243 1930 6414 4022 3867 4360 3499 4852 3424 2606 1628 4126 3713 2802 2435 3131 1229 2249 2392 2097 3771 2777 4808 1773 911 457 1391 1978 1778 940 432 2226 413 978 994 551 295 368 959 285 354 706 838
shrinkage=0.1


Tree=13
num_leaves=56
num_cat=0
split_feature=1 1 3 1 1 1 2 3 11 17 18 3 5 2 10 2 18 2 5 1 15 0 0 2 3 2 1 2 1 2 2 15 0 0 18 18 0 2 0 10 2 0 18 1 4 699 12 0 0 2 0 18 3 0 2
split_gain=4841.82 650.671 476.201 254.808 239.874 224.091 156.038 145.652 140.946 113.083 107.17 106.643 92.099 91.711 89.4459 114.184 116.335 96.7449 80.8131 74.2829 70.2703 61.8512 60.6425 57.5961 57.4383 57.1459 52.7257 73.4978 50.066 51.3016 46.4568 45.8048 41.6664 39.7481 39.3326 38.5367 36.4275 35.0507 28.3884 26.0264 22.8331 19.0422 17.7889 16.001 15.7893 15.212 13.0503 12.3322 12.187 7.4974 5.17221 3.98708 1.45938 1.14531 0.911965
threshold=4.9799357762037051 5.2802227523290162 2016.5000000000002 4.6781399637279257 5.5571165457250684 4.7258628125714095 7.576865848924859 2017.5000000000002 1.0000000180025095e-35 1.0000000180025095e-35 1.0000000180025095e-35 2016.5000000000002 1.0000000180025095e-35 7.4457095275129044 1.0000000180025095e-35 7.477321357758643 1.0000000180025095e-35 7.744353218491244 1.0000000180025095e-35 5.9182655464111678 1.0000000180025095e-35 1.3918720653661192 3.3754797222269679 7.3755689631123849 2015.5000000000002 7.5727601205364659 4.5430148273617492 7.2474365831768024 4.6171845083995402 7.3527615103795085 8.0441449191060972 1.0000000180025095e-35 3.3754797222269679 1.0000000180025095e-35 1.0000000180025095e-35 1.0000000180025095e-35 3.1277824844220317 7.1712726506405104 1.837014069290728 1.0000000180025095e-35 7.9968221406501296 6.6629232772652554 1.0000000180025095e-35 5.087413967748045 2.1383330595080281 1.0000000180025095e-35 1.0000000180025095e-35 6.130883941134015 2.8565375825806449 6.7895344892530387 8.0490925442743961 1.0000000180025095e-35 2017.5000000000002 4.5365361473354211 7.6150518522684445
decision_type=2 2 2 2 2 2 2 2 2 2 2 2 2 2 2 2 2 2 2 2 2 2 2 2 2 2 2 2 2 2 2 2 2 2 2 2 2 2 2 2 2 2 2 2 2 2 2 2 2 2 2 2 2 2 2
left_child=2 7 5 26 11 28 10 9 30 12 31 21 13 -2 15 16 -7 20 -12 24 -16 -3 -10 49 41 43 52 47 51 35 -8 -5 -17 -25 -14 -30 -19 -23 -31 44 -41 -6 -29 46 -27 -26 -9 -28 -45 -13 -11 -1 -4 -53 -52
right_child=1 4 3 6 19 14 8 25 22 50 18 23 34 -15 17 32 -18 36 -20 -21 -22 37 -24 33 45 39 27 42 29 38 -32 -33 -34 -35 -36 -37 -38 -39 -40 40 -42 -43 -44 48 -46 -47 -48 -49 -50 -51 54 53 -54 -55 -56
leaf_value=-2.6237032345723978 0.80933898949220695 -7.0749978694373938 -2.1292663330752872 -1.7659836391269979 0.70650128542747559 -1.0832037028711639 0.04458820950021334 0.90869851309001037 -0.30509677829881743 -4.2570822001863746 0.31667486283318458 4.0381146049593886 -0.76478883446536094 0.052238542024902301 0.32577394533668103 -0.59967965991495475 -0.57915198049503547 -0.29460263027095906 -0.48201542382788037 14.398677693204673 -0.46194286865808043 1.3958345602676219 -1.2682537201622495 -1.5138824575346916 4.2479704038856951 -1.2366634600918021 0.18918195294589993 -1.4686516740127376 -1.191593329270735 -0.47094128544033043 -0.62695610606102437 -0.19335670454344012 -1.7818615565589297 1.8774701890021532 -0.065899808356680009 -0.50505659762882116 -0.83000341986481707 0.8728741365336703 -1.6054324465862422 1.3146106787000151 -0.5129558092225438 3.4282112199553554 -1.1042635035453601 1.5872967331201295 0.30826173932199769 0.81489963251706854 -0.93882007980516002 -0.42752533382304281 2.5010866469151725 2.830109702090144 -1.4546580905100812 -1.5912672526536966 -1.8834330777684736 -1.7384392400871094 -3.1745527269980585
leaf_count=632 3945 46 283 387 342 1064 1096 472 473 102 3095 267 357 3057 555 507 2805 381 1022 790 370 835 1205 44 2035 86 110 240 385 133 317 1198 1654 2636 1199 565 859 3089 1310 277 48 256 618 264 382 56 68 408 789 992 78 125 175 179 46
internal_value=0 0.317847 -0.340346 -0.187353 0.486126 -0.481257 -0.116343 0.146106 -0.297315 0.0862933 -0.0178885 0.389303 0.104931 0.153956 -0.391824 -0.454726 -0.350737 -0.215704 0.0667962 0.705663 0.027027 0.272544 -0.493445 0.506474 0.624396 0.365465 -0.526718 -0.425872 -0.700811 -0.621396 -0.0629866 -0.239117 -0.639981 0.421642 -0.114396 -0.435789 -0.398387 0.286442 -0.742204 0.142497 0.36 0.344482 -0.606061 0.475204 -0.0042735 0.703491 0.325926 -0.123552 0.549858 0.685465 -0.610619 -0.901709 -0.825328 -0.769737 -0.435484
internal_count=44709 22558 22151 10627 11388 11524 8793 11170 3091 8784 5702 7909 8558 7002 8195 6030 3869 2165 4117 3479 925 3970 1678 3939 2689 2386 1834 1376 3329 2393 1413 1585 2161 2680 1556 950 1240 3924 1443 793 325 598 858 1593 468 2091 540 518 1053 1259 226 936 458 304 124
shrinkage=0.1


Tree=14
num_leaves=50
num_cat=0
split_feature=1 1 1 3 1 2 3 3 0 2 1 19 0 1 0 1 2 467 3 1 2 18 5 2 1 2 3 0 18 11 2 64 1 0 2 2 2 0 0 3 2 0 9 0 3 2 0 18 2
split_gain=4169.78 549.75 458.914 314.157 208.576 197.883 169.725 166.902 163.929 124.502 103.126 92.7479 75.3185 74.0525 73.5058 71.5792 66.3617 81.0536 64.5164 58.9444 56.2507 58.6413 53.0571 42.4806 42.2442 38.4945 37.1607 35.334 33.1104 31.9714 37.2446 35.5667 30.9588 27.9044 27.8068 25.7056 20.3144 22.2591 19.9372 15.3034 12.7595 11.3335 11.221 9.6885 6.68464 6.38078 3.44291 1.12433 5.37434
threshold=5.0471588451816096 4.8641835361783583 5.5366247338655503 2015.5000000000002 4.6296520370259584 7.1970609624654713 2016.5000000000002 2016.5000000000002 3.8151391385171745 7.311552274248398 6.0078559630803978 1.0000000180025095e-35 1.3918720653661192 5.1851984178656076 1.0000000180025095e-35 5.2514692449626539 7.536630533985341 1.0000000180025095e-35 2015.5000000000002 5.2338175389372603 8.0344689846312995 1.0000000180025095e-35 1.0000000180025095e-35 7.3476217619459261 4.6808160703307538 7.1796889219034155 2017.5000000000002 2.5564266076365922 1.0000000180025095e-35 1.0000000180025095e-35 8.0663645292381307 1.0000000180025095e-35 4.5430148273617492 2.8565375825806449 6.8569880235699889 7.2919966926741697 7.0668934093952176 0.86429506858956606 1.3918720653661192 2016.5000000000002 6.7895344892530387 8.1028380751620137 1.0000000180025095e-35 5.6088347100423794 2017.5000000000002 7.7290757490815132 4.5365361473354211 1.0000000180025095e-35 7.3793201401189288
decision_type=2 2 2 2 2 2 2 2 2 2 2 2 2 2 2 2 2 2 2 2 2 2 2 2 2 2 2 2 2 2 2 2 2 2 2 2 2 2 2 2 2 2 2 2 2 2 2 2 2
left_child=1 3 7 24 32 11 20 12 -7 19 18 -6 -2 33 -11 -16 17 26 41 38 21 34 -15 -23 47 28 -8 -27 -26 30 -18 -31 44 -14 -3 -34 37 -20 -9 -38 -21 43 46 -4 -5 -43 -22 -1 -49
right_child=2 6 10 4 5 8 16 9 -10 14 -12 -13 13 22 15 -17 29 -19 36 40 42 23 -24 -25 25 27 -28 -29 -30 31 -32 -33 35 -35 -36 -37 39 -39 -40 -41 -42 45 -44 -45 -46 -47 -48 48 -50
leaf_value=-2.5650699752077659 -7.720857931218859 1.0635944185617299 1.2007574483093053 -2.1669903025580171 0.053914397934492798 -0.10223519390340813 0.20046916369020951 1.5815968714422384 -0.87629884199734964 -2.7072336565024457 13.706960558649833 -1.2862522009264397 0.39116477754895418 0.87077592196834397 0.45342215325493956 1.5186991640910592 0.11201437957975174 -0.54171730214769409 0.73340966926535889 4.2860226779526824 -0.99634691932726727 0.074498730804628363 0.047386101161211516 -0.45247606586848832 -1.260674694455804 -0.72392498413885709 0.75879810834144767 -1.3850490356466842 -0.48119344806846698 -0.58275473565685021 -0.56784751716612902 1.7117048920770828 -0.54175905229565868 -0.18443731864048232 -0.55359921041437443 -1.3599074184937763 2.0867394830934134 6.0597210972264408 1.2247055731672902 3.4796953181964869 2.7345204994738594 3.1495819254765283 -0.68875128415409681 -0.30592878727654238 -1.6950897699916263 2.7305614545304082 -1.3301258657486459 -1.2782810610722288 -1.686834803739683
leaf_count=426 66 47 409 502 2507 1554 1497 198 5662 73 692 365 372 4867 2284 2959 1011 75 56 371 148 1219 1092 2044 259 373 1021 1749 475 651 202 44 466 1506 917 484 650 624 1061 1223 1252 150 64 71 175 116 191 157 332
internal_value=0 -0.284153 0.329783 -0.398941 -0.317798 -0.263878 -0.0892564 0.254332 -0.352273 0.354477 0.633676 -0.0410864 0.150196 0.159372 0.26298 0.277131 0.0486559 0.153105 0.558654 0.522554 -0.223758 -0.189023 0.213962 -0.124119 -0.650491 -0.588235 0.184273 -0.65787 -0.384196 -0.0922432 0.00412201 -0.263309 -0.650891 -0.0127796 -0.406639 -0.528421 0.634939 0.791176 0.356632 0.577149 0.650031 0.294906 -0.583127 0.195833 -0.819793 0.466165 -0.657817 -0.842623 -0.775051
internal_count=44709 24617 20092 15486 11715 10088 9131 16101 7216 8198 3991 2872 7903 7837 5316 5243 4501 2593 3299 2882 4630 4227 5959 3263 3771 2856 2518 2122 734 1908 1213 695 1627 1878 964 950 2553 680 1259 1873 1623 746 403 480 677 266 339 915 489
shrinkage=0.1


Tree=15
num_leaves=51
num_cat=0
split_feature=1 1 1 3 3 3 1 2 18 2 0 5 0 1 5 2 1 11 2 3 3 0 2 1 0 11 10 2 11 2 3 0 5 0 2 3 1 2 1 2 2 0 1 3 4 1 1 1 2 0
split_gain=3495.74 490.37 433.242 255.813 211.75 172.651 147.863 169.376 119.816 129.694 103.725 95.1989 88.7539 82.6451 80.3529 79.188 78.5099 72.5058 68.8021 60.5694 59.2307 68.753 53.3049 50.8033 49.4643 45.7598 36.9476 36.9455 46.5041 33.8593 33.208 29.4055 27.5844 25.5647 22.9037 21.3057 19.1449 18.821 18.3074 17.452 16.6292 16.0192 15.2791 12.7593 8.56884 6.12767 3.43612 2.0974 1.68227 0.578877
threshold=5.0534087684027602 4.7993545273980258 5.6167996000204647 2016.5000000000002 2017.5000000000002 2017.5000000000002 4.6171845083995402 7.576865848924859 1.0000000180025095e-35 6.8569880235699889 0.86429506858956606 1.0000000180025095e-35 3.8151391385171745 6.0078559630803978 1.0000000180025095e-35 7.749106900957945 5.2489525223926492 1.0000000180025095e-35 7.7892474838720753 2015.5000000000002 2017.5000000000002 2.5564266076365922 8.0344689846312995 4.5430148273617492 1.0000000180025095e-35 1.0000000180025095e-35 1.0000000180025095e-35 7.1612339548017436 1.0000000180025095e-35 7.1518771599686382 2015.5000000000002 2.5564266076365922 1.0000000180025095e-35 0.86429506858956606 8.0902490398871425 2015.5000000000002 4.9188205903793181 7.7000688054085522 5.117868238473104 7.9231670853206753 6.8829500287054701 3.6035896143025741 4.4866991714001632 2016.5000000000002 1.8688348091416842 4.4161484696049458 4.7518184899700033 5.7215502490319894 6.9221510378135092 1.0000000180025095e-35
decision_type=2 2 2 2 2 2 2 2 2 2 2 2 2 2 2 2 2 2 2 2 2 2 2 2 2 2 2 2 2 2 2 2 2 2 2 2 2 2 2 2 2 2 2 2 2 2 2 2 2 2
left_child=1 4 5 14 6 8 42 11 9 35 49 -8 -12 30 19 20 -11 -9 23 26 21 -5 -21 45 -7 34 -3 38 -29 -25 41 37 -22 48 -17 -2 -33 -16 -26 -27 -35 47 -1 -44 -43 -6 -20 -4 -32 -10
right_child=2 3 13 15 18 24 7 17 10 16 12 -13 -14 -15 31 25 -18 -19 46 22 32 -23 -24 29 27 39 -28 28 -30 -31 33 36 -34 40 -36 -37 -38 -39 -40 -41 -42 44 43 -45 -46 -47 -48 -49 -50 -51
leaf_value=-3.108756126095753 0.61035272343272029 -0.76535326858514319 -0.44250051886066899 0.77641631871536776 -2.1018610808564815 -3.0189790240789791 -0.4644276395011005 -0.48626626451781479 -1.4249304553258044 -0.47846833836757841 1.1497157664298585 -1.174410521501781 1.041081987325454 12.33626450278485 0.21063455968588871 0.014746633468726601 0.19546058077333159 -1.4387697217726079 -1.1280349548727799 -0.17361421684568015 0.5750283437027065 -0.18339021248087733 -1.1953346420540221 0.42230738156470982 0.76826306868676397 -0.59109102137715863 -0.2453538629230593 1.9639091883236603 0.97533878573465671 -0.18712069030587417 -0.033470726372115678 -1.477843195433703 0.070012593735143014 6.4777731607242153 -0.55740478609876054 1.5064719087112763 -1.0187841045187782 -0.67229276014288364 3.8504471775926703 -1.7296539638068873 3.6867559978451454 3.4003147975885955 -1.3032395646257706 -1.0079652209239207 1.6827403302215034 -0.75284205261246351 -1.0597656072877115 0.07090236517879589 0.67610859361186049 -8.7614383792295492
leaf_count=439 134 1897 44 491 94 42 4294 496 48 1275 2960 965 6393 692 91 769 2098 2023 140 2771 1470 2575 225 504 131 274 844 1356 1405 1217 40 543 672 377 217 410 448 99 734 145 1081 128 663 419 261 80 76 56 52 51
internal_value=0 -0.256165 0.30686 -0.127189 -0.40894 0.247403 -0.473922 -0.417588 0.194405 0.0467194 0.255396 -0.314699 0.266332 0.677041 -0.261636 0.0131559 -0.0257931 -0.6316 -0.121743 -0.212132 0.0702765 -0.0182648 -0.112817 -0.0596306 0.440022 -0.197153 -0.319956 0.452841 0.394422 -0.00639163 0.57332 -0.500423 0.197946 0.646452 -0.0770791 0.5 -0.570131 -0.126316 0.636994 -0.47494 0.679012 0.337423 -0.760684 -0.689464 0.429306 -0.574713 -0.657407 -0 0.108696 -0.757576
internal_count=44709 24941 19768 13531 11410 17037 9299 7778 13369 3917 9452 5259 9353 2731 6918 6613 3373 2519 2111 5737 5208 3066 2996 1895 3668 1405 2741 3626 2761 1721 2039 1181 2142 1550 986 544 991 190 865 419 1458 489 1521 1082 389 174 216 100 92 99
shrinkage=0.1


Tree=16
num_leaves=50
num_cat=0
split_feature=1 1 1 3 1 2 3 2 5 2 3 11 467 2 11 1 17 1 1 0 3 2 1 2 11 64 1 1 3 3 0 15 5 18 88 10 1 0 714 9 1 0 2 11 18 0 0 0 5
split_gain=2959.83 574.682 335.516 280.147 189.804 206.768 164.456 150.908 144.179 140.677 107.247 87.8094 85.4842 84.309 80.1562 78.1162 64.5536 61.6213 57.2295 50.7178 49.3089 48.251 44.2738 43.7367 53.3985 39.0379 37.8459 33.9272 31.0359 28.9943 27.6356 40.4974 26.9999 26.1749 25.618 21.479 19.7002 17.2331 16.6955 14.3763 13.218 12.5001 11.6776 7.66148 6.89218 4.04229 3.58124 2.81816 1.01923
threshold=5.1394961702659332 4.8641835361783583 5.7025279039243655 2015.5000000000002 4.6296520370259584 7.7892474838720753 2015.5000000000002 7.5498722538214809 1.0000000180025095e-35 7.1612339548017436 2015.5000000000002 1.0000000180025095e-35 1.0000000180025095e-35 8.0553164367884786 1.0000000180025095e-35 5.4510809983116717 1.0000000180025095e-35 6.0078559630803978 4.9259552721751554 1.837014069290728 2017.5000000000002 7.8330057325829623 4.6735669150252344 7.2030333588031672 1.0000000180025095e-35 1.0000000180025095e-35 5.2946094072085268 4.4161484696049458 2015.5000000000002 2017.5000000000002 3.8151391385171745 1.0000000180025095e-35 1.0000000180025095e-35 1.0000000180025095e-35 1.0000000180025095e-35 1.0000000180025095e-35 5.1526415290507801 3.8151391385171745 1.0000000180025095e-35 1.0000000180025095e-35 5.7933571987666843 1.837014069290728 6.9436048155244787 1.0000000180025095e-35 1.0000000180025095e-35 5.6088347100423794 4.3718021196056496 4.3718021196056496 1.0000000180025095e-35
decision_type=2 2 2 2 2 2 2 2 2 2 2 2 2 2 2 2 2 2 2 2 2 2 2 2 2 2 2 2 2 2 2 2 2 2 2 2 2 2 2 2 2 2 2 2 2 2 2 2 2
left_child=1 3 6 22 27 8 19 10 -6 34 30 13 20 18 -7 16 -11 28 -9 -2 -12 25 44 33 -25 -13 32 -5 40 -29 31 -3 -21 -24 36 -32 -8 -17 -15 -28 47 -23 46 -44 -1 -42 -30 -4 -46
right_child=2 7 17 4 5 14 9 11 -10 15 12 21 -14 38 -16 37 -18 -19 -20 26 -22 41 23 24 -26 -27 39 29 42 -31 35 -33 -34 -35 -36 -37 -38 -39 -40 -41 45 -43 43 -45 48 -47 -48 -49 -50
leaf_value=-2.2621202137368797 -9.3471907355215915 1.0281785100244094 1.4646741450659704 -2.7320094950737657 -0.16644610513116762 -0.49246398669904751 -0.11390335599904802 -0.28168394451438988 -0.75740595860914939 0.75234285952812463 0.14218280609669451 -0.54874709734589688 -0.50430898756394527 -0.79059898820297292 -1.5378113125260313 1.8571147032633832 -1.8254755247879573 11.102638052506364 0.31430061578522556 0.15949361546845467 0.68930301959051699 -0.63988811035206661 -1.0048694950201877 -0.3243826956285652 -1.2206754373289925 1.5245894475183506 0.59588608286348121 -0.99636940315654388 6.7404614143794221 -0.48558417990272318 -0.65042012363354051 -0.1345990078767528 -0.99133363875762948 -0.37357323069863924 -0.97588156956530558 0.12893513561647013 2.5191091043392007 1.940066615966896 0.64228639109763042 1.8459428904305015 1.3077910104968511 -1.8625111276454036 3.8276016083045779 1.3200577928444261 -1.3141330369575088 -0.56952504637706058 5.0305425299869544 3.6739928644727571 -1.965319819262453
leaf_count=390 50 94 63 320 6696 507 52 1017 2051 5988 3975 1416 85 572 834 1490 197 692 1306 1254 1501 74 296 369 1763 47 1786 1006 175 301 1168 103 259 535 43 194 2643 1610 43 137 88 341 351 98 340 43 195 73 78
internal_value=0 -0.212676 0.315671 -0.339791 -0.263167 -0.211737 0.268296 -0.0475871 -0.155368 0.323796 0.0446629 -0.184385 0.109872 -0.0755616 -0.577927 0.26462 0.19903 0.727784 0.0107619 0.0763052 0.125639 -0.353568 -0.5773 -0.518731 -0.595685 -0.265892 0.0913853 -0.580824 0.574586 -0.505738 -0.186658 0.15736 -0.0257766 -0.318893 0.52374 -0.237885 0.536178 0.394839 -0.404878 0.184607 0.265918 -0.657831 0.672772 0.550111 -0.789604 0.0229008 0.816216 0.485294 -0.679426
internal_count=44709 27422 17287 15486 11715 10088 15509 11936 8747 12023 7120 4816 5561 2938 1341 9285 6185 1778 2323 3486 5476 1878 3771 2963 2132 1463 3436 1627 1086 1307 1559 197 1513 831 2738 1362 2695 3100 615 1923 267 415 819 449 808 131 370 136 418
shrinkage=0.1


Tree=17
num_leaves=51
num_cat=0
split_feature=1 1 1 3 5 3 3 2 2 1 0 1 18 0 3 11 2 2 2 5 1 18 0 1 2 3 0 17 1 2 0 18 2 1 2 0 5 2 18 5 1 2 1 1 0 2 5 2 2 0
split_gain=2464.63 414.798 354.434 282.165 190.005 168.28 153.435 131.674 119.648 108.587 89.4832 89.0019 80.54 94.3503 62.4703 57.4528 56.9867 56.3606 51.7671 44.8096 39.499 39.3213 35.0732 33.8544 44.8127 30.7984 29.5733 27.1295 25.797 25.5441 23.8414 22.4726 30.8541 17.3297 17.1357 16.5524 15.585 15.0047 11.0265 9.96284 7.30912 7.24832 12.889 6.52214 12.6295 6.30626 2.30727 1.59231 1.47185 1.03138
