tree
version=v2
num_class=1
num_tree_per_iteration=1
label_index=0
max_feature_idx=825
objective=regression_l1
feature_names=Log-Built Log-NbhdPPS Log-SqFt Log-Fixtures Quarter_1 Quarter_2 Quarter_3 Quarter_4 Building-Grade_A Building-Grade_B Building-Grade_C Building-Grade_D Building-Grade_E Building-Grade_X Building-Type-Custom_CONDO Building-Type-Custom_HRISE Building-Type-Custom_PLEX Building-Type-Custom_SINGLE_FAM Building-Type-Custom_VACANT Neighborhood_1026.0 Neighborhood_1027.0 Neighborhood_1028.0 Neighborhood_1029.0 Neighborhood_1030.0 Neighborhood_107.0 Neighborhood_1126.0 Neighborhood_1127.0 Neighborhood_1129.0 Neighborhood_1130.0 Neighborhood_1226.0 Neighborhood_1228.0 Neighborhood_126.0 Neighborhood_1326.0 Neighborhood_1327.0 Neighborhood_1328.0 Neighborhood_1329.0 Neighborhood_1330.0 Neighborhood_1426.0 Neighborhood_1626.0 Neighborhood_1627.0 Neighborhood_1926.0 Neighborhood_2026.0 Neighborhood_2126.0 Neighborhood_2127.0 Neighborhood_2128.0 Neighborhood_2132.0 Neighborhood_2133.0 Neighborhood_2134.0 Neighborhood_2136.0 Neighborhood_2139.0 Neighborhood_2142.0 Neighborhood_2143.0 Neighborhood_2144.0 Neighborhood_2145.0 Neighborhood_2211.0 Neighborhood_2226.0 Neighborhood_2227.0 Neighborhood_2228.0 Neighborhood_2229.0 Neighborhood_2230.0 Neighborhood_2231.0 Neighborhood_2236.0 Neighborhood_2237.0 Neighborhood_226.0 Neighborhood_2326.0 Neighborhood_2328.0 Neighborhood_2330.0 Neighborhood_2426.0 Neighborhood_2427.0 Neighborhood_2428.0 Neighborhood_2430.0 Neighborhood_2431.0 Neighborhood_2433.0 Neighborhood_2434.0 Neighborhood_2436.0 Neighborhood_2440.0 Neighborhood_2441.0 Neighborhood_2443.0 Neighborhood_2445.0 Neighborhood_2447.0 Neighborhood_2448.0 Neighborhood_2526.0 Neighborhood_2527.0 Neighborhood_2529.0 Neighborhood_2530.0 Neighborhood_2626.0 Neighborhood_2627.0 Neighborhood_2628.0 Neighborhood_2630.0 Neighborhood_2631.0 Neighborhood_2632.0 Neighborhood_2634.0 Neighborhood_2635.0 Neighborhood_2637.0 Neighborhood_2639.0 Neighborhood_2640.0 Neighborhood_2641.0 Neighborhood_2642.0 Neighborhood_2644.0 Neighborhood_2645.0 Neighborhood_2726.0 Neighborhood_3026.0 Neighborhood_3027.0 Neighborhood_3030.0 Neighborhood_3031.0 Neighborhood_3032.0 Neighborhood_3033.0 Neighborhood_3126.0 Neighborhood_3127.0 Neighborhood_3128.0 Neighborhood_3129.0 Neighborhood_3130.0 Neighborhood_3131.0 Neighborhood_3132.0 Neighborhood_3133.0 Neighborhood_3134.0 Neighborhood_3135.0 Neighborhood_3179.0 Neighborhood_3226.0 Neighborhood_3227.0 Neighborhood_3228.0 Neighborhood_3229.0 Neighborhood_3230.0 Neighborhood_3231.0 Neighborhood_3232.0 Neighborhood_3233.0 Neighborhood_3235.0 Neighborhood_3236.0 Neighborhood_3237.0 Neighborhood_3238.0 Neighborhood_3239.0 Neighborhood_3240.0 Neighborhood_3241.0 Neighborhood_3242.0 Neighborhood_3243.0 Neighborhood_3244.0 Neighborhood_3245.0 Neighborhood_3246.0 Neighborhood_3247.0 Neighborhood_3248.0 Neighborhood_3249.0 Neighborhood_3250.0 Neighborhood_3251.0 Neighborhood_3252.0 Neighborhood_3253.0 Neighborhood_3254.0 Neighborhood_3255.0 Neighborhood_3256.0 Neighborhood_3257.0 Neighborhood_3258.0 Neighborhood_3259.0 Neighborhood_326.0 Neighborhood_3260.0 Neighborhood_3262.0 Neighborhood_3263.0 Neighborhood_3264.0 Neighborhood_3265.0 Neighborhood_3266.0 Neighborhood_3267.0 Neighborhood_3269.0 Neighborhood_3270.0 Neighborhood_3271.0 Neighborhood_3272.0 Neighborhood_3273.0 Neighborhood_3274.0 Neighborhood_3275.0 Neighborhood_3276.0 Neighborhood_3278.0 Neighborhood_3279.0 Neighborhood_3280.0 Neighborhood_3281.0 Neighborhood_3282.0 Neighborhood_3283.0 Neighborhood_3326.0 Neighborhood_3327.0 Neighborhood_3328.0 Neighborhood_3329.0 Neighborhood_3330.0 Neighborhood_3331.0 Neighborhood_3332.0 Neighborhood_3333.0 Neighborhood_3334.0 Neighborhood_3335.0 Neighborhood_3337.0 Neighborhood_3338.0 Neighborhood_3339.0 Neighborhood_3341.0 Neighborhood_3343.0 Neighborhood_3345.0 Neighborhood_3347.0 Neighborhood_3348.0 Neighborhood_3349.0 Neighborhood_3350.0 Neighborhood_3351.0 Neighborhood_3426.0 Neighborhood_3506.0 Neighborhood_3527.0 Neighborhood_3528.0 Neighborhood_3529.0 Neighborhood_3530.0 Neighborhood_3531.0 Neighborhood_3532.0 Neighborhood_3533.0 Neighborhood_3534.0 Neighborhood_3535.0 Neighborhood_3536.0 Neighborhood_3626.0 Neighborhood_3627.0 Neighborhood_3628.0 Neighborhood_3629.0 Neighborhood_3630.0 Neighborhood_3726.0 Neighborhood_3727.0 Neighborhood_3728.0 Neighborhood_3729.0 Neighborhood_3730.0 Neighborhood_3731.0 Neighborhood_3732.0 Neighborhood_3733.0 Neighborhood_3735.0 Neighborhood_3736.0 Neighborhood_3737.0 Neighborhood_3738.0 Neighborhood_3739.0 Neighborhood_3740.0 Neighborhood_3742.0 Neighborhood_3743.0 Neighborhood_3744.0 Neighborhood_3745.0 Neighborhood_3746.0 Neighborhood_3747.0 Neighborhood_3748.0 Neighborhood_3750.0 Neighborhood_3751.0 Neighborhood_3752.0 Neighborhood_3753.0 Neighborhood_3754.0 Neighborhood_3755.0 Neighborhood_3756.0 Neighborhood_3757.0 Neighborhood_3758.0 Neighborhood_3760.0 Neighborhood_3761.0 Neighborhood_3762.0 Neighborhood_3764.0 Neighborhood_3765.0 Neighborhood_3766.0 Neighborhood_3826.0 Neighborhood_3827.0 Neighborhood_3828.0 Neighborhood_3829.0 Neighborhood_3830.0 Neighborhood_3831.0 Neighborhood_3926.0 Neighborhood_3927.0 Neighborhood_3928.0 Neighborhood_3929.0 Neighborhood_3930.0 Neighborhood_3931.0 Neighborhood_3932.0 Neighborhood_3933.0 Neighborhood_3934.0 Neighborhood_3935.0 Neighborhood_3936.0 Neighborhood_3937.0 Neighborhood_3943.0 Neighborhood_3944.0 Neighborhood_3945.0 Neighborhood_3946.0 Neighborhood_3947.0 Neighborhood_4015.0 Neighborhood_4026.0 Neighborhood_4027.0 Neighborhood_4028.0 Neighborhood_4029.0 Neighborhood_4030.0 Neighborhood_4031.0 Neighborhood_4032.0 Neighborhood_4033.0 Neighborhood_4035.0 Neighborhood_4036.0 Neighborhood_4037.0 Neighborhood_4038.0 Neighborhood_4039.0 Neighborhood_4040.0 Neighborhood_4041.0 Neighborhood_4042.0 Neighborhood_4043.0 Neighborhood_4045.0 Neighborhood_4046.0 Neighborhood_4047.0 Neighborhood_4049.0 Neighborhood_4050.0 Neighborhood_4052.0 Neighborhood_4053.0 Neighborhood_4054.0 Neighborhood_4055.0 Neighborhood_4056.0 Neighborhood_4058.0 Neighborhood_4059.0 Neighborhood_4060.0 Neighborhood_4061.0 Neighborhood_4062.0 Neighborhood_4064.0 Neighborhood_4065.0 Neighborhood_4066.0 Neighborhood_4067.0 Neighborhood_4068.0 Neighborhood_4069.0 Neighborhood_4070.0 Neighborhood_4071.0 Neighborhood_4073.0 Neighborhood_4075.0 Neighborhood_4076.0 Neighborhood_4077.0 Neighborhood_4078.0 Neighborhood_4079.0 Neighborhood_4080.0 Neighborhood_4081.0 Neighborhood_4082.0 Neighborhood_4083.0 Neighborhood_4084.0 Neighborhood_4085.0 Neighborhood_4086.0 Neighborhood_4087.0 Neighborhood_4088.0 Neighborhood_4090.0 Neighborhood_4091.0 Neighborhood_4092.0 Neighborhood_4093.0 Neighborhood_4094.0 Neighborhood_4095.0 Neighborhood_4096.0 Neighborhood_4097.0 Neighborhood_4098.0 Neighborhood_4099.0 Neighborhood_4113.0 Neighborhood_4126.0 Neighborhood_4127.0 Neighborhood_4128.0 Neighborhood_4129.0 Neighborhood_4130.0 Neighborhood_4131.0 Neighborhood_4132.0 Neighborhood_4133.0 Neighborhood_4135.0 Neighborhood_4136.0 Neighborhood_4137.0 Neighborhood_4138.0 Neighborhood_4139.0 Neighborhood_4140.0 Neighborhood_4141.0 Neighborhood_4142.0 Neighborhood_4143.0 Neighborhood_4144.0 Neighborhood_4145.0 Neighborhood_4146.0 Neighborhood_4147.0 Neighborhood_4148.0 Neighborhood_4150.0 Neighborhood_4151.0 Neighborhood_4152.0 Neighborhood_4153.0 Neighborhood_4155.0 Neighborhood_4156.0 Neighborhood_4157.0 Neighborhood_4158.0 Neighborhood_4159.0 Neighborhood_4160.0 Neighborhood_4161.0 Neighborhood_4162.0 Neighborhood_4163.0 Neighborhood_4164.0 Neighborhood_4165.0 Neighborhood_4166.0 Neighborhood_4167.0 Neighborhood_4168.0 Neighborhood_4169.0 Neighborhood_4170.0 Neighborhood_4171.0 Neighborhood_4172.0 Neighborhood_4173.0 Neighborhood_4174.0 Neighborhood_4175.0 Neighborhood_4176.0 Neighborhood_4177.0 Neighborhood_4178.0 Neighborhood_4179.0 Neighborhood_4180.0 Neighborhood_4181.0 Neighborhood_4183.0 Neighborhood_4184.0 Neighborhood_4185.0 Neighborhood_4186.0 Neighborhood_4187.0 Neighborhood_4188.0 Neighborhood_4189.0 Neighborhood_4190.0 Neighborhood_4191.0 Neighborhood_4192.0 Neighborhood_4193.0 Neighborhood_4194.0 Neighborhood_4195.0 Neighborhood_4196.0 Neighborhood_4197.0 Neighborhood_4198.0 Neighborhood_4199.0 Neighborhood_4226.0 Neighborhood_4227.0 Neighborhood_4228.0 Neighborhood_4229.0 Neighborhood_4230.0 Neighborhood_4231.0 Neighborhood_4232.0 Neighborhood_4233.0 Neighborhood_4234.0 Neighborhood_4235.0 Neighborhood_4236.0 Neighborhood_4237.0 Neighborhood_4238.0 Neighborhood_4239.0 Neighborhood_4240.0 Neighborhood_4241.0 Neighborhood_4242.0 Neighborhood_4243.0 Neighborhood_4244.0 Neighborhood_4247.0 Neighborhood_4248.0 Neighborhood_4249.0 Neighborhood_4250.0 Neighborhood_4251.0 Neighborhood_4252.0 Neighborhood_4253.0 Neighborhood_4254.0 Neighborhood_4255.0 Neighborhood_4256.0 Neighborhood_4257.0 Neighborhood_4258.0 Neighborhood_4259.0 Neighborhood_4260.0 Neighborhood_4262.0 Neighborhood_4263.0 Neighborhood_4264.0 Neighborhood_4265.0 Neighborhood_4266.0 Neighborhood_4267.0 Neighborhood_4268.0 Neighborhood_4269.0 Neighborhood_4270.0 Neighborhood_4271.0 Neighborhood_4272.0 Neighborhood_4273.0 Neighborhood_4274.0 Neighborhood_4275.0 Neighborhood_4276.0 Neighborhood_4277.0 Neighborhood_4278.0 Neighborhood_4279.0 Neighborhood_4280.0 Neighborhood_4281.0 Neighborhood_4282.0 Neighborhood_4283.0 Neighborhood_4284.0 Neighborhood_4285.0 Neighborhood_4286.0 Neighborhood_4287.0 Neighborhood_4289.0 Neighborhood_4290.0 Neighborhood_4291.0 Neighborhood_4292.0 Neighborhood_4293.0 Neighborhood_4294.0 Neighborhood_4295.0 Neighborhood_4296.0 Neighborhood_4297.0 Neighborhood_4298.0 Neighborhood_4299.0 Neighborhood_4326.0 Neighborhood_4327.0 Neighborhood_4328.0 Neighborhood_4329.0 Neighborhood_4330.0 Neighborhood_4331.0 Neighborhood_4332.0 Neighborhood_4333.0 Neighborhood_4334.0 Neighborhood_4350.0 Neighborhood_4351.0 Neighborhood_4352.0 Neighborhood_4353.0 Neighborhood_4354.0 Neighborhood_4355.0 Neighborhood_4356.0 Neighborhood_4357.0 Neighborhood_4358.0 Neighborhood_4359.0 Neighborhood_4360.0 Neighborhood_4361.0 Neighborhood_4362.0 Neighborhood_4363.0 Neighborhood_4364.0 Neighborhood_4365.0 Neighborhood_4366.0 Neighborhood_4367.0 Neighborhood_4368.0 Neighborhood_4369.0 Neighborhood_4426.0 Neighborhood_4427.0 Neighborhood_4428.0 Neighborhood_4429.0 Neighborhood_4430.0 Neighborhood_4431.0 Neighborhood_4432.0 Neighborhood_4433.0 Neighborhood_4441.0 Neighborhood_4443.0 Neighborhood_4444.0 Neighborhood_4445.0 Neighborhood_4446.0 Neighborhood_4447.0 Neighborhood_4826.0 Neighborhood_4827.0 Neighborhood_4828.0 Neighborhood_4829.0 Neighborhood_4830.0 Neighborhood_4831.0 Neighborhood_4832.0 Neighborhood_4835.0 Neighborhood_4836.0 Neighborhood_4837.0 Neighborhood_4839.0 Neighborhood_4840.0 Neighborhood_4841.0 Neighborhood_4842.0 Neighborhood_4843.0 Neighborhood_4844.0 Neighborhood_4845.0 Neighborhood_4846.0 Neighborhood_4847.0 Neighborhood_4848.0 Neighborhood_4849.0 Neighborhood_4850.0 Neighborhood_4851.0 Neighborhood_4926.0 Neighborhood_4927.0 Neighborhood_6011.0 Neighborhood_6026.0 Neighborhood_6027.0 Neighborhood_6028.0 Neighborhood_6029.0 Neighborhood_6031.0 Neighborhood_6032.0 Neighborhood_6033.0 Neighborhood_6034.0 Neighborhood_6035.0 Neighborhood_6036.0 Neighborhood_6037.0 Neighborhood_6040.0 Neighborhood_6041.0 Neighborhood_6042.0 Neighborhood_6043.0 Neighborhood_6044.0 Neighborhood_6213.0 Neighborhood_6226.0 Neighborhood_6227.0 Neighborhood_6228.0 Neighborhood_6229.0 Neighborhood_6230.0 Neighborhood_6231.0 Neighborhood_6232.0 Neighborhood_6233.0 Neighborhood_6234.0 Neighborhood_6235.0 Neighborhood_6236.0 Neighborhood_6237.0 Neighborhood_6238.0 Neighborhood_6239.0 Neighborhood_6240.0 Neighborhood_6241.0 Neighborhood_6242.0 Neighborhood_6243.0 Neighborhood_6244.0 Neighborhood_6245.0 Neighborhood_6246.0 Neighborhood_6247.0 Neighborhood_6248.0 Neighborhood_6249.0 Neighborhood_6251.0 Neighborhood_6252.0 Neighborhood_6253.0 Neighborhood_6254.0 Neighborhood_6255.0 Neighborhood_6256.0 Neighborhood_6257.0 Neighborhood_6258.0 Neighborhood_6259.0 Neighborhood_6260.0 Neighborhood_6261.0 Neighborhood_6262.0 Neighborhood_6263.0 Neighborhood_6264.0 Neighborhood_6265.0 Neighborhood_6266.0 Neighborhood_6272.0 Neighborhood_6278.0 Neighborhood_6326.0 Neighborhood_6327.0 Neighborhood_6328.0 Neighborhood_6329.0 Neighborhood_6330.0 Neighborhood_6331.0 Neighborhood_6332.0 Neighborhood_6333.0 Neighborhood_6334.0 Neighborhood_6335.0 Neighborhood_6337.0 Neighborhood_6338.0 Neighborhood_6339.0 Neighborhood_6340.0 Neighborhood_6341.0 Neighborhood_6342.0 Neighborhood_6343.0 Neighborhood_6344.0 Neighborhood_6346.0 Neighborhood_6347.0 Neighborhood_6348.0 Neighborhood_6349.0 Neighborhood_6350.0 Neighborhood_6351.0 Neighborhood_6352.0 Neighborhood_6355.0 Neighborhood_6356.0 Neighborhood_6357.0 Neighborhood_6358.0 Neighborhood_6359.0 Neighborhood_6360.0 Neighborhood_6361.0 Neighborhood_6362.0 Neighborhood_6363.0 Neighborhood_6364.0 Neighborhood_6365.0 Neighborhood_6366.0 Neighborhood_6369.0 Neighborhood_6370.0 Neighborhood_6371.0 Neighborhood_6372.0 Neighborhood_6373.0 Neighborhood_6374.0 Neighborhood_6375.0 Neighborhood_6376.0 Neighborhood_6377.0 Neighborhood_6378.0 Neighborhood_6379.0 Neighborhood_6380.0 Neighborhood_6381.0 Neighborhood_6382.0 Neighborhood_6383.0 Neighborhood_6384.0 Neighborhood_6385.0 Neighborhood_6386.0 Neighborhood_6387.0 Neighborhood_6389.0 Neighborhood_6390.0 Neighborhood_6391.0 Neighborhood_6393.0 Neighborhood_6394.0 Neighborhood_6395.0 Neighborhood_6396.0 Neighborhood_6397.0 Neighborhood_6398.0 Neighborhood_6399.0 Neighborhood_6426.0 Neighborhood_6427.0 Neighborhood_6428.0 Neighborhood_6430.0 Neighborhood_6431.0 Neighborhood_6432.0 Neighborhood_6433.0 Neighborhood_6434.0 Neighborhood_6435.0 Neighborhood_6436.0 Neighborhood_6437.0 Neighborhood_6438.0 Neighborhood_6439.0 Neighborhood_6440.0 Neighborhood_6441.0 Neighborhood_6442.0 Neighborhood_6443.0 Neighborhood_6444.0 Neighborhood_6445.0 Neighborhood_6446.0 Neighborhood_6447.0 Neighborhood_6448.0 Neighborhood_6449.0 Neighborhood_6450.0 Neighborhood_6451.0 Neighborhood_6452.0 Neighborhood_6453.0 Neighborhood_6454.0 Neighborhood_6455.0 Neighborhood_6456.0 Neighborhood_6526.0 Neighborhood_6527.0 Neighborhood_6528.0 Neighborhood_6626.0 Neighborhood_6726.0 Neighborhood_6727.0 Neighborhood_6728.0 Neighborhood_6729.0 Neighborhood_6730.0 Neighborhood_6731.0 Neighborhood_6732.0 Neighborhood_6733.0 Neighborhood_6734.0 Neighborhood_6735.0 Neighborhood_6736.0 Neighborhood_6737.0 Neighborhood_6738.0 Neighborhood_6739.0 Neighborhood_6740.0 Neighborhood_6741.0 Neighborhood_6742.0 Neighborhood_6743.0 Neighborhood_6744.0 Neighborhood_6745.0 Neighborhood_6747.0 Neighborhood_6749.0 Neighborhood_6751.0 Neighborhood_6752.0 Neighborhood_6753.0 Neighborhood_6754.0 Neighborhood_6755.0 Neighborhood_6757.0 Neighborhood_6758.0 Neighborhood_6759.0 Neighborhood_6760.0 Neighborhood_6761.0 Neighborhood_6762.0 Neighborhood_6763.0 Neighborhood_6764.0 Neighborhood_6766.0 Neighborhood_6767.0 Neighborhood_6770.0 Neighborhood_6773.0 Neighborhood_6774.0 Neighborhood_6775.0 Neighborhood_6776.0 Neighborhood_6777.0 Neighborhood_6780.0 Neighborhood_6782.0 Neighborhood_6783.0 Neighborhood_6784.0 Neighborhood_6785.0 Neighborhood_6787.0 Neighborhood_6788.0 Neighborhood_6789.0 Neighborhood_6790.0 Neighborhood_6792.0 Neighborhood_6793.0 Neighborhood_6794.0 Neighborhood_6795.0 Neighborhood_6797.0 Neighborhood_6798.0 Neighborhood_6799.0 Neighborhood_6826.0 Neighborhood_6828.0 Neighborhood_6829.0 Neighborhood_6831.0 Neighborhood_6834.0 Neighborhood_6926.0 Neighborhood_6927.0 Neighborhood_6928.0 Neighborhood_6929.0 Neighborhood_6930.0 Neighborhood_6931.0 Neighborhood_6932.0 Neighborhood_6933.0 Neighborhood_6934.0 Neighborhood_6935.0 Neighborhood_6936.0 Neighborhood_6937.0 Neighborhood_6938.0 Neighborhood_6939.0 Neighborhood_6940.0 Neighborhood_6941.0 Neighborhood_6942.0 Neighborhood_6946.0 Neighborhood_6950.0 Neighborhood_6955.0 Neighborhood_6956.0 Neighborhood_6957.0 Neighborhood_6958.0 Neighborhood_7226.0 Neighborhood_7227.0 Neighborhood_725.0 Neighborhood_726.0 Neighborhood_7326.0 Neighborhood_7327.0 Neighborhood_7328.0 Neighborhood_7329.0 Neighborhood_7330.0 Neighborhood_7331.0 Neighborhood_7332.0 Neighborhood_9026.0 Neighborhood_9027.0 Neighborhood_9028.0 Neighborhood_9126.0 Neighborhood_9226.0 Neighborhood_9227.0 Neighborhood_9228.0 Neighborhood_9326.0 Neighborhood_9327.0 Neighborhood_9328.0 Neighborhood_9329.0 Neighborhood_9330.0 Neighborhood_9331.0 Neighborhood_9332.0 Neighborhood_9333.0 Neighborhood_9334.0 Neighborhood_9335.0 Neighborhood_9336.0 Neighborhood_9526.0 Neighborhood_9527.0 Neighborhood_9528.0 Neighborhood_9529.0 Neighborhood_9530.0
feature_infos=[0:11.433425886186699] [3.5620447018917334:6.6239056142842987] [5.1647859739235145:9.3367086707909888] [0:3.1354942159291497] [0:1] [0:1] [0:1] [0:1] [0:1] [0:1] [0:1] [0:1] [0:1] [0:1] [0:1] [0:1] [0:1] [0:1] [0:1] [0:1] none none none none none [0:1] [0:1] [0:1] none [0:1] [0:1] [0:1] none none none none none [0:1] [0:1] [0:1] [0:1] [0:1] [0:1] none none none none none none none [0:1] [0:1] none none none [0:1] [0:1] [0:1] [0:1] none none none none [0:1] [0:1] [0:1] none [0:1] none none none none none none none none none none none none none [0:1] [0:1] [0:1] none [0:1] none [0:1] none none none none none none none none none none none none [0:1] [0:1] [0:1] none none none none [0:1] [0:1] none [0:1] [0:1] [0:1] [0:1] [0:1] [0:1] none [0:1] [0:1] [0:1] [0:1] [0:1] none none none none none none [0:1] none [0:1] [0:1] [0:1] [0:1] [0:1] [0:1] none [0:1] none none none none none none none none none [0:1] none none none [0:1] none none none none none none none none [0:1] none none [0:1] none none none none none none none none [0:1] [0:1] [0:1] [0:1] [0:1] [0:1] none [0:1] none [0:1] none none [0:1] [0:1] none none none none none none [0:1] none [0:1] none [0:1] [0:1] [0:1] none [0:1] [0:1] [0:1] [0:1] [0:1] [0:1] [0:1] [0:1] [0:1] [0:1] [0:1] [0:1] [0:1] [0:1] [0:1] [0:1] [0:1] none none none none none none none none none none none none none none [0:1] none none none [0:1] none none none none [0:1] none none none none none none [0:1] [0:1] [0:1] [0:1] none none [0:1] [0:1] [0:1] [0:1] [0:1] none [0:1] none none none none none [0:1] [0:1] none [0:1] [0:1] none [0:1] [0:1] [0:1] [0:1] [0:1] none none [0:1] [0:1] none none [0:1] [0:1] [0:1] none [0:1] none none none none [0:1] [0:1] [0:1] [0:1] none [0:1] [0:1] [0:1] [0:1] [0:1] [0:1] [0:1] [0:1] [0:1] [0:1] [0:1] [0:1] [0:1] [0:1] [0:1] [0:1] [0:1] [0:1] none [0:1] [0:1] [0:1] [0:1] [0:1] [0:1] [0:1] [0:1] [0:1] none [0:1] none [0:1] [0:1] [0:1] none none none [0:1] [0:1] none none [0:1] [0:1] [0:1] [0:1] [0:1] [0:1] [0:1] [0:1] [0:1] [0:1] none [0:1] none none none none none [0:1] [0:1] none [0:1] none none none none [0:1] [0:1] none none [0:1] none [0:1] none none none none [0:1] [0:1] none [0:1] [0:1] none [0:1] none [0:1] [0:1] none none [0:1] [0:1] [0:1] none [0:1] [0:1] [0:1] none [0:1] [0:1] none none none [0:1] [0:1] none none [0:1] [0:1] none none [0:1] none none [0:1] [0:1] [0:1] [0:1] [0:1] [0:1] none none none [0:1] none none [0:1] [0:1] [0:1] none [0:1] none none none none none [0:1] [0:1] [0:1] none [0:1] [0:1] none [0:1] none [0:1] [0:1] [0:1] [0:1] [0:1] [0:1] [0:1] [0:1] [0:1] [0:1] [0:1] [0:1] [0:1] [0:1] [0:1] none [0:1] [0:1] none none [0:1] none [0:1] [0:1] none [0:1] [0:1] [0:1] [0:1] none [0:1] [0:1] [0:1] none [0:1] [0:1] [0:1] [0:1] [0:1] [0:1] none none none none [0:1] [0:1] [0:1] none [0:1] [0:1] none none [0:1] [0:1] [0:1] none [0:1] none none [0:1] [0:1] [0:1] none [0:1] [0:1] [0:1] [0:1] [0:1] [0:1] [0:1] [0:1] none none none none none none none none [0:1] [0:1] [0:1] [0:1] [0:1] [0:1] [0:1] [0:1] [0:1] [0:1] none none none [0:1] none [0:1] [0:1] none none [0:1] none none none none none none none [0:1] [0:1] [0:1] [0:1] [0:1] none none [0:1] [0:1] [0:1] [0:1] none none [0:1] [0:1] [0:1] none [0:1] [0:1] [0:1] [0:1] [0:1] [0:1] [0:1] [0:1] none [0:1] none none [0:1] [0:1] [0:1] none [0:1] none none none none none [0:1] [0:1] [0:1] [0:1] [0:1] none [0:1] [0:1] none none none none none none [0:1] none none none none none none [0:1] [0:1] [0:1] none [0:1] [0:1] [0:1] [0:1] none [0:1] none [0:1] [0:1] [0:1] [0:1] none [0:1] [0:1] none [0:1] none [0:1] none [0:1] none none none [0:1] none none [0:1] none none [0:1] [0:1] [0:1] [0:1] [0:1] none [0:1] [0:1] none none none none none none [0:1] [0:1] none none [0:1] none [0:1] none [0:1] [0:1] [0:1] none [0:1] [0:1] none [0:1] [0:1] [0:1] [0:1] [0:1] [0:1] none [0:1] [0:1] [0:1] [0:1] [0:1] none [0:1] [0:1] none none none [0:1] none none [0:1] [0:1] [0:1] [0:1] [0:1] none [0:1] none none [0:1] none none [0:1] none [0:1] none [0:1] [0:1] none [0:1] [0:1] [0:1] [0:1] [0:1] [0:1] [0:1] [0:1] [0:1] [0:1] none [0:1] [0:1] [0:1] none [0:1] [0:1] [0:1] [0:1] [0:1] [0:1] none none [0:1] none none none none none none [0:1] none [0:1] none none [0:1] [0:1] [0:1] none none none [0:1] [0:1] none [0:1] none none [0:1] none none [0:1] [0:1] none [0:1] [0:1] [0:1] [0:1] [0:1] [0:1] [0:1] [0:1] [0:1] [0:1] [0:1] [0:1] [0:1] [0:1] none [0:1] [0:1] [0:1] none [0:1] [0:1] none none none [0:1] none [0:1] [0:1] none none none [0:1] [0:1] none none [0:1] [0:1] [0:1] [0:1] [0:1] [0:1] [0:1] [0:1] none none none [0:1] none none [0:1] [0:1] [0:1] none [0:1] [0:1] none none [0:1] none none none none [0:1] [0:1] [0:1]
tree_sizes=4061 4264 4342 4277 4322 4283 4267 4263 4188 4113 4290 4006 4049 3820 4041 3445 3888 3111 3754 3060 3509 3277 3449 3486 3307 3224 3290 3976 3311 2794 3106 2824 3684 2891 2894 2869 2576 2960 2960 2345 2821 1893 2579 1740 3528 1781 2753 3471 3709 3407 3331 2036 1875 2045 1378 1682 2304 3192 1966 1202 1432 1442 2338 3735 992 1129 835 2919 1590 3039 1338 1213 1076 1285 1001 2750 1126 1277 1371 2150 1426 1581 1156 1697 847 1276 1870 1989 1284 991 1896 1075 2055 1358 1643 1048 1719 2723 1411 1140 1960 1592 1359 1214 1192 1696 1132 985 1569 843 1457 1763 927 1441 1596 767 1219 842 771 1757 904 1228 1607 993 999 1284 984 1048 1460 1524 695 1430 1469 1583 1388 1210 843 1676 1113 1086 1301 2015 1868 1311 1052 919 1374 894 1689 1135 1364 2368 1279 1220 1138 1055 839 1289 828 843 768 912 1442 1595 1399 3032 1075 1228 1153 1299 2071 1295 1140 1429 1212 999 1060 1602 981 1598 1290 1499 2363 1573 1214 834 979 1309 2213 899 1368 992 1498 1564 1081 1296 1675 1448 842 996 975 1072 995 1540 1386 991 906 988 914 979 995 1213 1010 2109 1297 1146 912 2068 1904 2307 1384 1581 1815 1485 2154 1362 1376 1235 832 1558 1833 1374 931 2070 2786 1050 1313 1463 2271 1699 1368 1473 1212 1749 877 1238 1440 1296 853 1505 982 1238 916 1135 1231 918 1908 1295 1800 983 1359 1983 2071 1727 1152 1626 847 1990 1291 1273 1662 1216 1920 1609 1840 700 1761 1233 992 770 1827 997 924 920 1823 2130 2308 2199 1581 2123 999 1998 1150 1134 1673 695 759 2160 1889 917 1744 1499 1988 2018 2026 1446 1534 1459 1841 1830 2147 2134 1073 1066 1372 918 1221 1392 920 976 1214 1133 929 1705 1277 988 2070 1293 761 1251 1848 1450 1056 1483 2590 698 2450 1141 1385 1361 1717 2220 1424 2452 1604 1157 1520 833 682 845 1001 914 1204 1531 920 1525 2777 1302 2277 1974 1325 902 1805 989 923 1071 1404 1305 1852 1229 994 1322 2536 2076 1463 1819 1279 1505 1300 1462 1411 1674 1828 762 837 1314 1157 1289 2387 1871 1227 915 1414 3005 976 919 1362 1745 1670 850 1436 2027 1301 1373 1514 919 2663 1504 1641 2141 1017 1509 1398 1158 1421 1992 1997 1449 2107 2039 2302 2365 920 762 764 926 925 1608 1068 1784 1690 1544 986 1766 1227 910 1765 770 1157 1686 1989 1132 1235 1497 997 1741 1489 1507 1515 1210 1220 2534 2470 847 1069 977 1202 1429 1461 1439 1903 1161 1218 1621 1304 1679 1444 1681 1763 919 1736 1627 749 687 1237 1470 1999 1715 2689 2268 909 1217 1817 919 1153 763 915 1235 1880 1376 780 1389 2614 1452 1169 1086 2141 1466 1060 1579 995 1368 1290 1462 1363 1374 920 1840 993 1527 2073 1342 1699 1382 1428 1909 1521 1496 3399 1914 1451 1303 1301 1081 1452 1388 1317 2351 1370 1838 1819 2096 1159 1912 1587 930 1080 1165 1615 1058 1534 1881 1450 1442 1472 2051 2090 2134 1458 1909 2222 1154 1680 1227 1587 2131 1137 1515 1826 1753 1984 1453 1221 1053 2196 1904 1763 1374 2125 1765 1383 1235 1238 1959 1980 2654 1517 1152 1298 1447 993 999 1212 1837 1151 849 778 700 1539 1158 1721 2913 1239 1849 2268 1755 1530 1226 1080 1357 1220 1595 1293 2428 1120 1216 920 703 705 761 990 1059 934 1003 1008 922 1155 1086 1363 841 1075 1149 1743 1214 1845 1308 929 1605 2157 1552 2192 1745 2002 1917 1807 1744 1463 1681 1001 1091 936 1090 1224 1538 851 1313 1085 898 2528 1138 1513 2199 1599 1761 2119 988 1692 1154 1167 935 1379 1602 1301 1478 1490 1216 924 2194 1938 1509 1869 1886 1673 1442 2528 1286 1684 1235 854 1433 1297 1231 2434 855 1970 923 2391 1931 1597 1472 1540 1651 2302 2303 1829 1677 2359 1611 1885 2279 1670 3124 1615 1154 1526 1303 1008 2514 1387 1321 1470 1002 1162 1292 1558 1014 1392 1067 1546 1181 3763 1910 1659 1086 1738 1897 1681 1306 1765 1395 855 933 852 1522 1512 3152 1442 2099 2074 1069 1906 2057 3116 923 993 1607 855 1973 1281 1893 1157 1703 2135 2548 776 1528 1456 1531 931 1080 1753 1465 1852 2360 1843 1096 2012 1088 784 1612 1683 1314 1837 1984 1901 1380 1692 1075 1476 1530 1418 1700 1605 1142 1310 1173 708 987 911 938 1064 1048 1159 2860 1207 1227 1512 1444 1315 1449 1538 2375 1703 1152 1607 1673 1680 1230 1522 1396 1483 1688 1767 1233 1385 2077 2490 1065 1726 2910 1690 1621 1506 1979 1766 2060 1978 1995 1069 1078 1077 1387 774 784 1547 1158 1595 1545 1836 1286 1853 1444 1074 2227 2798 1462 1208 1147 1064 907 1444 1193 1145 1264 1337 1228 905 1273 1069 1294 1400 1460 981 1428 1373 1224 1242 1545 1576 1085 910 992 1003 1412 1688 2334 1402 2055 1290 1814 2168 1452 2463 1531 2289 2961 1305 851 1667 1009 1471 1448 1578 2264 1945 1540 932 2387 2156 1749 1668 2053 2346 2031 1884 2193 1785 2008 1521 2686 1454 1075 865 1298 1431 1222 1614 1553 2420 1725 2995 1675 923 1067 1143 1832 1462 1498 1606 1694 1778 1539 1469 1147 1386 1533 1995 2236 1986 1960 1298 1995 1650 1604 1439 1929 1556 1520 2149 1678 1668 1129 1627 1539 1468 1975 4382 1948 1691 1481 1145 1709 1391 1236 1083 1941 1922 1616 1468 1509 1176 1390 1382 1542 1315 1700 1399 1074 1242 1003 851 1383 1317 1078 1045 1224 917 1791 1747 1663 1351 1441 1689 2735 1293 1599 1079 1228 3056 1145

Tree=0
num_leaves=52
num_cat=0
split_feature=1 1 1 2 0 0 2 1 2 17 1 16 2 1 9 11 0 2 1 1 9 2 0 1 1 466 0 2 508 2 1 2 17 2 2 9 17 1 2 16 0 1 2 0 3 0 2 1 2 1 2
split_gain=20854 1445.59 889.277 391.634 325.224 275.281 208.532 170.651 151.395 249.842 137.122 127.957 112.533 99.1397 61.7242 59.6585 59.6166 49.8239 47.1805 45.2111 43.7908 87.6192 35.5631 35.2222 31.2207 29.881 52.1954 29.7913 27.4682 26.978 25.5218 24.8458 24.653 23.9834 23.7238 34.79 21.1952 17.8295 15.8887 10.7316 8.66316 8.24894 7.15058 6.96537 6.09317 6.06402 5.17454 4.98946 4.12938 3.25196 0.291336
threshold=4.9959944770855627 5.1759291929220641 4.8313628400548678 7.408227444727113 2.5564266076365922 1.0000000180025095e-35 7.4268466029029616 5.2920829919657217 7.2524081849530022 1.0000000180025095e-35 4.9144865712347068 1.0000000180025095e-35 7.8802372726319891 4.9259552721751554 1.0000000180025095e-35 1.0000000180025095e-35 7.882609606860842 8.0553164367884786 4.8063570445119543 5.1124387065275565 1.0000000180025095e-35 7.8730266149442336 1.3918720653661192 5.0534087684027602 5.1039849160777768 1.0000000180025095e-35 1.837014069290728 7.8401161716663745 1.0000000180025095e-35 7.536630533985341 4.7846680404426616 7.1102877930255497 1.0000000180025095e-35 7.576865848924859 7.6603498904385932 1.0000000180025095e-35 1.0000000180025095e-35 4.7900892153594752 7.6641119454010447 1.0000000180025095e-35 1.837014069290728 5.239372482586635 8.3989725536951418 0.86429506858956606 2.1383330595080281 8.2078741485697844 7.0854828791590796 4.7518184899700033 8.014501053882185 5.0965291370918306 6.7025742396217023
decision_type=2 2 2 2 2 2 2 2 2 2 2 2 2 2 2 2 2 2 2 2 2 2 2 2 2 2 2 2 2 2 2 2 2 2 2 2 2 2 2 2 2 2 2 2 2 2 2 2 2 2 2
left_child=2 4 8 10 12 -3 15 11 9 37 25 16 38 34 19 23 -7 -16 31 -8 29 -22 -12 -6 -17 26 -4 39 -29 -15 43 -11 -24 36 35 -5 -32 50 40 -9 -2 -13 -36 47 -20 -45 -39 -10 -14 -40 -1
right_child=1 5 3 13 6 7 14 27 30 18 22 41 48 20 17 24 -18 -19 44 -21 21 -23 32 -25 -26 -27 -28 28 -30 -31 33 -33 -34 -35 42 -37 -38 46 49 -41 -42 -43 -44 45 -46 -47 -48 -49 -50 -51 -52
leaf_value=139.43498916625975 148.90698699951173 139.99904098510743 146.36458969116211 143.13677902221679 146.30265197753906 149.2567153930664 144.21531219482421 155.60614013671875 143.04914703369141 143.76940460205077 148.41943817138673 141.40386886596679 145.39612350463867 144.47464904785156 146.27460327148438 143.41226196289062 149.648184967041 144.20417022705078 144.68892898559571 145.67298965454103 145.32302322387696 143.82747039794921 144.8905143737793 147.75253906250001 147.86864700317383 144.24305419921876 143.85474319458007 153.26906127929686 145.46198425292968 143.23899574279784 141.16259994506837 143.00758056640626 145.71311187744141 142.22453308105469 143.17874526977539 144.23592758178711 143.45740432739257 142.61070251464844 146.16031951904296 151.2052017211914 147.13008193969728 145.12921295166015 141.86019325256348 141.11691284179688 146.30184478759764 141.05372772216796 142.26094589233398 144.93332138061524 143.81952972412108 146.99978866577149 140.65240554809571
leaf_count=122 913 96 67 817 1034 2226 814 7775 50 1078 51 56 49 280 455 278 2549 82 227 293 649 384 337 1252 239 85 1955 3233 41 689 208 987 1329 1075 1754 549 629 268 117 147 221 83 49 6402 56 409 248 41 54 119 1788
internal_value=0 0.689958 -0.676039 -0.431684 0.266554 0.844502 0.1311 0.854624 -0.837651 -0.692501 -0.188285 0.697599 0.674134 -0.611294 -0.150852 0.297182 0.725236 0.124767 -0.458262 -0.28636 -0.434565 -0.287512 0.0203844 0.366579 -0.00580271 -0.359279 -0.333333 0.923365 0.838119 -0.589267 -0.916043 -0.510896 -0.00360144 -0.806485 -0.72231 -0.616398 -0.670251 -0.918384 0.750365 0.958344 0.802469 -0.23741 -0.801442 -0.946103 -0.0671378 -0.950374 -0.736434 -0.604396 -0.320388 0.491525 -0.966492
internal_count=44709 22126 22583 8995 5920 16206 4447 16110 13588 4774 3824 4914 1473 5171 1644 2803 4775 537 2348 1107 2002 1033 1717 2286 517 2107 2022 11196 3274 969 8814 2065 1666 1912 3169 1366 837 2426 1370 7922 1134 139 1803 6902 283 6811 516 91 103 236 1910
shrinkage=1


Tree=1
num_leaves=54
num_cat=0
split_feature=1 1 1 2 0 2 17 0 1 1 17 2 16 0 11 1 16 1 2 2 1 9 1 2 9 1 9 2 466 0 2 8 1 0 1 2 2 2 17 1 2 0 0 306 1 1 14 0 3 1 0 0 2
split_gain=19302 1280.84 1036.7 377.592 257.915 244.26 318.233 235.88 168.849 125.963 115.336 109.366 108.61 85.7226 69.1006 66.1864 64.3058 61.4156 55.0423 53.1116 48.1516 44.0672 43.1472 41.8605 40.7218 40.4793 34.8317 34.1111 32.048 29.3316 28.6126 24.5489 21.0405 20.2434 18.7185 18.3355 15.7342 12.9678 13.8707 12.5902 11.923 10.9381 10.4036 9.28123 8.11077 4.57082 9.94421 4.47961 4.16426 0.942222 0.75951 0.550957 0.526569
threshold=5.0066725050294663 5.2204836853639813 4.8805297136857009 7.545653950410574 1.837014069290728 7.2919966926741697 1.0000000180025095e-35 1.0000000180025095e-35 5.1394961702659332 5.4099858957428033 1.0000000180025095e-35 7.477321357758643 1.0000000180025095e-35 6.7437502630913899 1.0000000180025095e-35 4.7916831010267762 1.0000000180025095e-35 4.7846680404426616 7.7581198379213294 7.8052708347646744 4.7727882981483694 1.0000000180025095e-35 4.9259552721751554 7.1029107091503816 1.0000000180025095e-35 4.9799357762037051 1.0000000180025095e-35 7.5956385982862562 1.0000000180025095e-35 2.8565375825806449 7.8158121855971094 1.0000000180025095e-35 4.8359633840273881 1.3918720653661192 4.9886081197308458 7.9548988038803028 7.4220747473157358 7.4857721129469477 1.0000000180025095e-35 4.850755494195524 7.9968221406501296 2.5564266076365922 0.86429506858956606 1.0000000180025095e-35 4.9341961802018437 5.0471588451816096 1.0000000180025095e-35 1.3918720653661192 2.524928003624769 5.4671793810892249 0.86429506858956606 6.2258275760622821 6.7025742396217023
decision_type=2 2 2 2 2 2 2 2 2 2 2 2 2 2 2 2 2 2 2 2 2 2 2 2 2 2 2 2 2 2 2 2 2 2 2 2 2 2 2 2 2 2 2 2 2 2 2 2 2 2 2 2 2
left_child=2 4 5 10 18 6 20 49 11 13 28 14 27 30 -6 23 -15 37 45 21 52 43 -23 -8 -13 26 -12 -10 34 -17 -9 44 -22 39 -4 51 -35 38 -7 -19 47 -27 -37 -5 -21 46 -2 -20 -47 -3 -39 -11 -1
right_child=1 7 3 19 8 17 15 9 12 35 25 24 -14 16 -16 29 -18 33 40 31 32 22 -24 -25 -26 41 -28 -29 -30 -31 -32 -33 -34 36 -36 42 -38 50 -40 -41 -42 -43 -44 -45 -46 48 -48 -49 -50 -51 -52 -53 -54
leaf_value=-6.0007903289794911 1.5461131286621084 -6.1678240203857433 -1.0582678985595693 -1.8586720657348623 1.1152365112304694 -4.8744033813476566 -1.4904750061035146 4.1921247863769535 3.39932846069336 11.280819702148438 -0.3004783630371094 -0.93110519409179782 -3.7129256439208973 4.4647095489501964 -1.6547710418701174 1.1442432403564453 -0.43128601074218698 -1.0445068359375 1.4939869689941419 -2.0306354522705079 -2.9002950286865246 -1.2432167053222658 -0.088392105102539642 -2.3776814270019542 0.1564675903320307 2.5246130371093756 0.91261497497558541 1.0526960754394536 -1.0935131835937513 -1.1623343658447254 3.0879888916015634 -0.02209751129150277 -1.6695433807373037 -2.3007292938232413 -0.13014766693115262 9.0325756835937518 -2.6636173248291017 -1.8452375793457039 -2.9583106994628907 0.17927207946777346 -1.0007960510253895 1.0138516998291025 7.9067028808593767 -0.51364871978759652 -1.7245195007324214 3.2453211975097647 3.8747080993652334 0.87137649536132933 1.6315609359741203 -3.7776819610595709 -4.1075702667236333 10.015440368652344 -4.5534561920166032
leaf_count=113 149 50 878 764 1794 696 1013 2442 1547 3688 1902 695 98 3567 359 59 125 196 98 871 773 423 426 1318 474 48 294 426 85 1122 683 58 150 619 231 108 2590 56 1585 48 42 337 1774 45 500 804 85 54 113 40 4135 2395 1764
internal_value=0 0.682739 -0.632105 -0.305742 0.32057 -0.769908 -0.615019 0.846692 0.222325 0.856582 -0.0929801 0.0818784 0.446644 0.755318 0.215978 -0.41344 0.650054 -0.868212 0.713011 -0.565274 -0.867143 -0.44029 -0.276796 -0.511798 -0.163388 0.025184 -0.0264117 0.498226 -0.350084 -0.217612 0.87904 -0.708887 -0.672806 -0.757312 -0.302074 0.943001 -0.779371 -0.92707 -0.857957 -0.459016 0.206186 0.324675 0.848034 -0.609394 -0.735959 0.796699 0.632479 0.342105 0.836423 -0.755556 -0.964209 0.972053 -0.961641
internal_count=44709 21610 23099 6862 6738 16237 6312 14872 5393 14782 3775 3322 2071 6817 2153 3512 3692 9925 1345 3087 2800 1658 849 2331 1169 2581 2196 1973 1194 1181 3125 1429 923 3453 1109 7965 3209 6472 2281 244 194 385 1882 809 1371 1151 234 152 917 90 4191 6083 1877
shrinkage=0.1


Tree=2
num_leaves=55
num_cat=0
split_feature=1 1 1 2 0 2 17 0 1 2 0 1 2 1 11 1 2 1 9 2 16 1 2 466 9 1 0 273 2 0 1 2 2 10 2 785 1 2 2 0 16 1 1 410 0 1 0 0 2 2 2 2 1 1
split_gain=17472 1147.06 1099.1 358.201 229.558 216.653 327.07 214.474 163.718 156.703 99.3234 89.6005 87.5903 78.2274 72.5454 68.0559 64.9599 55.0583 54.3681 81.1303 47.0106 46.0213 45.9743 42.8215 33.1312 32.4545 31.9212 33.5206 30.6172 28.9775 28.1577 28.1445 24.7704 22.3895 22.3851 22.012 20.2818 18.2634 17.5246 16.417 14.9288 14.6328 12.8882 7.8951 7.0658 7.02056 6.8843 6.07183 4.95974 3.05042 2.8491 2.61921 2.24607 1.30889
threshold=5.0256195055983719 5.2204836853639813 4.8520100078060704 7.408227444727113 2.8565375825806449 7.2782837576331731 1.0000000180025095e-35 1.0000000180025095e-35 5.4099858957428033 7.4268466029029616 6.7437502630913899 4.9188205903793181 7.8330057325829623 4.9259552721751554 1.0000000180025095e-35 5.1588508827141348 7.3307327585315187 4.7457648675822561 1.0000000180025095e-35 7.8802372726319891 1.0000000180025095e-35 4.8063570445119543 7.8052708347646744 1.0000000180025095e-35 1.0000000180025095e-35 4.7727882981483694 1.3918720653661192 1.0000000180025095e-35 7.576865848924859 2.2200899629856092 5.1039849160777768 8.0062008731996297 7.1029107091503816 1.0000000180025095e-35 7.6603498904385932 1.0000000180025095e-35 4.8827726572537413 7.536630533985341 7.6780949285925493 2.8565375825806449 1.0000000180025095e-35 4.8359633840273881 5.094085798351335 1.0000000180025095e-35 1.837014069290728 4.7715931791699342 8.2078741485697844 7.5230748873996545 8.32760529132484 7.9000806799537164 7.3476217619459261 7.6556273312211056 4.6495066790653956 5.4671793810892249
decision_type=2 2 2 2 2 2 2 2 2 2 2 2 2 2 2 2 2 2 2 2 2 2 2 2 2 2 2 2 2 2 2 2 2 2 2 2 2 2 2 2 2 2 2 2 2 2 2 2 2 2 2 2 2 2
left_child=2 4 5 11 12 6 25 53 10 14 22 23 38 34 20 24 -12 46 37 -20 -6 32 -9 29 -11 52 -13 -28 35 -4 -16 40 -8 -17 36 -19 -5 -15 43 -23 -10 -27 -40 -2 49 -30 51 -33 -36 -14 -48 -7 -1 -3
right_child=1 7 3 13 9 17 21 8 31 15 16 26 44 18 30 33 -18 28 19 -21 -22 39 -24 -25 -26 41 27 -29 45 -31 -32 47 -34 -35 48 -37 -38 -39 42 -41 -42 -43 -44 -45 -46 -47 50 -49 -50 -51 -52 -53 -54 -55
leaf_value=-5.0105120773315441 2.7837407379150392 -5.5510416183471678 0.85425284957885739 -1.9544260025024416 2.0805753097534168 -3.5635891342163095 -1.3580214385986324 3.8006863555908215 9.6863040161132812 -0.9375200500488291 5.6929150314331061 2.5065007781982418 0.63127722930908314 -0.85502998352050674 -1.6813849258422864 2.2707035217285152 2.8495793838500987 -2.0890004806518534 0.023160213470458758 -1.198458377838135 -2.9961370544433592 0.99043907165527401 2.7583571014404313 -0.98416186523437554 0.20710653686523417 -2.5819118728637704 0.016795742034912565 1.9467538681030279 -3.0780517959594733 -0.95244110870361287 2.3732024536132799 7.1492799682617205 -2.0203072662353523 0.33869653320312526 -1.8203731918334967 0.066232799530030209 -0.89874084472656079 -1.8036699180603024 0.14729175758362062 -0.89096878814697367 6.3252670288085939 -0.53508797454833823 1.2831869049072282 0.93399983215331872 -0.70678942108154252 -2.5458792495727551 -1.8555005950927723 7.0231828613281273 -2.3335142517089849 -0.073845603942869792 -4.4370088577270508 -4.2132679367065435 -2.9937107009887711 -3.3999137649536126
leaf_count=1041 1212 50 43 372 2367 2964 1043 2408 6208 820 1678 51 43 344 275 199 2014 1996 745 439 55 45 717 85 397 746 1993 169 669 1376 280 1060 1242 280 1431 45 652 825 71 691 127 42 176 73 45 1776 51 570 56 65 181 1554 812 40
internal_value=0 0.663966 -0.587887 -0.302412 0.307958 -0.752182 -0.596962 0.81603 0.825463 0.193238 0.71043 -0.0680656 0.624926 -0.481086 0.331542 -0.0483491 0.597508 -0.84712 -0.348066 -0.194257 0.406276 -0.371069 0.8432 -0.256649 -0.175021 -0.854601 0.0591957 0.039778 -0.765047 -0.213531 0.0018018 0.923666 -0.441575 0.269311 -0.604938 -0.66977 -0.484375 -0.502139 0.697128 -0.149457 0.955485 -0.675127 0.433198 0.746304 -0.0849673 -0.843763 -0.924211 0.798773 -0.686617 0.037037 -0.715517 -0.934484 -0.929843 -0.711111
internal_count=44709 21230 23479 8581 6358 14898 5662 14872 14782 4673 6817 3717 1685 4864 2977 1696 3692 9236 2353 1184 2422 3021 3125 1504 1217 2641 2213 2162 4486 1419 555 7965 2285 479 2511 2041 1024 1169 1532 736 6335 788 247 1285 153 2445 4750 1630 1487 108 232 4518 1853 90
shrinkage=0.1


Tree=3
num_leaves=54
num_cat=0
split_feature=1 1 1 2 2 17 0 0 1 2 2 1 2 1 0 0 1 1 2 16 1 1 10 11 466 2 0 1 17 2 2 16 0 2 9 16 2 1 717 10 1 410 0 0 3 0 2 0 2 3 2 1 1
split_gain=15644.8 1118.3 1023.1 298.758 224.423 307.378 204.405 203.164 199.641 128.827 96.8102 85.6127 79.0907 74.9427 71.6579 69.6977 68.1359 67.6027 53.8634 51.0342 58.175 44.7119 43.9025 43.0328 42.928 39.2544 36.3194 35.8433 35.1789 34.8594 33.0446 32.5278 29.4759 29.2364 25.7784 23.0046 21.8121 20.6786 20.6183 18.8173 16.8618 15.6707 18.75 15.1326 10.4362 8.25407 6.72958 6.58867 5.36762 3.66859 2.64439 1.30889 0.234694
threshold=5.0256195055983719 5.2204836853639813 4.8520100078060704 7.4220747473157358 7.2782837576331731 1.0000000180025095e-35 1.0000000180025095e-35 2.8565375825806449 5.341252056663933 7.4027563059541679 7.7581198379213294 4.9144865712347068 7.8330057325829623 4.9341961802018437 7.9390081657608791 4.9832095538938388 5.1124387065275565 4.7296449820901794 7.8158121855971094 1.0000000180025095e-35 5.1588508827141348 4.6913486197998076 1.0000000180025095e-35 1.0000000180025095e-35 1.0000000180025095e-35 7.576865848924859 1.3918720653661192 4.7993545273980258 1.0000000180025095e-35 7.9307456133586776 6.7895344892530387 1.0000000180025095e-35 1.3918720653661192 7.8052708347646744 1.0000000180025095e-35 1.0000000180025095e-35 7.1029107091503816 5.4611595483283883 1.0000000180025095e-35 1.0000000180025095e-35 4.8359633840273881 1.0000000180025095e-35 1.3918720653661192 2.8565375825806449 2.3502401828962087 1.3918720653661192 7.477321357758643 1.837014069290728 8.32760529132484 2.6735537653587347 7.7581198379213294 5.4671793810892249 5.1526415290507801
decision_type=2 2 2 2 2 2 2 2 2 2 2 2 2 2 2 2 2 2 2 2 2 2 2 2 2 2 2 2 2 2 2 2 2 2 2 2 2 2 2 2 2 2 2 2 2 2 2 2 2 2 2 2 2
left_child=2 7 4 11 5 21 51 12 10 16 15 24 41 29 -12 -8 23 45 35 20 -11 -1 32 -9 38 28 -13 36 -19 34 -28 -18 -15 -24 -5 -10 -7 -20 -4 -27 -23 42 -2 -29 -43 50 -47 49 -31 -14 -6 -3 -21
right_child=1 6 3 13 17 27 8 9 18 19 14 26 47 22 -16 -17 31 25 37 52 -22 40 33 -25 -26 39 30 43 -30 48 -32 -33 -34 -35 -36 -37 -38 -39 -40 -41 -42 44 -44 -45 -46 46 -48 -49 -50 -51 -52 -53 -54
leaf_value=-4.277320740509035 3.0544823348999017 -4.9959374565124506 -0.95085681838989167 -1.7602998847961431 -0.65645845794677771 -1.1952661697387696 3.1069505752563487 0.92409557571411094 8.6384042053222654 -0.29106744384765765 2.0308599697113054 2.2558507003784172 0.64462117843627886 0.61966885108947745 0.069517990875243643 3.6511876075744625 3.2405330871582012 -2.8912896263122549 3.5722842166900635 -3.2800628295898435 1.2329151062011734 -2.3591249671936056 -1.0542883192062378 -1.3199596725463891 -0.88574567871093857 -1.7687798461914057 2.370637396621706 0.93077500915527489 -1.7022904045104981 -1.8287223014831568 -0.045982599067687605 -2.7829518386840819 -0.57152504692077599 -2.7995001270294182 -0.87546983909606979 5.2172398376464857 -1.8609591873168938 6.7110666717529313 1.1745283210754422 -2.9420241279602068 -0.48157917709350501 1.7809051773071276 1.1686029006957994 -0.78301418228149378 -0.11498944549560691 -3.406049686431885 -3.7413261108398448 -0.63611047897338868 -2.5621951637268086 -0.13956220169067421 -1.8749672660827628 -3.0599223884582503 -3.3859345565795906
leaf_count=1289 766 50 1372 891 97 1014 1620 1105 6075 1223 735 55 66 186 358 2818 1368 461 867 49 484 1310 769 346 85 925 202 46 2018 736 2047 42 855 161 1113 120 1203 2189 48 1864 42 41 682 758 43 1390 2423 45 61 42 58 40 56
internal_value=0 0.629581 -0.555007 -0.279571 -0.713519 -0.555634 0.77972 0.278075 0.788932 0.170126 0.637317 -0.0700971 0.576261 -0.446354 0.36688 0.70347 0.302342 -0.810091 0.879364 -0.0375276 0.00292912 -0.805377 -0.294774 0.148174 -0.255814 -0.733865 0.0503472 -0.336643 -0.638564 -0.552303 0.029791 0.459574 -0.150817 -0.453763 -0.479042 0.934463 -0.402797 0.767016 -0.212676 -0.817856 -0.673077 0.644909 0.66989 -0.151741 0.190476 -0.910786 -0.921322 -0.0980392 -0.734003 0.0185185 -0.63871 -0.711111 -0.714286
internal_count=44709 21230 23479 8581 14898 5662 14872 6358 14782 4673 5531 3809 1685 4772 1093 4438 2861 9236 9251 1812 1707 2641 1971 1451 1505 5268 2304 3021 2479 2801 2249 1410 1041 930 2004 6195 2217 3056 1420 2789 1352 1532 1448 804 84 3968 3813 153 797 108 155 90 105
shrinkage=0.1


Tree=4
num_leaves=55
num_cat=0
split_feature=1 1 1 2 2 17 1 0 0 1 16 2 1 16 2 2 0 1 1 2 1 0 2 0 10 2 11 2 466 0 2 2 9 1 0 17 1 0 2 0 2 0 2 0 2 10 2 2 2 1 1 2 1 0
split_gain=13938 1085.12 960.285 257.822 238.902 323.642 178.542 179.561 165.521 136.963 98.4802 93.5413 92.0009 78.0704 74.4639 66.7427 64.5191 63.9207 63.0482 54.8311 52.248 51.8761 49.8582 45.6226 43.8271 46.9605 39.2506 37.4121 35.29 42.0811 34.4245 33.1003 29.1582 23.2441 22.7796 22.5264 19.6366 19.3739 18.4533 16.9307 14.5614 13.9571 13.1288 10.2288 9.4406 6.66796 5.45082 5.3232 5.06211 4.02096 3.00144 2.49931 2.25337 0.644048
threshold=5.0256195055983719 5.2514692449626539 4.8520100078060704 7.545653950410574 7.3476217619459261 1.0000000180025095e-35 5.1526415290507801 2.8565375825806449 1.0000000180025095e-35 5.447067679463399 1.0000000180025095e-35 7.6964398604364357 4.9144865712347068 1.0000000180025095e-35 7.6780949285925493 7.4268466029029616 4.1975395964856359 4.7258628125714095 4.9259552721751554 7.1970609624654713 4.6913486197998076 7.994492269523886 7.7999581943401042 1.3918720653661192 1.0000000180025095e-35 7.8802372726319891 1.0000000180025095e-35 7.6355453738275001 1.0000000180025095e-35 1.837014069290728 7.576865848924859 6.7895344892530387 1.0000000180025095e-35 4.7679905697822482 4.0124941667989411 1.0000000180025095e-35 4.7900892153594752 3.8151391385171745 7.8730266149442336 1.3918720653661192 7.8052708347646744 1.837014069290728 7.1550058294051988 1.3918720653661192 7.9548988038803028 1.0000000180025095e-35 7.36232791083878 7.6603498904385932 7.3527615103795085 5.239372482586635 4.61023072586711 7.7050371988994604 5.5055262462719874 8.0490925442743961
decision_type=2 2 2 2 2 2 2 2 2 2 2 2 2 2 2 2 2 2 2 2 2 2 2 2 2 2 2 2 2 2 2 2 2 2 2 2 2 2 2 2 2 2 2 2 2 2 2 2 2 2 2 2 2 2
left_child=2 6 4 12 5 20 7 14 -3 13 11 16 28 22 39 26 -8 43 41 33 50 -13 -10 46 25 -20 -9 52 29 -4 35 -25 -17 -7 -29 -19 -21 -32 -16 -2 -26 44 -22 51 -5 -43 -14 -45 -15 53 -1 -6 -11 -12
right_child=1 8 3 18 17 19 10 15 9 27 49 21 23 48 38 32 -18 30 24 36 42 -23 -24 31 40 -27 -28 34 -30 -31 37 -33 -34 -35 -36 -37 -38 -39 -40 -41 -42 45 -44 47 -46 -47 -48 -49 -50 -51 -52 -53 -54 -55
leaf_value=-4.4197884879302975 2.4675209696960452 -3.2509691815948458 0.86830128890991043 -0.360369994258879 -0.50706796417236433 -1.5057537574768063 2.5176634461975116 0.85298118415832391 3.7886586663055426 5.2751802398681633 -4.2626141133117672 1.450298730125428 2.1635198722839335 1.792979122848513 0.29015674743652226 -0.8294251708984377 2.8054911424255367 -2.3404229456710839 -0.013734927787777452 -2.0530784480285633 -2.1034441233062764 -0.3030924688720717 2.8131161957168587 2.1335736569595354 -1.0886199820899947 -0.95698760669708216 -0.99613007415771626 6.1213670022583022 -0.79717111083984382 -0.96509669044494339 -1.533966185379029 -0.16674242422103874 0.21550262756347538 -0.57222850540161119 6.0065214761352541 -1.5496409767913804 -1.0376730900573705 -2.7221621480941778 -0.93093367019653217 0.98267985122680845 -2.5195501143264778 -1.3590135629653959 -2.3470708078765883 -3.0942961124420183 -0.90256256523132095 -2.3094424961090083 1.0075281284904491 -3.734417723846434 -1.284823715534209 -0.41125612407684287 -2.8487500510406494 -1.5240048641204851 12.885926928710939 -1.7075452177429213
leaf_count=995 588 77 46 131 79 1069 724 1331 4143 1082 40 621 47 40 171 726 2715 297 628 1067 1025 342 1405 202 561 475 394 1581 85 1818 888 2546 397 1220 1362 1639 383 1973 71 412 175 1204 526 2000 90 497 76 1171 79 42 494 72 2831 56
internal_value=0 0.598022 -0.520082 -0.253234 -0.673647 -0.53415 0.32445 0.172127 0.785238 0.794298 0.461233 0.487506 -0.0995851 0.677784 0.489533 0.0330056 0.56499 -0.789876 -0.449614 -0.336186 -0.776974 0.208723 0.695025 0.0135841 -0.314845 -0.185857 0.157101 0.890315 -0.267317 -0.237124 -0.713988 -0.0123726 -0.155833 -0.238095 0.800883 -0.606405 -0.489655 -0.786089 -0 0.61 -0.505435 -0.577523 -0.644101 -0.898856 -0.321267 -0.609641 0.609756 -0.91233 -0.109244 -0.362319 -0.914036 -0.602649 0.957066 -0.479167
internal_count=44709 21230 23479 8581 14898 6779 8630 4090 12600 12523 4540 4402 4820 5667 1242 2848 3439 8119 3761 3739 3040 963 5548 2871 1839 1103 1725 6856 1949 1864 4797 2748 1123 2289 2943 1936 1450 2861 242 1000 736 1922 1551 3322 221 1701 123 3171 119 138 1489 151 3913 96
shrinkage=0.1


Tree=5
num_leaves=54
num_cat=0
split_feature=1 1 1 2 1 2 17 0 2 0 16 1 1 2 2 0 17 10 2 1 0 0 1 2 2 11 1 1 0 2 9 0 16 2 16 0 9 2 9 1 0 2 1 0 10 1 6 2 10 2 4 1 2
split_gain=12443.3 1048.03 883.173 260.379 214.696 173.393 237.237 157.514 143.724 115.709 112.599 109.487 104.108 84.2801 78.0368 76.5206 68.4516 64.2755 64.1106 61.0844 57.887 53.5113 44.3798 40.8857 39.8435 38.4653 35.3937 35.3522 33.3057 28.529 27.3308 26.9475 26.9236 24.7649 24.3543 23.3297 23.077 22.1473 22.3287 20.6509 19.4638 21.7981 18.1401 13.4144 9.60883 9.28636 8.73371 7.49984 6.09125 8.95992 3.74738 5.08068 0.425513
threshold=5.0256195055983719 5.2920829919657217 4.8063570445119543 7.3673928161276931 5.1526415290507801 7.408227444727113 1.0000000180025095e-35 1.837014069290728 7.5809547892104554 1.0000000180025095e-35 1.0000000180025095e-35 4.9144865712347068 4.887811142953848 7.7683218397260116 7.7623833278391379 4.6927853807800481 1.0000000180025095e-35 1.0000000180025095e-35 7.4538514748950266 5.4611595483283883 1.3918720653661192 1.837014069290728 4.6495066790653956 7.6780949285925493 7.1970609624654713 1.0000000180025095e-35 4.981889574011003 5.4671793810892249 1.3918720653661192 7.2170764592029961 1.0000000180025095e-35 4.0124941667989411 1.0000000180025095e-35 7.6827128082063991 1.0000000180025095e-35 2.8565375825806449 1.0000000180025095e-35 7.6641119454010447 1.0000000180025095e-35 4.6781399637279257 1.3918720653661192 6.7895344892530387 4.892013436306959 7.4592617331520854 1.0000000180025095e-35 5.0965291370918306 1.0000000180025095e-35 7.7683218397260116 1.0000000180025095e-35 7.5582558507882256 1.0000000180025095e-35 5.239372482586635 6.5316038380977854
decision_type=2 2 2 2 2 2 2 2 2 2 2 2 2 2 2 2 2 2 2 2 2 2 2 2 2 2 2 2 2 2 2 2 2 2 2 2 2 2 2 2 2 2 2 2 2 2 2 2 2 2 2 2 2
left_child=2 4 5 11 7 6 22 23 27 -10 14 16 21 20 15 -6 42 -16 25 34 -14 33 52 36 46 -9 -15 32 48 -24 -20 -21 43 -5 -11 -18 -2 38 -30 -26 -13 -42 -4 -3 -39 -25 -8 -23 -7 -50 51 -12 -1
right_child=1 8 3 12 10 28 24 18 9 19 50 40 13 26 17 -17 35 -19 30 31 -22 47 29 45 39 -27 -28 -29 37 -31 -32 -33 -34 -35 -36 -37 -38 44 -40 -41 41 -43 -44 -45 -46 -47 -48 -49 49 -51 -52 -53 -54
leaf_value=-4.4472419511489845 2.1712563910369882 3.8004388239212035 -1.4796488239746084 0.20117777189636288 2.3277884430542017 -0.65196944210052554 -1.2867166228790268 0.79366471949768147 -2.916547848609925 2.5049257456130989 -2.141767381393433 1.7911147234344469 0.55086714387130797 -1.4138282623138438 1.6500348090324395 2.5697286256256122 0.8161606694488569 -0.83293091238975459 -0.573930163574218 5.7217214575805677 -0.64769038507366195 -1.56727909838867 -2.054251087318423 -0.24246949298858456 -2.8896905673599265 -0.96467121102905373 -0.25988242566299252 10.182864326171874 -2.5613812400436404 -2.5594696384334563 0.22300052154540995 5.4387297283935538 0.54679240364837656 -0.59364539119720516 -0.96614968906974641 -0.6952281880874609 0.81382524266052203 -2.0539454644012438 -1.0756470634078981 -1.4479670666580191 1.920216291263583 0.053741563989640896 -0.52554579978179849 5.6004890253372199 -3.3644454186248769 0.42320678142547624 -0.69698882301330523 -1.845363133182528 -0.45802988356780933 -1.1001894184494021 -3.1932176311798091 0.48638988616561962 -3.804833393257141
leaf_count=41 650 1346 698 131 1237 58 1264 1548 70 2364 79 50 227 1363 628 3576 80 253 747 1615 2373 1533 1040 111 461 403 189 3217 2779 447 398 1444 56 275 41 1584 154 514 158 1191 202 1820 286 1114 1719 79 442 959 105 259 48 52 1231
internal_value=0 0.56976 -0.48669 -0.292948 0.333133 -0.681271 -0.563838 0.156479 0.778823 0.66245 0.455815 -0.110593 -0.414752 -0.312139 0.480506 0.530854 -0.245468 0.203178 0.0445736 0.67899 -0.200769 -0.561077 -0.781805 0.503018 -0.384157 0.155305 -0.497423 0.890808 -0.809371 -0.659718 -0.142358 0.774436 0.797297 -0.216749 0.556757 -0.120192 0.60199 -0.832108 -0.770514 -0.496368 0.0608108 0.0445104 -0.455285 0.813008 -0.912226 0.0736842 -0.274326 -0.616372 -0.526066 -0.576923 -0.318436 -0.206107 -0.922956
internal_count=44709 21230 23479 11770 9963 11709 6117 4090 11267 5534 5873 4720 7050 4152 5694 4813 2648 881 3096 5464 2600 2898 2759 994 3358 1951 1552 5733 5592 1487 1145 3059 2516 406 2405 1664 804 5170 2937 1652 2072 2022 984 2460 2233 190 1706 2492 422 364 179 131 1272
shrinkage=0.1


Tree=6
num_leaves=54
num_cat=0
split_feature=1 1 1 2 1 1 0 17 0 1 2 17 2 16 16 2 2 2 2 2 0 0 10 9 16 1 1 2 695 1 2 1 2 10 9 713 10 0 14 2 2 10 0 1 0 1 2 1 0 0 1 0 0
split_gain=10941.7 1254.15 635.586 248.738 218.283 185.983 161.91 128.499 114.152 111.944 101.08 143.508 80.8514 76.8997 75.9924 71.0623 67.749 63.1315 59.7823 59.0402 57.5078 55.8097 52.4688 50.7445 49.4552 45.4069 41.6972 35.4164 32.7459 31.4624 30.3794 26.4142 24.5477 18.5988 18.0818 17.9416 17.1225 15.5808 13.7996 10.8989 9.31805 8.99108 8.48826 9.6882 7.28162 6.52775 5.58329 4.42571 3.65605 6.49278 1.48519 1.39971 0.469965
threshold=4.9799357762037051 5.2514692449626539 4.7679905697822482 7.3476217619459261 5.5156486421783884 5.1394961702659332 1.3918720653661192 1.0000000180025095e-35 1.0000000180025095e-35 4.852217512042948 7.6021516477704933 1.0000000180025095e-35 7.9548988038803028 1.0000000180025095e-35 1.0000000180025095e-35 7.9548988038803028 7.6964398604364357 7.1902991025390088 7.576865848924859 7.7330265884759095 3.8151391385171745 3.8151391385171745 1.0000000180025095e-35 1.0000000180025095e-35 1.0000000180025095e-35 4.8641835361783583 4.892013436306959 7.8603779215054157 1.0000000180025095e-35 4.6781399637279257 7.7242256511548026 4.5625294889952182 7.2170764592029961 1.0000000180025095e-35 1.0000000180025095e-35 1.0000000180025095e-35 1.0000000180025095e-35 1.837014069290728 1.0000000180025095e-35 6.7458242390288694 7.2960741707616021 1.0000000180025095e-35 1.3918720653661192 4.7437759683901328 8.0490925442743961 4.6913486197998076 7.7189076680526005 5.239372482586635 0.86429506858956606 8.2592160389793801 4.6534253541803485 4.5365361473354211 7.9390081657608791
decision_type=2 2 2 2 2 2 2 2 2 2 2 2 2 2 2 2 2 2 2 2 2 2 2 2 2 2 2 2 2 2 2 2 2 2 2 2 2 2 2 2 2 2 2 2 2 2 2 2 2 2 2 2 2
left_child=2 5 10 7 8 6 19 26 -3 21 11 31 24 16 18 23 20 44 -10 28 -7 30 -18 -11 -8 37 38 51 -2 -19 -5 -1 -33 -23 -27 -17 -14 -9 -4 -28 -16 -21 43 45 -13 -12 50 52 -29 -50 -44 -6 -15
right_child=1 4 3 9 27 13 12 25 14 15 42 17 36 47 40 35 22 29 -20 41 -22 33 -24 -25 -26 34 39 48 -30 -31 -32 32 -34 -35 -36 -37 -38 -39 -40 -41 -42 -43 46 -45 -46 -47 -48 -49 49 -51 -52 -53 -54
leaf_value=-4.1115026527824403 2.1484054511604285 -3.3139212314735418 -2.6812066700618775 -0.28343591693916181 10.822607832788087 2.0506902744842535 0.30580274819030678 0.81330429183502417 3.8157155624931338 -1.1667729156018254 -1.3433182735404985 -1.2695046277664177 -0.67582846127319274 -3.5170309388626095 2.6405945922924063 -1.4859942487922639 1.3371014157089249 -2.5775122517051714 2.5634531768501292 1.6277700195961018 2.2297960846801774 -1.2267278365638761 -0.7162174914268491 -0.38196246808609974 -2.9555017573852993 0.11243329496689114 0.78387142057724191 4.2887684162841797 -0.40766810670928921 -1.4018133991661088 -1.185176792951586 -2.1128865750831625 -2.6058130767831802 -2.35867008324814 2.3149082629983924 -0.10591662988052378 -2.045106578039932 -0.80173621425323349 -1.2344717817031894 -0.63991932038955501 -0.70088350763235074 -0.35287105019683623 -3.3100477272453306 -1.4320294305381793 -0.63856435394134514 -0.3733650454292331 -2.8517257858390792 -0.41876950028571969 6.0927128132568358 6.6533056025085449 -2.0928386102275831 8.0210877060852059 -1.3424839758346536
leaf_count=915 618 54 333 407 2192 726 4109 78 3860 1692 49 845 202 40 43 895 687 916 4120 47 2835 556 294 1841 89 1550 41 76 46 2018 379 1014 672 1942 79 57 82 2000 848 453 139 78 214 85 211 84 1396 42 596 430 581 1090 63
internal_value=0 0.505541 -0.483906 -0.343472 0.715238 0.240008 0.110605 -0.177629 0.618306 -0.458103 -0.688889 -0.623729 0.0365908 0.385108 0.628032 -0.354292 0.40819 -0.503258 0.642607 0.528517 0.47262 -0.599269 0.172273 -0.287857 0.071939 -0.0731049 -0.407761 0.896442 0.64759 -0.579414 -0.361323 -0.807766 -0.728351 -0.673339 0.0509515 -0.598739 -0.478873 -0.171319 -0.510584 -0.157895 -0 -0.088 -0.866335 -0.642202 -0.289773 -0.443609 -0.887723 -0.324138 0.733212 0.752437 -0.801258 0.95064 -0.436893
internal_count=44709 22558 22151 13151 12600 9958 5271 5382 8216 7769 9000 6591 4482 4687 8162 4485 4542 3990 7980 789 3561 3284 981 3533 4198 3707 1675 4384 664 2934 786 2601 1686 2498 1629 952 284 2078 1181 494 182 125 2409 218 1056 133 2191 145 1102 1026 795 3282 103
shrinkage=0.1


Tree=7
num_leaves=54
num_cat=0
split_feature=1 1 1 2 0 2 1 1 1 2 1 0 0 17 2 2 0 17 2 0 16 14 2 2 1 759 2 2 0 2 17 2 306 2 10 8 2 16 2 0 2 1 1 0 0 8 2 2 2 0 0 0 2
split_gain=9591.04 1002.34 720.696 211.373 209.833 183.341 206.276 180.873 170.435 122.332 112.445 106.57 92.6695 77.1346 78.061 71.0214 61.3484 54.8164 52.8107 48.9953 45.0728 43.2448 43.0052 40.4335 37.2291 36.7719 35.8989 33.572 30.8985 34.5241 30.2203 29.6561 32.085 28.806 25.4793 23.5411 19.9296 17.0557 14.7275 14.1714 10.1272 8.13268 8.12698 5.14734 3.60188 6.90309 4.23263 3.42302 3.2444 2.63699 1.73178 0.912523 0.758678
threshold=5.0066725050294663 5.2946094072085268 4.8063570445119543 7.6442013552795478 1.837014069290728 7.576865848924859 4.589193588319108 5.1526415290507801 5.5248080788510388 7.5644977440381114 4.9144865712347068 1.0000000180025095e-35 1.0000000180025095e-35 1.0000000180025095e-35 7.408227444727113 7.6964398604364357 1.3918720653661192 1.0000000180025095e-35 7.6398827302766898 7.994492269523886 1.0000000180025095e-35 1.0000000180025095e-35 7.9467944604690333 7.7290757490815132 5.1662590037245373 1.0000000180025095e-35 7.3001350905129803 7.3372623286231073 1.3918720653661192 7.258059913877676 1.0000000180025095e-35 8.0441449191060972 1.0000000180025095e-35 7.749106900957945 1.0000000180025095e-35 1.0000000180025095e-35 7.7999581943401042 1.0000000180025095e-35 7.8657635858091473 3.8151391385171745 7.7534089082220445 4.7727882981483694 4.9586185119581536 6.822641882769771 6.130883941134015 1.0000000180025095e-35 8.1251870920410187 6.5715827525167967 7.8937586058704321 1.3918720653661192 4.5365361473354211 8.2078741485697844 7.6827128082063991
decision_type=2 2 2 2 2 2 2 2 2 2 2 2 2 2 2 2 2 2 2 2 2 2 2 2 2 2 2 2 2 2 2 2 2 2 2 2 2 2 2 2 2 2 2 2 2 2 2 2 2 2 2 2 2
left_child=2 4 5 10 12 6 47 22 11 20 17 -3 -2 26 -15 24 33 21 37 -11 -9 -4 25 50 -14 -6 -8 -19 42 -30 -20 32 -18 52 36 -33 39 -13 -17 -7 49 -38 -12 -24 46 -46 -25 -1 -35 -36 -10 -42 -5
right_child=1 8 3 16 7 34 13 9 23 19 28 18 15 14 -16 38 31 27 30 -21 -22 -23 43 44 -26 -27 -28 -29 29 -31 -32 35 -34 48 40 -37 41 -39 -40 -41 51 -43 -44 -45 45 -47 -48 -49 -50 -51 -52 -53 -54
leaf_value=-4.3722006256253794 -7.9473345700275422 -3.0214947150156406 -3.024076639599345 0.51386938242877989 0.29315807190338034 -0.13962460085685749 -1.7917449191906769 2.4735140775698485 11.444655443405759 0.76479810413703719 0.29529733023053384 3.5526371670180512 1.5786107824057041 -1.1263714940998093 -1.506684844947435 1.107287406322405 -1.1079662718166419 -0.3964656055136857 0.81805510039512797 -0.34684319793830698 -1.23451340711014 -0.82713935129745553 -0.45838141836852914 4.7845920446264643 2.3458755049788693 -1.7282297114645389 -2.494388273897076 -0.78114011593295629 0.30797099088972291 -0.36305715037791941 2.960470569247363 -1.9180883032966989 0.21133296395872492 -0.23985582281495682 -0.76026765764253668 -0.66772897994941616 -2.0059737588504789 2.0334120543515937 0.22425394586174152 -1.151003352123452 -2.8268473869235979 -1.0560804023902166 2.3369130874446911 -1.7289502660247793 5.7995758480133084 8.7890294245819103 6.0082195592749033 -3.3140272205503081 -0.63412195642341662 -2.3215898515147191 7.7451503210662827 -3.3166318407924651 0.29402441404188551
leaf_count=56 47 47 268 53 3149 79 1560 3459 1949 823 126 3114 884 3263 1775 496 2575 1568 281 810 114 1275 168 558 808 55 545 1317 1381 1585 2866 675 112 124 155 80 304 87 183 200 1162 66 42 70 438 68 212 1102 125 1355 924 87 84
internal_value=0 0.493012 -0.433828 -0.254434 0.282487 -0.608165 -0.527286 0.209297 0.713771 0.32693 -0.157101 0.610321 0.543424 -0.463251 -0.394998 0.571489 -0.446186 -0.259711 0.621613 0.0985915 0.43073 -0.412832 0.030796 0.87274 0.682033 0.0617978 -0.625653 -0.177123 -0.0114869 -0.0357384 0.527169 -0.488669 -0.437291 -0.0621762 -0.804577 -0.668874 -0.614792 0.713839 0.293078 -0.397849 -0.848496 -0.772973 0.404762 -0.378151 0.717868 0.628458 0.774026 -0.920553 -0.269076 -0.784106 0.940828 -0.92474 0.29927
internal_count=44709 21610 23099 11390 11066 11709 8301 8648 10544 5206 7562 6395 2418 7143 5038 2371 3828 4428 6348 1633 3573 1543 3442 4149 1692 3204 2105 2885 3134 2966 3147 3442 2687 386 3408 755 649 3201 679 279 2759 370 168 238 1276 506 770 1158 249 1510 2873 1249 137
shrinkage=0.1


Tree=8
num_leaves=53
num_cat=0
split_feature=1 1 1 2 1 1 0 1 2 2 0 17 0 10 2 2 1 1 2 2 0 16 410 3 2 2 0 2 2 2 0 87 2 9 1 2 16 0 1 8 0 2 1 2 3 2 9 0 0 8 1 1
split_gain=8232.48 879.035 683.625 207.202 237.966 180.318 177.862 167.403 140.675 108.55 106.28 99.3318 93.7031 86.2647 76.001 72.274 64.261 60.034 52.2459 47.1698 47.0704 46.9632 45.6604 43.9841 39.9941 39.8625 39.2724 38.5561 35.05 34.0199 33.8266 33.0912 27.035 25.9983 27.656 24.512 21.5795 16.7946 14.7025 13.0657 11.8178 4.87858 4.65651 3.92169 3.9157 3.59045 2.35361 1.90354 1.39069 1.3091 1.11548 1.05878
threshold=5.0256195055983719 5.2946094072085268 4.8213639631587046 7.576865848924859 4.589193588319108 5.5711909119459513 1.3918720653661192 5.1851984178656076 7.509061218325435 7.5890828507392163 1.0000000180025095e-35 1.0000000180025095e-35 1.0000000180025095e-35 1.0000000180025095e-35 7.408227444727113 8.0553164367884786 4.9500321019750766 4.8911427204068181 7.6398827302766898 7.7099810294433491 3.8151391385171745 1.0000000180025095e-35 1.0000000180025095e-35 2.3502401828962087 7.4503701830095199 7.3148856110385276 1.3918720653661192 7.5727601205364659 7.7999581943401042 6.8040598888354813 1.3918720653661192 1.0000000180025095e-35 7.8158121855971094 1.0000000180025095e-35 4.8063570445119543 7.0496886807624488 1.0000000180025095e-35 0.86429506858956606 5.2619326249408163 1.0000000180025095e-35 3.8151391385171745 7.5956385982862562 4.7336427370471554 7.8052708347646744 2.1383330595080281 6.6444403513266588 1.0000000180025095e-35 8.0490925442743961 5.6088347100423794 1.0000000180025095e-35 4.5430148273617492 4.9500321019750766
decision_type=2 2 2 2 2 2 2 2 2 2 2 2 2 2 2 2 2 2 2 2 2 2 2 2 2 2 2 2 2 2 2 2 2 2 2 2 2 2 2 2 2 2 2 2 2 2 2 2 2 2 2 2
left_child=2 6 3 4 45 10 12 21 17 31 -3 25 -2 15 -13 16 -10 35 36 22 -20 24 -14 -11 -8 -6 51 48 33 -28 43 -9 -32 34 -5 44 -12 -37 -21 -17 -35 -29 -30 -15 -4 -1 -44 -23 -7 -43 -47 -19
right_child=1 5 8 28 11 27 7 9 13 23 18 14 19 30 -16 39 -18 26 20 38 -22 47 -24 -25 -26 -27 29 41 42 -31 32 -33 -34 40 -36 37 -38 -39 -40 -41 -42 49 46 -45 -46 50 -48 -49 -50 -51 -52 -53
leaf_value=-4.0493840157177194 -7.1526011130247866 -2.719345243514077 -0.49725636754614588 -1.9566379160772429 -1.5290556583217936 13.201184772112057 0.71138346344351078 2.3179537776431958 -0.43410049341619017 -0.34712010836003487 3.2824402748096562 -0.90336051608745582 2.2532560633911318 0.032138694304347841 -1.2802427830311203 -1.2882154742344456 0.51553909422840438 0.95499475814986001 3.0331393606618606 0.78209595544754795 2.1376259859600171 -2.5161111868717287 -0.052708055047591532 0.77987503599267149 -0.081681661875191491 -2.3259993027036017 1.5542363242684787 1.2031607852956512 -2.6291158651668916 -0.17796799476055869 -1.2395433799981774 -0.99498489847139815 -2.588241535886759 -0.12566214077117197 -0.88481114770141722 0.24642846566822812 1.8796857910106042 -0.96636223547020428 1.4292580848681724 -0.70848063060369104 -0.99325842572582423 5.785353421218506 -2.3220950230519479 -0.40894977855257086 0.78453425606587079 -3.4456420716335545 -1.4358637329972881 -1.845959094261562 8.6109551131784041 8.415393136356812 -2.2732658362179055 1.7833730547858835
leaf_count=63 47 55 500 1864 1988 1631 2700 3083 2084 507 3551 3623 1028 111 1951 559 308 67 1897 274 1828 64 71 1196 1501 566 266 42 669 3113 1275 58 309 81 285 62 96 1355 94 84 218 824 578 43 40 766 282 63 483 137 329 40
internal_value=0 0.468017 -0.391286 -0.541129 -0.458755 0.672989 0.265581 0.212822 -0.196554 0.340628 0.587451 -0.397884 0.583884 -0.32202 -0.32221 -0.21911 -0.13796 -0.0861657 0.597938 0.629175 0.512483 0.0693161 0.734304 0.135643 0.0878362 -0.562255 -0.00688468 0.876163 -0.732965 -0.0263392 -0.500575 0.45113 -0.544192 -0.655229 -0.694742 -0.226367 0.684672 -0.295695 0.309783 -0.517885 -0.364548 0.706879 -0.856115 -0.038961 -0.0407407 -0.884283 -0.790698 -0.527559 0.955535 0.723205 -0.90137 0.588785
internal_count=44709 21230 23479 13263 9286 10544 10686 9172 10216 4844 7427 8128 1514 4773 5574 3035 2392 5443 7372 1467 3725 4328 1099 1703 4201 2554 3486 3117 3977 3379 1738 3141 1584 2448 2149 1957 3647 1417 368 643 299 1003 1529 154 540 1158 860 127 2114 961 1095 107
shrinkage=0.1


Tree=9
num_leaves=52
num_cat=0
split_feature=1 1 1 2 1 1 1 10 0 2 0 1 2 0 0 17 2 2 1 3 0 16 2 17 2 2 0 519 2 9 2 9 17 1 9 0 31 9 3 1 2 0 3 1 17 2 1 2 0 1 0
split_gain=7107.76 767.5 650.077 246.379 182.613 151.861 142.481 137.089 110.937 107.92 104.718 90.2568 109.623 83.7566 63.4911 71.8072 63.0021 59.2016 63.6303 49.5315 46.0498 41.2847 41.0593 39.5018 36.2071 34.0069 45.8043 32.8539 32.6779 34.8266 29.6885 28.9409 27.1155 21.102 20.5965 20.0788 17.5375 17.2153 15.3203 14.3437 14.2785 13.2308 8.56081 8.37158 7.45535 4.02722 2.05896 5.30922 2.04069 1.44012 0.270931
threshold=5.0268630436996053 5.341252056663933 4.741046130014289 7.576865848924859 5.6609451655512029 5.1851984178656076 4.8911427204068181 1.0000000180025095e-35 1.3918720653661192 7.6106052043540453 1.0000000180025095e-35 4.589193588319108 7.3935706924357971 1.837014069290728 0.86429506858956606 1.0000000180025095e-35 7.7581198379213294 8.0663645292381307 4.9500321019750766 2.3502401828962087 1.3918720653661192 1.0000000180025095e-35 7.311552274248398 1.0000000180025095e-35 6.7458242390288694 7.773384073921366 3.8151391385171745 1.0000000180025095e-35 7.4327795784078505 1.0000000180025095e-35 7.6827128082063991 1.0000000180025095e-35 1.0000000180025095e-35 4.9341961802018437 1.0000000180025095e-35 1.3918720653661192 1.0000000180025095e-35 1.0000000180025095e-35 2.1383330595080281 5.1662590037245373 7.8158121855971094 1.3918720653661192 1.8688348091416842 4.7679905697822482 1.0000000180025095e-35 6.5715827525167967 4.4161484696049458 7.2524081849530022 8.0490925442743961 5.3344405393942473 4.6927853807800481
decision_type=2 2 2 2 2 2 2 2 2 2 2 2 2 2 2 2 2 2 2 2 2 2 2 2 2 2 2 2 2 2 2 2 2 2 2 2 2 2 2 2 2 2 2 2 2 2 2 2 2 2 2
left_child=2 5 11 6 10 8 14 17 28 13 -3 45 32 49 43 -16 33 18 -5 31 40 27 -15 24 -8 36 -27 -10 29 -2 -22 -11 42 -9 -25 -21 -12 -19 -34 -30 -14 -18 -13 -4 -6 -1 -47 -48 -23 -7 -46
right_child=1 4 3 7 44 9 23 16 21 19 25 12 20 22 15 -17 41 37 -20 35 30 48 -24 34 -26 26 -28 -29 39 -31 -32 -33 38 -35 -36 -37 -38 -39 -40 -41 -42 -43 -44 -45 50 46 47 -49 -50 -51 -52
leaf_value=-3.5300421614910693 2.3142341679895195 -2.4474107191626704 1.2382622190948582 -0.49943084325465181 13.434539195291478 2.2833695216388805 1.7798887416463174 -1.1596940202666504 0.34728213502549043 -0.73832104228283701 3.2149578978883753 -1.5192248872283842 0.022647576572344976 3.1379678774508051 -1.1948569976698977 -0.65346012215356675 -0.51059661345913698 -0.58634042914876194 0.4932455516697587 1.2863322763813558 -1.6989394326363341 -2.2645000681845544 1.0460056389636379 0.046831908363887467 -0.58446815291403309 3.3214628746512149 2.4317937157346821 -1.3548284107864477 0.59165171778304282 0.41451217520081801 -2.208882439888376 1.4604714595523065 -1.3758437362672311 -0.51883540662300331 0.77969572143511101 0.75319357646649943 2.5938220454320233 -1.221122737785902 -0.37848334014906726 2.218086675098732 -0.94451483376942569 -2.082696558520722 -1.6810607484344389 0.28315925807832798 3.7599379081150603 -4.5987890717455882 -2.0758802631518392 -2.4984515737051214 -1.6613631848354062 2.2866707651509559 8.5999093022316782
leaf_count=56 306 59 40 2252 1692 505 72 1338 3815 420 4009 107 116 2192 1754 4504 98 103 271 486 1853 64 1489 2459 1267 1592 1519 44 392 79 1158 103 1261 411 367 1509 226 575 343 45 57 1141 934 84 46 372 396 432 63 58 175
internal_value=0 0.441115 -0.358045 -0.250359 0.654862 0.268799 -0.157106 -0.408951 0.13228 0.365572 0.582984 -0.612138 -0.558758 0.463242 -0.251018 -0.26526 -0.563588 -0.26398 -0.192231 0.200159 -0.684673 0.0627195 0.407226 -0.0127251 -0.154593 0.593793 0.511411 0.0816274 0.467153 0.683117 -0.713716 -0.0707457 -0.406427 -0.438536 0.0537863 0.27218 0.653837 -0.528024 -0.321696 0.272311 -0.16763 -0.738499 -0.535062 0.451613 0.932044 -0.85828 -0.873333 -0.826087 -0.496063 0.825933 0.719457
internal_count=44709 20888 23821 16736 9318 11570 10547 6189 4808 6762 7405 7085 5829 4244 6382 6258 2988 3201 2523 2518 3184 3986 3681 4165 1339 7346 3111 3859 822 385 3011 523 2645 1749 2826 1995 4235 678 1604 437 173 1239 1041 124 1913 1256 1200 828 127 563 221
shrinkage=0.1


Tree=10
num_leaves=54
num_cat=0
split_feature=1 1 1 1 2 0 1 10 1 2 2 2 17 9 2 2 10 0 1 0 2 10 2 695 410 17 2 0 16 0 87 2 1 17 1 9 16 2 1 3 8 2 2 1 2 2 2 1 1 8 2 1 1
split_gain=6076.18 845.479 476.651 229.255 202.506 137.75 131.307 105.173 94.7359 115.789 91.7456 86.124 71.3835 73.2549 76.0089 70.0116 61.0546 59.3674 58.4385 58.1584 52.091 53.8168 51.2252 50.3074 41.6408 40.2895 39.5559 36.2884 34.0249 32.1789 29.3896 28.1182 25.5935 22.8876 21.7961 17.4054 17.4048 17.4045 15.5342 12.471 12.4115 11.924 10.7989 9.47682 8.73889 7.92402 6.72967 5.60352 4.31294 3.55816 2.36622 7.43374 1.89175
threshold=4.9799357762037051 5.2920829919657217 4.7336427370471554 5.5366247338655503 7.576865848924859 1.3918720653661192 5.1851984178656076 1.0000000180025095e-35 4.5625294889952182 7.3935706924357971 7.6780949285925493 7.6398827302766898 1.0000000180025095e-35 1.0000000180025095e-35 7.1970609624654713 7.536630533985341 1.0000000180025095e-35 1.837014069290728 5.7981123411994036 1.0000000180025095e-35 7.4503701830095199 1.0000000180025095e-35 7.8463943953943067 1.0000000180025095e-35 1.0000000180025095e-35 1.0000000180025095e-35 8.0663645292381307 1.3918720653661192 1.0000000180025095e-35 1.837014069290728 1.0000000180025095e-35 7.8266426168071543 4.8213639631587046 1.0000000180025095e-35 4.7993545273980258 1.0000000180025095e-35 1.0000000180025095e-35 7.5498722538214809 5.2479844436493064 2.1383330595080281 1.0000000180025095e-35 7.8657635858091473 7.1857656600513717 4.8900484224945826 7.7780020504256626 6.7025742396217023 7.4220747473157358 5.7933571987666843 5.4510809983116717 1.0000000180025095e-35 7.2810414294775123 4.5430148273617492 4.8753113542099777
decision_type=2 2 2 2 2 2 2 2 2 2 2 2 2 2 2 2 2 2 2 2 2 2 2 2 2 2 2 2 2 2 2 2 2 2 2 2 2 2 2 2 2 2 2 2 2 2 2 2 2 2 2 2 2
left_child=2 5 8 11 12 10 20 26 50 33 23 36 17 14 -14 30 -17 43 37 -13 25 -22 34 24 -2 -7 32 44 -19 -21 -8 -29 -6 45 -9 41 42 47 -37 -35 -28 -12 -3 -4 -11 -10 -15 -5 -38 -39 51 -1 -24
right_child=1 3 4 18 7 6 15 22 9 27 35 19 13 46 -16 16 -18 28 -20 29 21 -23 52 -25 -26 -27 40 31 -30 -31 -32 -33 -34 39 -36 38 48 49 -40 -41 -42 -43 -44 -45 -46 -47 -48 -49 -50 -51 -52 -53 -54
leaf_value=-2.799968719990952 1.8570054816039971 3.164328368820172 0.30114287491653474 4.464676584908676 -0.84371995792331667 -0.054082708852357088 2.0096922509900152 -1.3047191273628571 -0.36465829450163628 0.0089538137305737574 0.08154053002341044 -2.142824942427676 -0.074043659059296371 2.0721443799547012 -0.67988733659449851 0.99535458558051892 -0.44624019169460927 -0.8612150165267991 17.006014474981079 2.1733562082849534 0.31452405881542234 -0.49295066226580392 -2.3219531985738797 -0.98151139741699467 -0.088888467062915311 1.0089828522381539 -1.1518889288247409 -1.6556790953297309 -3.9682213473740804 1.4554194568828991 -1.2092831963693413 -2.2031557101817656 -0.3397762252886537 -1.3187847551586289 -0.87730249112530601 1.6765569141795567 -0.46577000244757305 3.7351390514180056 -0.37632413226819494 -0.30622516834962143 -0.49455387725696198 -0.93071991777135288 2.0593120385266985 -0.067174495050966246 -0.83752908025792439 -1.533549835819386 0.38705452251309613 7.2748245666087605 2.8136009280189884 6.5291071025226817 -2.7824325928171976 -1.2167919274799504 -2.0019637271861401
leaf_count=568 874 1593 112 1211 437 1286 2613 808 45 104 139 49 2759 137 3622 925 711 2320 1088 1061 859 1206 504 46 71 2219 570 2366 180 2440 58 497 1990 1215 1221 180 47 1483 44 335 83 60 2043 103 40 1103 297 77 43 132 447 107 181
internal_value=0 0.3792 -0.358133 0.57309 -0.259984 0.185546 0.143465 -0.407663 -0.578146 -0.524978 0.478076 0.46674 -0.16999 -0.114894 -0.142141 0.274669 0.110024 -0.307551 0.766475 0.353803 0.0416517 -0.0837772 -0.551953 0.644803 0.695238 0.11612 -0.27987 -0.660791 -0.3512 0.369323 0.374766 -0.685644 -0.219613 -0.372869 -0.46969 0.0827423 0.573806 0.689976 0.276786 -0.290323 -0.500766 -0.125628 0.584708 0.190698 -0.152778 -0.482578 0.281106 0.782609 0.111111 0.614861 -0.846702 -0.786667 -0.792701
internal_count=44709 22558 22151 11267 15324 11291 9877 5794 6827 5705 1414 7276 9530 6815 6381 4307 1636 2715 3991 3550 5570 2065 2714 991 945 3505 3080 3007 2500 3501 2671 2863 2427 2698 2029 423 3726 2903 224 1550 653 199 3636 215 144 1148 434 1288 90 1615 1122 675 685
shrinkage=0.1


Tree=11
num_leaves=51
num_cat=0
split_feature=1 1 1 1 2 1 0 2 0 1 1 17 2 0 2 10 0 0 2 0 2 0 1 2 2 63 2 2 1 2 18 0 3 8 2 0 0 2 0 2 1 2 0 2 2 1 1 1 0 14
split_gain=5224.8 668.941 476.565 175.596 200.727 155.57 143.149 125.43 84.7298 78.6531 77.4526 69.1874 68.4519 73.5549 61.2471 66.2012 54.6334 54.1852 50.3461 44.1296 43.0023 42.2794 42.1964 56.4325 42.1228 40.2141 39.5356 34.1717 32.0178 30.1968 30.1062 29.2579 28.4585 22.3644 16.4272 15.8605 10.4793 15.6408 10.0598 8.68007 8.39401 5.92425 4.62084 3.93284 2.83973 11.7591 2.79785 1.97743 0.62002 0.541936
threshold=5.0819259385513496 4.8175177861947036 5.5274765370962369 4.6568395117460666 7.576865848924859 5.2489525223926492 1.837014069290728 7.6398827302766898 1.0000000180025095e-35 4.8641835361783583 5.8183651997265651 1.0000000180025095e-35 7.1612339548017436 1.837014069290728 7.7099810294433491 1.0000000180025095e-35 1.3918720653661192 1.0000000180025095e-35 7.2170764592029961 1.837014069290728 7.9968221406501296 1.3918720653661192 4.5625294889952182 7.3755689631123849 7.8266426168071543 1.0000000180025095e-35 7.1712726506405104 6.6751923067246377 4.9259552721751554 7.6603498904385932 1.0000000180025095e-35 1.3918720653661192 2.524928003624769 1.0000000180025095e-35 7.1970609624654713 6.4950424989761482 1.837014069290728 8.270653054108875 2.5564266076365922 6.8569880235699889 5.7933571987666843 7.477321357758643 1.3918720653661192 7.8210414817154517 7.2524081849530022 4.5123785760738295 5.680717163076177 5.7981123411994036 4.3718021196056496 1.0000000180025095e-35
decision_type=2 2 2 2 2 2 2 2 2 2 2 2 2 2 2 2 2 2 2 2 2 2 2 2 2 2 2 2 2 2 2 2 2 2 2 2 2 2 2 2 2 2 2 2 2 2 2 2 2 2
left_child=1 3 5 22 16 11 17 9 -7 30 34 21 39 -14 19 -16 41 -3 -18 -13 28 29 44 35 31 26 -19 -11 -9 -2 -8 -6 -23 -22 40 -24 37 -36 -38 -10 46 -5 -26 -25 45 -1 -4 -42 -12 -27
right_child=2 6 10 4 24 8 7 20 12 27 48 14 13 -15 15 -17 18 25 -20 -21 33 32 23 43 42 49 -28 -29 -30 -31 -32 -33 -34 -35 36 -37 38 -39 -40 -41 47 -43 -44 -45 -46 -47 -48 -49 -50 -51
leaf_value=-2.9790470127867779 1.1456902169497369 -10.28880772911798 3.9020333887558367 0.03196869543487537 -0.07788160722243305 -2.0073375749091498 -0.77457705313333003 -0.79740506540862421 3.636142259559195 1.6073081383669205 17.223909731584531 1.340619359522063 1.904485433841427 1.3881450559022896 1.0971801317419392 -0.52397408922086586 -0.73129331868588854 2.0617212291365123 -1.0270531874981159 1.4384733411346062 -1.1790863226839576 -0.044907791633107763 -0.61482488912045885 -1.7671982677750386 -0.66759315312209255 2.7380412712659679 0.14210793468305952 -0.15377662300993791 -0.3770202516926503 -1.0553958453950969 -2.0706573277856264 -1.2399854766563239 -1.6637505808986248 -0.10007383758634206 3.3259141259180214 -1.8326696614593261 1.7644615433845035 1.5279660161782118 3.6785924818719296 2.544196385519129 6.5473421099478832 0.57029703384424768 -1.706973821414566 -2.3671611223555766 -2.2785244438381818 -1.3431267894089012 6.2029885889511496 7.020812197404843 9.8167173207708061 1.5201397798379248
leaf_count=480 189 42 467 165 238 64 1907 1255 811 186 840 602 1800 4925 614 420 2640 102 3305 3193 848 1058 275 839 79 44 1316 5864 1228 44 144 1866 94 102 514 832 265 44 1347 1079 77 89 996 185 505 137 306 129 78 80
internal_value=0 -0.279273 0.412447 -0.443591 -0.37364 0.329349 -0.120903 -0.159702 0.416062 -0.0914702 0.716253 0.207918 0.424724 0.376654 0.264444 0.0464217 -0.268269 0.160354 -0.287805 0.32332 -0.320128 0.00938628 -0.644636 -0.558893 -0.578484 0.191958 0.142454 -0.033719 -0.249295 0.399142 -0.260848 -0.493346 -0.0677083 -0.503158 0.639886 -0.398374 0.587097 0.716846 0.540943 0.594709 0.754852 0.181102 -0.743256 -0.730469 -0.805704 -0.737439 0.808538 0.543689 0.976035 0.741935
internal_count=44709 25749 18960 12631 9378 14893 13118 11534 8679 8101 4067 6214 8615 6725 4829 1034 6199 1584 5945 3795 3433 1385 3253 2131 3179 1542 1418 6050 2483 233 2051 2104 1152 950 3149 1107 2170 558 1612 1890 979 254 1075 1024 1122 617 773 206 918 124
shrinkage=0.1


Tree=12
num_leaves=51
num_cat=0
split_feature=1 1 1 1 2 0 1 10 2 2 16 1 2 10 2 9 2 0 0 0 16 695 2 627 410 2 2 0 2 1 2 2 300 2 713 0 0 1 1 1 2 9 2 0 2 2 0 0 2 5
split_gain=4408.74 701.095 350.074 177.623 150.952 139.485 117.56 102.866 101.224 91.196 87.5181 84.0191 96.1191 74.7506 69.1945 63.9327 76.0265 61.0691 50.8518 45.9861 43.9254 42.2273 38.2758 40.4414 35.5608 35.3516 30.7768 21.3756 19.4148 18.3498 18.1138 18.081 20.5236 17.1152 12.7712 12.6915 11.1508 6.10578 9.25314 5.96161 7.52357 4.89707 4.09288 3.99565 3.63504 3.15107 2.38819 1.58411 1.51947 0.63412
threshold=4.9799357762037051 5.3611754999717922 4.7336427370471554 5.8183651997265651 7.744353218491244 1.3918720653661192 5.1851984178656076 1.0000000180025095e-35 7.5540728378669906 7.6687946983027908 1.0000000180025095e-35 4.5625294889952182 7.3527615103795085 1.0000000180025095e-35 7.1796889219034155 1.0000000180025095e-35 7.3476217619459261 1.0000000180025095e-35 1.837014069290728 1.3918720653661192 1.0000000180025095e-35 1.0000000180025095e-35 7.8266426168071543 1.0000000180025095e-35 1.0000000180025095e-35 7.3585123255376939 6.9805408406417468 6.4950424989761482 7.8330057325829623 5.2619326249408163 7.0312993674396251 8.0663645292381307 1.0000000180025095e-35 7.8534106006269555 1.0000000180025095e-35 2.5564266076365922 1.3918720653661192 5.5366247338655503 5.7933571987666843 4.4161484696049458 7.2524081849530022 1.0000000180025095e-35 8.014501053882185 7.7075953960526933 7.5691537279288541 8.0062008731996297 4.3718021196056496 2.2200899629856092 7.0488206249888608 1.0000000180025095e-35
decision_type=2 2 2 2 2 2 2 2 2 2 2 2 2 2 2 2 2 2 2 2 2 2 2 2 2 2 2 2 2 2 2 2 2 2 2 2 2 2 2 2 2 2 2 2 2 2 2 2 2 2
left_child=2 5 11 14 10 9 20 31 26 21 15 39 27 -10 37 16 -4 -16 -19 -17 25 24 23 -14 -2 -7 -8 35 29 -11 -29 32 -6 36 -33 -13 -9 47 -39 -1 48 -30 -24 -12 -22 -35 -5 -3 -41 -42
right_child=1 3 4 46 7 6 8 33 13 28 43 12 22 -15 17 19 -18 18 -20 -21 44 -23 42 -25 -26 -27 -28 30 41 -31 -32 34 -34 45 -36 -37 -38 38 -40 40 49 -43 -44 -45 -46 -47 -48 -49 -50 -51
leaf_value=-3.5412413766326125 1.7279057499881163 2.302351354816341 -0.35773143522671236 15.50151875842608 -0.36345510881868681 0.57801256903738507 4.1274320634668786 0.0025947530840340961 0.79456229615217355 0.37068398861268292 -3.719785054822049 -1.1796973669905655 -1.3562493302106604 -0.38777236941878501 -1.7278086906939933 1.0787291255898737 -0.67562802452208082 2.8228912755336797 2.1677349468477245 -0.062498030547874353 -1.8545934740739058 -0.89757105114360058 -1.4093965564606095 0.022683033397040475 -0.15050517324163765 -0.058444841294468121 1.1089026990399646 -0.97451057661832585 -0.41917481765682685 1.3928398528556656 -1.4933659948160298 -0.98648076771386572 -1.0462795586251332 -1.5765745249134455 0.60772325790946979 -0.34874757324308026 -1.2209203393188077 4.4921620963937103 6.2587936753692732 -1.5645229479211347 -1.8463250755739438 0.2791965392426235 -2.3130010372387537 -3.6690097059974094 -2.5120973797795885 -2.3970107106474048 8.8350455886937258 2.6315675184515896 -1.1418022403983201 -1.6152323268258713
leaf_count=411 1076 208 5758 840 1591 2893 859 42 1528 298 134 78 2570 1083 63 138 4040 1335 4432 1604 82 46 336 131 71 2532 2859 646 103 147 1046 610 64 398 43 705 517 710 205 151 294 111 193 119 63 266 78 936 164 102
internal_value=0 0.326093 -0.301973 0.546497 -0.217828 0.184787 0.144802 -0.399604 0.23811 0.440605 -0.163232 -0.490552 -0.440491 0.0861739 0.497528 -0.15026 -0.18167 0.440823 0.451708 0.0252583 0.0384201 0.606035 -0.554799 -0.504628 0.644289 0.0532719 0.344271 -0.290505 0.138088 0.258427 -0.35461 -0.27383 -0.21571 -0.635323 -0.41807 -0.149425 -0.495528 0.657115 0.728962 -0.743316 -0.673699 -0.102804 -0.807183 -0.747036 -0.503448 -0.75 0.965142 0.597902 -0.536508 -0.777778
internal_count=44709 22558 22151 8807 15324 13751 11899 3531 6329 1852 11793 6827 5705 2611 7889 11540 9798 5830 5767 1742 5570 1193 3230 2701 1147 5425 3718 2475 659 445 1692 2308 1655 1223 653 783 559 2059 915 1122 711 214 529 253 145 664 918 1144 315 396
shrinkage=0.1


Tree=13
num_leaves=48
num_cat=0
split_feature=1 1 1 1 2 0 10 17 2 10 2 2 16 2 2 11 18 1 2 610 0 0 0 1 695 410 0 306 2 2 2 0 1 0 0 2 698 2 2 0 1 2 0 1 9 0 0
split_gain=3689.41 597.692 321.335 200.641 137.547 118.916 113.821 96.2805 80.0298 94.7049 76.299 72.7852 70.3948 66.8024 63.8752 60.5378 54.3492 51.2118 56.257 50.222 45.2849 49.6571 40.5718 34.7061 34.4011 30.3317 29.0772 33.8701 22.2376 17.8878 17.4167 16.8298 15.3094 14.2807 13.6345 13.0837 9.79128 9.29085 8.01265 7.46635 6.69556 8.86141 6.42995 4.16744 3.3095 2.31374 0.273814
threshold=4.9799357762037051 5.3611754999717922 4.6892809365853516 5.8632128745418148 7.576865848924859 1.3918720653661192 1.0000000180025095e-35 1.0000000180025095e-35 7.408227444727113 1.0000000180025095e-35 7.6687946983027908 6.6751923067246377 1.0000000180025095e-35 7.8802372726319891 7.1796889219034155 1.0000000180025095e-35 1.0000000180025095e-35 4.5625294889952182 7.3755689631123849 1.0000000180025095e-35 1.0000000180025095e-35 1.837014069290728 1.3918720653661192 5.2514692449626539 1.0000000180025095e-35 1.0000000180025095e-35 1.837014069290728 1.0000000180025095e-35 7.9379102510785318 7.8534106006269555 7.0979622446027903 6.130883941134015 5.2619326249408163 6.4950424989761482 2.5564266076365922 7.749106900957945 1.0000000180025095e-35 7.1471657253210461 6.8421493793580082 8.1557565090208701 4.2253198460568022 7.2524081849530022 2.5564266076365922 5.157924638972772 1.0000000180025095e-35 6.5800579086804207 5.6088347100423794
decision_type=2 2 2 2 2 2 2 2 2 2 2 2 2 2 2 2 2 2 2 2 2 2 2 2 2 2 2 2 2 2 2 2 2 2 2 2 2 2 2 2 2 2 2 2 2 2 2
left_child=2 5 17 14 12 10 26 11 15 -10 24 43 16 22 36 -9 19 40 33 -4 -16 -22 -8 -13 25 -2 35 -28 31 32 -18 -20 -12 34 -19 -6 38 -35 -3 -14 -1 45 -15 -7 -31 -42 -5
right_child=1 3 4 46 6 7 13 8 9 -11 29 23 39 42 20 -17 30 18 28 -21 21 -23 -24 -25 -26 -27 27 -29 -30 44 -32 -33 -34 37 -36 -37 -38 -39 -40 -41 41 -43 -44 -45 -46 -47 -48
leaf_value=-4.2737333903028754 1.5551151749893053 3.7696403192535288 -0.36372864330017624 14.39377868678269 0.56699116176135367 1.9314410914302016 -0.030878126100759573 1.8423046973427277 0.7505241556690323 -0.10397233772529405 0.32208502091399682 -0.33303681123418016 -3.0051828023848941 -1.2001430276232741 -1.5550278216245943 0.27732377836927496 -1.2473963452993424 -1.2977648983116041 -0.84123779596511528 1.2602830648552015 2.5409311294978951 1.9494328913639081 -1.0470955990541164 0.25756124747599929 -0.80781394602923917 -0.1354546559174736 -0.55445601401113576 0.99292276960104009 -2.1187097524002256 -0.44364492902672342 -2.078543075476492 -1.8944229358088649 1.187894361694805 -1.2223038105031236 -0.3505874457838104 -0.14459187029978934 0.81511017813150488 -1.7348834725870874 2.5336924414303525 -2.7984834236865903 -1.1404199279640097 -1.7822962570609862 -1.9388961677351042 3.1895448401060125 0.12118579244396983 -1.7371528886631495 11.371551405800915
leaf_count=141 1076 1059 10250 797 133 49 294 3379 2084 2439 324 2088 163 94 63 733 337 62 784 82 1338 4439 2423 1026 46 71 2557 84 183 88 242 746 157 654 440 397 56 476 1014 53 140 485 575 101 90 356 41
internal_value=0 0.300293 -0.274254 0.503804 -0.213526 0.169806 -0.328656 0.132868 0.188188 0.0957329 0.406048 -0.0128676 -0.145502 -0.456586 0.454386 0.289397 -0.134085 -0.514215 -0.450523 -0.117112 0.399315 0.40869 -0.385351 -0.0462428 0.557418 0.591979 -0.191422 -0.234381 -0.578517 0.128983 -0.433506 -0.535948 0.230769 -0.314951 -0.167331 0.0188679 0.604509 -0.378761 0.616015 -0.712963 -0.702317 -0.665647 -0.7429 0.666667 -0.134831 -0.556452 0.97136
internal_count=44709 22558 22151 8807 17684 13751 6557 11899 8635 4523 1852 3264 11127 3386 7969 4112 10911 4467 3345 10332 5840 5777 2717 3114 1193 1147 3171 2641 1713 659 579 1530 481 1632 502 530 2129 1130 2073 216 1122 981 669 150 178 496 838
shrinkage=0.1


Tree=14
num_leaves=51
num_cat=0
split_feature=1 1 1 1 2 1 1 2 0 16 2 0 10 2 10 0 1 1 0 0 14 10 695 2 16 1 2 2 1 2 0 10 2 474 3 2 3 8 0 0 1 2 1 713 2 0 0 0 1 448
split_gain=3112.36 441.11 367.668 127.369 136.039 120.914 118.095 94.7542 80.6862 68.5699 63.8129 77.5887 66.3603 58.3238 54.0465 50.4071 49.4673 49.6797 40.6901 42.3473 38.1342 33.7759 29.8375 29.5394 28.616 27.3011 26.7935 19.9035 22.8127 18.9878 20.0146 14.8252 14.753 14.5874 17.0943 14.1545 24.5944 11.2675 12.8035 11.209 10.4264 13.118 8.8238 8.74033 6.76667 5.27504 5.24211 4.60984 3.85678 3.7358
threshold=5.0471588451816096 5.5366247338655503 4.8063570445119543 4.5965705551031997 7.773384073921366 6.0078559630803978 5.2619326249408163 7.744353218491244 1.3918720653661192 1.0000000180025095e-35 7.6150518522684445 1.3918720653661192 1.0000000180025095e-35 7.5727601205364659 1.0000000180025095e-35 1.3918720653661192 4.8827726572537413 4.807734240582902 1.837014069290728 1.0000000180025095e-35 1.0000000180025095e-35 1.0000000180025095e-35 1.0000000180025095e-35 8.0062008731996297 1.0000000180025095e-35 5.2436951448799407 7.8937586058704321 8.0663645292381307 4.9409936986406162 6.8569880235699889 0.86429506858956606 1.0000000180025095e-35 7.9307456133586776 1.0000000180025095e-35 2.3502401828962087 7.1712726506405104 1.7005986908310777 1.0000000180025095e-35 1.3918720653661192 4.8414278617958528 4.3281871823502227 7.2111875933930119 4.4866991714001632 1.0000000180025095e-35 8.3989725536951418 5.7203025721534067 5.248660855470856 7.3942176599549043 5.7933571987666843 1.0000000180025095e-35
decision_type=2 2 2 2 2 2 2 2 2 2 2 2 2 2 2 2 2 2 2 2 2 2 2 2 2 2 2 2 2 2 2 2 2 2 2 2 2 2 2 2 2 2 2 2 2 2 2 2 2 2
left_child=2 6 3 40 9 29 10 8 33 15 11 22 25 35 27 -5 17 -10 19 -15 -13 -20 -2 39 -18 -12 -14 28 -9 30 -3 46 -33 34 -4 45 -37 38 -31 -16 -1 42 -42 -29 -39 -8 -6 -11 -32 -43
right_child=1 5 7 4 31 -7 13 14 16 47 12 20 26 18 23 -17 24 -19 21 -21 -22 -23 -24 -25 -26 -27 -28 43 -30 37 48 32 -34 -35 -36 36 -38 44 -40 -41 41 49 -44 -45 -46 -47 -48 -49 -50 -51
leaf_value=-3.3527973489689304 1.4103739274145242 0.040059731607414051 1.1391408560270038 0.07781364965319143 -0.61961448432181221 13.899537842030202 1.4774772895097144 -0.31800196219307397 0.79563358680036345 -2.8126972330040987 0.86696528704671327 1.0574150821663779 -0.18759509423274212 -1.4327687158384792 -0.45142694826905372 -0.81271714853327248 -0.04313818941134287 -0.65002730872699466 1.1468122224484334 1.4241261204125237 0.037847650847447768 -0.034611951602059321 -0.7270325514263164 -1.9130021932864261 -3.3327013609174898 -0.20417905058777422 -1.4524407989753785 -0.8314369763821845 0.26852073768032769 2.7100395556603987 4.8825671221245237 -1.0980185993317677 -1.9295709224273681 -0.20059334910535542 0.24036952640098691 -0.028497394775268959 1.4505107232777079 5.2367510427422133 2.4176582462605611 -1.4113488419318003 -1.7765689999201486 -1.515269738334716 -0.98533062577050146 0.56141011914850203 2.9534635183935709 2.7706884727436689 -1.2176032231636704 -2.423148670267179 7.0203386232802023 -1.3016567645935311
leaf_count=272 611 40 176 437 249 692 597 1294 138 160 900 3884 794 51 331 8222 5594 3314 2155 1270 1272 783 46 189 105 394 191 585 307 341 371 631 380 47 437 167 1826 168 2100 348 191 590 275 43 42 1160 167 66 237 69
internal_value=0 0.307187 -0.22322 -0.35161 -0.312839 0.605112 0.233215 -0.106601 -0.0582 -0.266404 0.147553 0.203165 0.00482668 0.319516 -0.259283 -0.251877 -0.0827232 -0.177289 0.238319 0.385314 0.161365 0.171545 0.528158 -0.47235 -0.0250921 0.15456 -0.189848 -0.175415 -0.114304 0.524098 0.685185 -0.600561 -0.669634 0.278788 0.32137 0.4112 0.349724 0.483968 0.462515 -0.369661 -0.636364 -0.587556 -0.446352 -0.328025 0.72381 0.479795 -0.427885 -0.814159 0.730263 -0.68437
internal_count=44709 20092 24617 11709 10312 3991 16101 12908 9811 8885 8092 5813 2279 8009 3097 8659 9151 3452 4259 1321 5156 2938 657 868 5699 1294 985 2229 1601 3299 648 1427 1011 660 613 3750 1993 2651 2441 679 1397 1125 466 628 210 1757 416 226 608 659
shrinkage=0.1


Tree=15
num_leaves=43
num_cat=0
split_feature=1 1 1 1 0 2 1 1 2 16 2 10 0 16 1 2 0 0 2 0 0 2 2 0 1 14 2 1 675 8 10 1 2 2 448 1 2 654 0 698 5 0
split_gain=2624.05 391.258 372.12 120.929 114.045 107.805 100.947 95.3589 87.0276 58.8896 58.8424 66.8867 53.8153 53.4967 48.6003 47.1651 45.7659 44.2607 38.9319 31.4626 41.3134 31.6085 30.8177 30.0162 29.4066 27.2806 26.1509 20.7575 17.8755 18.4736 15.5951 13.7272 11.4801 10.3246 9.93113 9.56607 9.54983 8.86328 8.11472 6.35741 3.23277 0.834977
threshold=5.0819259385513496 5.6167996000204647 4.7993545273980258 4.5965705551031997 1.837014069290728 7.5727601205364659 6.0078559630803978 5.3573017651521715 7.9968221406501296 1.0000000180025095e-35 7.536630533985341 1.0000000180025095e-35 1.0000000180025095e-35 1.0000000180025095e-35 4.8641835361783583 7.7391414800642782 1.3918720653661192 1.3918720653661192 6.9861041385228182 1.0000000180025095e-35 1.3918720653661192 7.1712726506405104 7.8802372726319891 1.837014069290728 4.9586185119581536 1.0000000180025095e-35 7.408227444727113 4.8324165705952344 1.0000000180025095e-35 1.0000000180025095e-35 1.0000000180025095e-35 4.3281871823502227 6.869533931231917 7.4027563059541679 1.0000000180025095e-35 5.1394961702659332 6.4385510104182506 1.0000000180025095e-35 7.4592617331520854 1.0000000180025095e-35 1.0000000180025095e-35 4.1975395964856359
decision_type=2 2 2 2 2 2 2 2 2 2 2 2 2 2 2 2 2 2 2 2 2 2 2 2 2 2 2 2 2 2 2 2 2 2 2 2 2 2 2 2 2 2
left_child=2 7 3 31 12 13 36 10 9 14 17 25 -4 16 -6 -13 -5 35 -19 -9 32 -22 23 -7 27 -12 -26 -14 29 -10 -24 -1 -21 34 -33 -2 -3 39 -15 -38 -11 -35
right_child=1 6 4 5 8 22 -8 19 28 40 11 15 24 38 -16 -17 -18 18 -20 20 21 -23 30 -25 26 -27 -28 -29 -30 -31 -32 33 -34 41 -36 -37 37 -39 -40 -41 -42 -43
leaf_value=-3.017517614072037 0.74541398183903462 7.2230318290132347 -9.208625911357224 0.21116503999216363 -0.53887514368586265 -0.15858843591449842 12.509584057827182 -1.3018564225017017 -0.98668328650790049 -3.1042089353066986 0.77968996432694559 0.14877361420277282 0.68588047157081466 -2.4639860449717292 -0.11157926589129659 -0.68817034109415554 -0.67571380028926109 3.1262045746589324 0.63440247085649448 2.679912141562184 1.9265689521368161 1.3117602412703946 -0.93647411116372514 -1.1009229866598815 2.0508917558201603 -0.10147435147090392 0.31688694361502601 0.031976788760971431 0.31218376510559837 -0.022086295424216473 -1.5524798110352251 -1.0811987974523676 2.3822416169518079 -1.1105570924280401 -1.1453137919778313 2.0951526155420539 3.3669702736747227 4.0175264745651367 -1.5702432515283484 0.46259520475231286 -2.988263415884191 -1.6330460348093994
leaf_count=272 217 114 42 237 3421 390 692 52 904 168 1814 1332 156 125 7957 662 6371 1317 4088 92 1184 4125 263 2088 196 357 456 826 41 102 498 719 738 57 67 251 1795 74 41 56 70 282
internal_value=0 0.295675 -0.194532 -0.32936 -0.0871051 -0.290522 0.646283 0.236552 -0.11964 -0.0945248 0.175931 0.0842737 0.157518 -0.218187 -0.0840218 -0.0471414 -0.203692 0.240593 0.214431 0.334518 0.341261 0.307968 -0.441186 -0.384988 0.187271 0.205896 0.352761 0.0753564 -0.396371 -0.423459 -0.621551 -0.606299 0.551807 -0.552 -0.480916 0.538462 0.532124 0.512727 -0.783133 0.526742 -0.588235 -0.710914
internal_count=44709 18960 25749 11410 14339 10013 2731 16229 12663 11616 10038 4165 1676 6774 11378 1994 6608 5873 5405 6191 6139 5309 3239 2478 1634 2171 652 982 1047 1006 761 1397 830 1125 786 468 2039 1925 166 1851 238 339
shrinkage=0.1


Tree=16
num_leaves=49
num_cat=0
split_feature=1 1 1 1 1 2 0 2 1 0 17 10 0 16 2 0 0 17 2 2 0 17 9 14 2 2 10 2 2 0 2 2 474 1 1 654 2 0 2 448 2 2 2 0 0 3 1 2
split_gain=2253.29 368.481 329.224 118.885 100.202 95.7756 89.8055 75.6624 74.821 57.9539 53.137 52.5109 51.8313 51.0049 44.6873 50.3623 41.4885 39.358 55.6936 44.3955 42.8016 39.0409 48.2468 40.6014 36.3584 32.2191 32.1139 29.5044 27.945 25.4533 21.5524 18.9383 16.0792 14.7614 12.3344 11.3271 10.4961 11.342 10.7155 9.28923 14.0349 8.86254 8.27291 7.0935 5.65583 2.54483 1.18322 6.82686
threshold=5.0819259385513496 5.7025279039243655 4.7993545273980258 4.5965705551031997 5.3573017651521715 7.576865848924859 1.3918720653661192 7.6442013552795478 6.0078559630803978 1.0000000180025095e-35 1.0000000180025095e-35 1.0000000180025095e-35 1.3918720653661192 1.0000000180025095e-35 7.7623833278391379 1.837014069290728 1.3918720653661192 1.0000000180025095e-35 7.7391414800642782 7.1712726506405104 1.837014069290728 1.0000000180025095e-35 1.0000000180025095e-35 1.0000000180025095e-35 7.6556273312211056 8.0062008731996297 1.0000000180025095e-35 7.536630533985341 8.0663645292381307 6.0330611318290179 7.8266426168071543 7.7780020504256626 1.0000000180025095e-35 4.4161484696049458 5.6182694269009943 1.0000000180025095e-35 6.9436048155244787 3.6035896143025741 7.6021516477704933 1.0000000180025095e-35 7.4404401940259755 7.2872185260302125 7.8730266149442336 7.3942176599549043 6.5800579086804207 2.740319461670996 4.2253198460568022 7.1612339548017436
decision_type=2 2 2 2 2 2 2 2 2 2 2 2 2 2 2 2 2 2 2 2 2 2 2 2 2 2 2 2 2 2 2 2 2 2 2 2 2 2 2 2 2 2 2 2 2 2 2 2
left_child=2 4 3 33 10 13 9 21 35 -4 12 28 24 16 15 -12 -5 19 41 44 -20 23 -23 -8 -2 -13 -16 -14 -9 30 -7 32 -11 46 -21 36 37 -3 -38 40 -35 -19 -31 -15 -6 -33 -1 -48
right_child=1 8 6 5 17 29 7 11 -10 31 14 25 27 43 26 -17 -18 18 20 34 -22 22 -24 -25 -26 -27 -28 -29 -30 42 -32 45 -34 39 -36 -37 38 -39 -40 -41 -42 -43 -44 -45 -46 -47 47 -49
leaf_value=-3.2093285549684909 1.0331471083902273 3.7389662040605489 -8.2877633202215009 0.19412087915485046 1.1698402814395905 -0.50396708953840919 -1.7212770269262458 -0.12792105885265956 11.258625652044465 0.50480863987295954 1.0500468627511055 -0.74857960008158675 0.13443624802694956 -2.2175874404745559 0.55421341520274725 1.0315987916637084 -0.60974161422951179 5.0287919611244725 2.1206762454446877 0.068371749064320406 1.1797993469412802 -0.11753900527816655 0.78304044557409047 -0.24434752463890633 -0.14944280323349518 -1.6138504194321719 -0.48327814326057705 -0.51551967012645006 -0.68832926714335807 -1.565123810026033 -0.87180428740101668 -0.06839501109811863 -0.18373169307091644 -0.89849282954704968 1.2961847643582871 3.6364316965382217 1.8691986740390805 4.9565582371805341 5.0042911446258573 -1.0307824127800487 -1.5773352012877895 2.3121362399519767 -2.3158453985013523 -1.7334066816518807 1.2467068731155124 0.40802178829556512 -1.4426583200850231 -2.0640995008262721
leaf_count=141 438 65 42 248 761 1388 513 2027 692 787 1010 1264 1585 123 996 4748 6427 590 950 925 2168 5604 577 2415 146 191 472 643 621 849 719 182 47 637 188 76 325 369 251 72 277 1175 214 45 387 69 134 136
internal_value=0 0.273629 -0.180628 -0.30745 0.228611 -0.26895 -0.0795732 -0.102785 0.707537 0.190772 0.163778 -0.215696 0.0462304 -0.201812 0.209244 0.249045 -0.187715 0.319429 0.370469 0.208315 0.288647 -0.0517071 -0.00630966 -0.146858 0.311644 -0.369072 0.0517711 -0.0224417 -0.130665 -0.413249 -0.346939 0.236866 0.309353 -0.581961 0.0637916 0.539595 0.568317 0.695853 0.46875 -0.509128 -0.477024 0.513881 -0.542803 -0.75 0.34669 -0 -0.751825 -0.674074
internal_count=44709 18960 25749 11410 17182 10013 14339 13212 1778 1127 10038 4103 2812 6843 7226 5758 6675 7144 4883 2261 3118 9109 6181 2928 584 1455 1468 2228 2648 3170 2107 1085 834 1397 1113 1086 1010 434 576 986 914 1765 1063 168 1148 251 411 270
shrinkage=0.1


Tree=17
num_leaves=39
num_cat=0
split_feature=1 1 1 1 16 2 10 1 0 17 2 610 1 0 0 2 2 0 3 2 10 2 0 2 2 0 2 2 3 17 1 1 0 0 0 2 1 2
split_gain=1864.73 383.684 247.827 140.992 117.974 107.79 82.6213 69.365 62.9395 80.887 66.3756 49.6619 47.5057 45.5241 41.2504 40.8817 33.9737 32.0313 32.1495 29.2454 33.1816 28.2186 23.5277 23.098 22.1051 20.0961 17.8978 13.2593 14.0344 11.096 10.7576 6.6969 9.04628 6.80006 6.52277 9.23508 4.39058 3.15385
threshold=5.0471588451816096 5.9182655464111678 4.6892809365853516 5.3611754999717922 1.0000000180025095e-35 7.744353218491244 1.0000000180025095e-35 4.9144865712347068 1.3918720653661192 1.0000000180025095e-35 7.408227444727113 1.0000000180025095e-35 4.5430148273617492 1.0000000180025095e-35 8.6899870417047946 7.576865848924859 6.5964631079239817 1.0000000180025095e-35 2.740319461670996 7.8802372726319891 1.0000000180025095e-35 7.6532576617327219 6.5800579086804207 7.1857656600513717 7.8802372726319891 1.837014069290728 8.1680611465969353 8.014501053882185 2.4414009612931857 1.0000000180025095e-35 5.5015125124753537 4.3281871823502227 4.3718021196056496 7.8252643136726769 7.4592617331520854 7.5194211808931817 6.0357465133043791 7.3372623286231073
decision_type=2 2 2 2 2 2 2 2 2 2 2 2 2 2 2 2 2 2 2 2 2 2 2 2 2 2 2 2 2 2 2 2 2 2 2 2 2 2
left_child=2 3 12 8 5 7 26 11 13 16 -11 -4 31 -2 17 22 -10 -5 -19 30 -21 -15 29 -24 -8 -9 -7 28 -17 -14 -16 -1 -33 -34 -6 37 -3 -36
right_child=1 36 4 14 34 6 24 25 9 10 -12 -13 15 21 19 27 -18 18 -20 20 -22 -23 23 -25 -26 -27 -28 -29 -30 -31 -32 32 33 -35 35 -37 -38 -39
leaf_value=-2.5093559025822061 -4.9816142632561879 5.255411510786181 -0.35732931811200364 -1.3894892392857316 -2.5659065980456415 -0.2185785274361905 -0.57989728758140024 0.3189161385127946 3.9999794466693204 1.5995364396489564 0.22761911404982982 0.7166256730051288 -0.70717939136637042 1.0675332621892835 2.6283039248060476 -1.3292424115943284 -0.15297352570981673 0.99515238223309554 2.1769323927122883 2.4689572729112914 -0.8608702160190348 0.46657369946975397 -0.87072901239012312 -1.3940608475934226 -1.1338061943237541 0.0025165109733165992 -0.79492716977769085 -1.6856571334856669 -0.63839391564304648 -0.16478776540638196 4.1581006078632958 -0.96924275343783828 -1.1167003816034993 -0.52173767240269342 -1.425810564948141 -2.9234110097106334 10.432189356371266 -0.13985989625615575
leaf_count=272 43 141 10591 63 189 2281 924 593 54 3353 3728 161 507 923 726 497 2590 4735 1175 506 159 594 706 740 683 4146 352 121 439 604 653 53 478 50 50 139 649 41
internal_value=0 0.237707 -0.172848 0.209616 -0.125459 -0.114186 -0.25566 -0.0753341 0.137262 0.107044 0.16283 -0.119792 -0.386165 0.324359 0.311214 -0.334809 -0.0416036 0.268374 0.276142 0.435421 0.257143 0.353988 -0.264763 -0.349931 -0.434972 0.0251108 -0.145461 -0.502365 -0.457265 -0.152115 0.519942 -0.601407 -0.528399 -0.481061 -0.651551 -0.513043 0.921519 -0.230769
internal_count=44709 20092 24617 19302 20150 19731 4240 15491 11285 9725 7081 10752 4467 1560 8017 3614 2644 5973 5910 2044 665 1517 2557 1446 1607 4739 2633 1057 936 1111 1379 853 581 528 419 230 790 91
shrinkage=0.1


Tree=18
num_leaves=47
num_cat=0
split_feature=1 1 1 1 1 2 2 2 0 0 0 10 16 0 18 2 17 2 0 1 2 11 87 0 3 2 10 1 695 3 2 382 5 0 17 308 0 1 1 2 2 2 338 0 1 2
split_gain=1576.7 333.346 268.363 89.2686 84.8602 77.4634 65.0984 61.3347 63.3476 55.5185 53.839 50.8465 46.6309 41.3861 38.8539 36.6627 29.7311 31.7906 28.9245 27.5613 35.0182 25.2584 23.9593 22.8678 26.8269 27.9612 21.2472 20.1389 20.0086 21.1779 19.4614 18.1864 17.8836 16.969 15.3269 14.2167 13.9015 11.2336 10.172 11.2999 9.9063 9.84763 9.34581 5.38271 3.64466 0.40391
