tree
version=v2
num_class=1
num_tree_per_iteration=1
label_index=0
max_feature_idx=21
objective=regression
feature_names=Sales-Count Log-Built Log-NbhdPPS Log-Fixtures Log-NbhdRatio Log-Assessment Log-SqFt Building-Type-Custom_CONDO Building-Type-Custom_HRISE Building-Type-Custom_PLEX Building-Type-Custom_SINGLE_FAM Building-Type-Custom_VACANT Quarter_1 Quarter_2 Quarter_3 Quarter_4 Building-Grade_A Building-Grade_B Building-Grade_C Building-Grade_D Building-Grade_E Building-Grade_X
feature_infos=[0:8] [0:11.433425886186699] [3.5620447018917334:6.6239056142842987] [0:3.2188758248682006] [-4.3097620535137748:-1.0172330074160396] [5.9269260259704106:12.771386454580234] [5.1647859739235145:8.5167931113948985] [0:1] [0:1] [0:1] [0:1] [0:1] [0:1] [0:1] [0:1] [0:1] [0:1] [0:1] [0:1] [0:1] [0:1] [0:1]
tree_sizes=2433 2356 2437 2368 2442 2452 2432 2341 2369 2504 2301 2136 2292 2293 2428 2499 2120 2286 2036 2535 1987 2453 2441 2348 2443 2441 2322 2362 2285 1478 2219 2008 2126 1936 2239 2370 1310 1788 2296 1420 1249 1924 1920 1871 2095 1318 1397 2392 2436 2006 874 2423 1924 1859 801 2367 1926 1864 1548 2378 2299 2125 2147 1268 1335 2216 2530 1232 1763 1786 1606 1340 2319 2378 2361 2211 1797 1331 2159 1858 2225 1314 2076 1766 2097 2077 2369 2371 1764 2018 1839 2138 1863 2066 1957 2295 2021 1763 1540 2139 1701 2147 1844 2385 1849 1382 1307 1178 2292 2299 1771 2133 2011 1771 2025 1866 2218 1685 2090 1601 1851 1698 1392 1913 2010 1831 1699 1461 1525 1551 2169 1791 1626 2238 2308 1245 1768 1602 2309 1258 2223 2203 1308 1784 1562 1331 1541 2159 2163 2097 1615 1161 1699 1224 1249 1645 2320 1837 1844 1840 2073 1868 1396 1693 2069 711 1573 1250 1837 1781 1629 1779 1323 2552 2085 1619 1385 1760 1859 1179 1934 1408 1471 1866 1702 1652 2140 1267 2004 2236 1919 1551 1528 1854 716 2077 1462 1315 1554 2158 1402 716 1990 1172 2170 1105 1704 2245 1479 1635 1634 1634 1238 1926 2217 1327 1951 2057 1542 2161 1022 1857 1540 1682 1546 1324 1648 1555 1480 1856 1929 1868 1546 1381 1789 1580 1786 1620 1857 796 1034 1176 1236 787 2220 2001 721 1990 1853 1167 1468 1392 1558 1305 790 2069 1321 2300 2287 1184 1462 1094 1469 1643 2350 1622 1246 1480 2305 2299 1463 1422 1099 1307 1923 1782 2180 1048 1723 1701 1426 1024 1478 2098 1483 1327 2228 1473 1604 1688 1936 1921 2085 1547 1863 1772 1466 1545 2091 1998 2309 1922 1873 2010 2166 1615 1547 1392 1247 937 1402 1789 1464 728 1468 1848 2176 1875 1613 1247 1868 1776 1633 1418 1779 1935 1471 1487 1557 1399 1997 788 2157 1800 2082 2200 1775 723 1713 732 1716 1771 1180 2018 1714 1713 1181 1486 1623 2311 2163 1956 1490 2181 1932 1363 2002 1316 2083 2148 1618 1242 2320 1827 729 1716 2163 1555 2153 1754 2085 1615 940 1679 1754 719 2065 1736 1471 1555 1168 1998 1549 1770 1626 950 1320 1099 2076 1311 1758 1548 946 1637 2155 1494 1542 1720 1800 1946 1480 1837 1562 2085 1514 1178 946 940 1067 940 1004 1020 1085 1767 1093 1393 1315 1827 1488 1852 2308 1856 2092 1841 1644 1541 1702 1702 2005 2017 1923 1672 1241 1643 1403 1265 2243 1481 1415 1607 1898 1396 940 1929 1256 934 1402 2224 1470 1862 1756 1468 1842 1958 1925 1651 1521 1771 1935 2164 1915 1495 1257 1547 940 791 2012 1265 1865 1414 2008 1922 1913 1866 1855 2000 1468 1772 1172 1642 2001 1855 1394 2011 1536 1548 1780 1467 1950 2034 1327 1092 1617 791 2448 1834 1788 1621 2087 1785 1329 1628 1781 1945 1488 1321 2316 1458 1691 1504 1403 1473 1491 1614 1544 1873 1336 1626 1095 1837 1475 1924 2259 1952 1792 1870 1635 1176 944 2010 1465 1793 1775 1250 1782 1925 1340 2050 1277 1632 2229 1713 2011 1554 1636 1632 1404 1718 1315 1029 1487 1251 2090 1622 1943 1844 1399 1564 1398 2252 1474 1411 1948 1851 1723 1783 1858 1168 1533 1689 1929 1873 1381 1329 1338 2319 1696 1923 1856 1883 1775 1990 1632 791 1686 1343 1465 862 938 1637 1785 1577 2073 1473 1985 868 2079 944 1621 1718 1611 2032 2002 1762 1682 1772 1086 1420 2267 1246 1024 2321 1708 1777 943 1773 1871 2568 1730 1635 1953 1708 1020 1765 1718 2014 1680 1761 1474 1570 1550 1163 1793 1776 1764 1843 1326 1397 1485 2399 1406 1494 1458 1406 1495 1699 1389 1611 1685 1019 1684 1165 1470 1107 1175 1857 1920 1978 1936 1245 792 2199 1470 1963 1717 1837 1462 1770 1709 1734 2341 1710 1532 1247 1835 1185 1323 1029 1246 1015 1283 2220 1697 1077 1750 1264 1622 1510 1493 1840 1706 1615 845 1330 1644 1404 1772 1169 872 1175 1172 2074 1166 1327 1871 2231 1544 959 1252 795 1241 1421 1943 944 1015 1240 2088 1791 1332 2002 2073 1409 1708 1859 1567 1705 1847 2077 1178 1703 1080 1030 2105 1017 1689 1099 1853 1868 2230 1633 939 1943 1959 1251 1758 1562 2251 1632 1095 1485 1108 1322 1027 1249 1538 1340 1170 935 2244 1535 1913 1020 1696 1402 1904 2257 1752 2083 1936 2111 953 2243 1409 1398 1550 1017 1765 1173 1638 1620 1317 2329 1102 1641 1925 1766 1951 2113 1329 1967 1415 1615 1638 1017 1837 1330 1723 1796 1561 1249

Tree=0
num_leaves=31
num_cat=0
split_feature=2 2 2 2 2 2 2 6 2 6 2 6 9 6 2 2 0 6 6 2 5 6 2 19 6 2 0 2 5 5
split_gain=1.18822e+08 3.37025e+07 2.20925e+07 6.55362e+06 3.08558e+06 2.49804e+06 1.55396e+06 1.55226e+06 1.25953e+06 906681 851683 565348 497841 445917 439616 392638 357768 355830 353956 258370 255391 240598 234733 165813 158706 154334 74169.2 82132.7 24429.3 11891.3
threshold=5.2946094072085268 5.8632128745418148 4.9886081197308458 5.5571165457250684 4.7993545273980258 5.1394961702659332 6.1243539944566772 7.1781639499794494 5.4099858957428033 7.1612339548017436 4.5855912232795388 7.5996516463121582 1.0000000180025095e-35 7.5727601205364659 4.887811142953848 6.0078559630803978 1.5000000000000002 6.9851790688787379 7.5488193449910801 5.6479112213533371 9.9534667779080461 7.481273932389521 5.7025279039243655 1.0000000180025095e-35 7.2872185260302125 4.4161484696049458 1.5000000000000002 6.2443679776594587 10.299743367882286 10.267261856174768
decision_type=2 2 2 2 2 2 2 2 2 2 2 2 2 2 2 2 2 2 2 2 2 2 2 2 2 2 2 2 2 2
left_child=2 3 4 8 10 16 15 22 17 20 25 -10 -11 -12 24 28 23 -2 -16 -9 -7 -18 -5 -4 -6 -1 29 -28 -3 -8
right_child=1 6 5 7 14 9 26 19 11 12 13 -13 -14 -15 18 -17 21 -19 -20 -21 -22 -23 -24 -25 -26 -27 27 -29 -30 -31
leaf_value=151.85943850150235 173.17350583851331 189.16061683571587 161.76317528395114 179.77063295762366 159.64294963050639 167.35195742372522 199.49493730633822 174.84629171571297 173.78054087078354 165.4943572129221 157.66356692535058 171.02957877958332 159.09645716469345 155.96143419529548 161.14662358451724 195.90121548379426 164.37618555102338 168.37902178668003 159.26277996400572 178.10140161308794 170.41065377644244 161.93095223432854 183.76261865850978 157.86126869978747 158.25785125225636 154.74431634574285 201.40880049404831 209.53475522495555 183.59321024964748 204.92335341400963
leaf_count=412 249 112 2270 394 1888 1086 122 1072 2015 4807 6858 2343 181 3301 3139 328 1664 2156 2656 547 620 888 546 168 3305 839 63 109 34 70
internal_value=0 94.9133 -28.2956 77.6293 -46.6838 6.95484 286.923 120.735 61.3063 19.5783 -58.2032 71.4489 12.7681 -55.1616 -34.7186 248.144 -9.97961 42.9094 -28.7217 101.862 39.4744 -1.70189 153.127 -18.6407 -41.405 -82.8512 336.765 358.482 202.09 315.9
internal_count=44242 10160 34082 9322 22398 11684 838 2559 6763 6694 11410 4358 4988 10159 10988 474 4990 2405 5795 1619 1706 2552 940 2438 5193 1251 364 172 146 192
shrinkage=1


Tree=1
num_leaves=30
num_cat=0
split_feature=2 2 2 2 2 2 2 2 2 6 6 6 6 6 0 2 6 2 9 6 5 2 5 2 4 6 5 6 2
split_gain=9.20754e+07 2.5593e+07 1.8136e+07 4.7677e+06 2.64702e+06 1.83294e+06 1.21039e+06 1.04465e+06 914000 800136 784218 532070 416587 409510 360375 301978 287715 276477 237946 184149 183415 179642 172529 153468 141805 140775 63670 24903.6 5067.22
threshold=5.315650273109946 5.8632128745418148 5.0050279985749251 5.5872376563030004 4.8348174441105476 5.1759291929220641 6.1243539944566772 5.4849942407392147 4.6735669150252344 7.311552274248398 7.1781639499794494 7.2782837576331731 7.3001350905129803 7.4076210165145087 1.5000000000000002 6.0078559630803978 7.8688281353415954 4.4866991714001632 1.0000000180025095e-35 7.4160777273041623 9.5662635009723989 4.9144865712347068 9.3079181293632054 5.680717163076177 -2.2210502209289751 7.5727601205364659 10.205440575927131 6.7244330414940263 6.2443679776594587
decision_type=2 2 2 2 2 2 2 2 2 2 2 2 2 2 2 2 2 2 2 2 2 2 2 2 2 2 2 2 2
left_child=2 3 4 7 8 14 15 11 17 20 23 -2 -10 21 24 27 -9 -1 -11 -16 -7 -6 -15 -5 -4 -12 -8 -3 -28
right_child=1 6 5 10 13 9 26 16 12 18 25 -13 -14 22 19 -17 -18 -19 -20 -21 -22 -23 -24 -25 -26 -27 28 -29 -30
leaf_value=-10.015585273749139 8.0446903228209443 24.362026573548835 -1.3518816939891685 13.835873932491374 -3.1650433297410951 2.5520250272279452 33.453546722079409 10.313545059036302 -4.3484108889470043 1.5903636822762377 13.384941159074701 5.2466112408215357 -5.9107730524800886 -5.4552612738194384 1.1754843496553242 28.320676645988964 7.1932152701556937 -7.0925038277829797 -3.8643401227146388 -0.76960291790720692 5.0498736703959892 -1.5050062346493194 -3.6201181686922421 17.557248726943349 -4.4822570743953314 10.547163012673458 33.20045288085938 19.671224066611448 39.49274843495521
leaf_count=560 1342 49 2366 252 1788 596 201 1299 3955 3806 410 3660 6556 894 1605 328 648 2959 118 1243 1486 1982 4331 572 228 748 41 97 122
internal_value=0 85.6986 -24.2803 70.0056 -40.4531 8.24788 252.72 57.6539 -49.0389 20.2915 113.27 49.9875 -44.3607 -27.058 -5.04475 218.497 77.3206 -62.9989 11.8796 2.72122 36.1344 -19.107 -32.791 136.948 -13.5697 96.3378 296.706 178.086 317.337
internal_count=44242 9769 34473 8931 23025 11448 838 6949 14030 6006 1982 5002 10511 8995 5442 474 1947 3519 3924 2848 2082 3770 5225 824 2594 1158 364 146 163
shrinkage=0.12


Tree=2
num_leaves=31
num_cat=0
split_feature=2 2 2 2 2 2 2 6 2 6 2 6 2 2 6 9 6 1 2 6 9 2 6 0 0 2 1 2 6 3
split_gain=7.15651e+07 2.12558e+07 1.17329e+07 4.36866e+06 1.88826e+06 1.34151e+06 1.30746e+06 1.00524e+06 772273 632778 472368 401349 384186 364944 350383 340422 299460 269096 261476 236576 203622 195380 189441 159442 131354 118655 104297 63977.9 41368.4 2547.83
threshold=5.2802227523290162 5.8183651997265651 4.9799357762037051 5.5075694150822594 4.7457648675822561 5.1394961702659332 6.0715888525524377 7.576865848924859 5.405913610051301 6.9851790688787379 4.8641835361783583 7.576865848924859 5.5366247338655503 4.5123785760738295 7.5996516463121582 1.0000000180025095e-35 7.4451254152969417 1.3918720653661192 6.2171176325498001 7.5488193449910801 1.0000000180025095e-35 5.6290347088714787 7.3148856110385276 1.5000000000000002 1.5000000000000002 6.0078559630803978 2.5564266076365922 4.2253198460568022 6.5042836914627014 2.0126758453675748
decision_type=2 2 2 2 2 2 2 2 2 2 2 2 2 2 2 2 2 2 2 2 2 2 2 2 2 2 2 2 2 2
left_child=2 3 4 8 13 16 25 12 11 23 20 -2 -5 27 -10 -11 17 -4 -8 -12 -6 -9 -15 -7 -20 28 -18 -1 -3 -27
right_child=1 6 5 7 10 9 18 21 14 15 19 -13 -14 22 -16 -17 26 -19 24 -21 -22 -23 -24 -25 -26 29 -28 -29 -30 -31
leaf_value=-10.840408112562256 4.9330632981755187 22.426883069854419 2.557917800578295 8.3036965093960813 -4.1012755737342603 3.0393554434664356 26.495187061907092 7.4062904091316089 7.4990712099714747 1.3173039603748489 -2.1345319864905963 2.1686685009621747 13.017673894273329 -4.8604208879722028 5.1046002214782007 -3.9188029650992537 -0.89366457548715728 -0.68058964694413582 29.356298127757555 -3.5704288788340572 -8.2316935535550648 10.515552038775906 -6.1316118824392438 6.2391808968903613 35.461159162007043 21.313345161050052 -2.6764091152537968 -7.8952416785244619 17.248380271681285 25.149905993187719
leaf_count=141 1539 38 427 306 7526 472 270 1294 1604 4764 3498 1491 1490 2855 1975 185 710 2709 166 3142 176 384 4227 432 129 70 1420 557 188 57
internal_value=0 69.9179 -23.1289 56.644 -36.448 3.37084 215.537 85.3542 41.5439 13.7888 -29.6401 29.781 101.822 -48.9935 51.4933 9.34125 -8.20856 -1.99218 245.59 -23.4529 -34.971 67.688 -46.8314 38.1062 267.624 166.987 -17.3564 -70.8504 151.63 193.189
internal_count=44242 11001 33241 10083 22122 11119 918 3474 6609 5853 14342 3030 1796 7780 3579 4949 5266 3136 565 6640 7702 1678 7082 904 295 353 2130 698 226 127
shrinkage=0.12


Tree=3
num_leaves=30
num_cat=0
split_feature=2 2 2 2 2 2 2 3 2 6 2 2 2 6 6 9 5 6 6 1 2 6 6 5 2 17 2 0 6
split_gain=5.54448e+07 1.6496e+07 9.08702e+06 3.38426e+06 1.46262e+06 1.04933e+06 1.01042e+06 818325 602829 568757 366473 343148 302984 289394 271396 238519 210499 205582 204077 227908 190552 186033 174716 171657 93577.9 86566.8 78920.2 36292.8 22417.8
threshold=5.2802227523290162 5.8183651997265651 4.9799357762037051 5.5075694150822594 4.7457648675822561 5.1124387065275565 6.0715888525524377 1.7005986908310777 5.4193722925844643 7.1029107091503816 4.865129039929994 5.6290347088714787 4.5855912232795388 7.3755689631123849 7.5232111153229342 1.0000000180025095e-35 9.8528517204392347 7.481273932389521 7.6398827302766898 1.837014069290728 5.680717163076177 7.2727454942847851 7.576865848924859 10.166620456663063 5.9262652100808078 1.0000000180025095e-35 4.3281871823502227 1.5000000000000002 6.7458242390288694
decision_type=2 2 2 2 2 2 2 2 2 2 2 2 2 2 2 2 2 2 2 2 2 2 2 2 2 2 2 2 2
left_child=2 3 4 8 12 18 24 20 13 23 17 -9 26 -2 -10 -11 -8 -6 19 -4 -5 -12 -14 -7 28 -20 -1 -18 -3
right_child=1 6 5 7 10 9 16 11 14 15 21 -13 22 -15 -16 -17 27 -19 25 -21 -22 -23 -24 -25 -26 -27 -28 -29 -30
leaf_value=-8.7153989752302046 4.7936430745511567 17.596881106371551 1.4032838714312867 10.797226619776721 -3.1419733565885286 2.9026602756136137 23.370229414530186 7.1671080561782485 6.8524851002629683 0.92538776094059261 -1.4719855607589378 10.104654393716407 -4.4221962646193331 2.4461867411350031 4.6226765791063888 -3.4362668321279286 26.445319972075225 -4.3831038940548233 -3.1482076861065713 -0.99526380691761629 14.778853007983985 -2.8795764108675503 -5.764206558437051 6.4960529890286542 19.870941951943816 -1.0851759449117997 -6.3712156766514214 30.493219553016747 14.202420505731514
leaf_count=273 1156 74 710 406 4436 1202 279 1913 1353 4683 1925 829 4476 2197 1903 187 154 3413 728 2889 326 4568 2053 228 166 492 978 132 113
internal_value=0 61.5451 -20.3545 49.8514 -32.076 2.96669 189.828 75.1208 36.5611 11.4625 -26.0843 67.1496 -43.1174 27.1374 46.2561 6.31126 216.249 -30.6838 -8.13994 -4.34877 104.873 -20.5209 -40.3738 28.9914 147.144 -19.313 -57.4008 236.615 130.129
internal_count=44242 11001 33241 10083 22122 11119 918 3474 6609 6300 14342 2742 7780 3353 3256 4870 565 7849 4819 3599 732 6493 6529 1430 353 1220 1251 286 187
shrinkage=0.12


Tree=4
num_leaves=31
num_cat=0
split_feature=2 2 2 2 2 2 2 2 6 6 2 6 9 9 6 6 0 5 6 5 2 17 6 5 5 10 2 4 3 1
split_gain=4.3208e+07 1.49762e+07 3.95262e+06 3.1819e+06 2.08113e+06 764503 711196 662215 548817 479114 308067 305282 292621 248415 233829 223750 220792 213769 205372 176464 147386 139868 101174 82369.7 79490.5 66708 21856.8 9422.66 9077.79 3131.61
threshold=5.2204836853639813 5.7629931880441774 4.9144865712347068 5.4193722925844643 6.0078559630803978 4.6892809365853516 5.5366247338655503 5.053469173930865 7.3755689631123849 7.576865848924859 6.173007282594642 7.4076210165145087 1.0000000180025095e-35 1.0000000180025095e-35 7.8432602105340861 7.4526923903445494 1.5000000000000002 9.5662635009723989 7.6442013552795478 10.817272013498512 4.4161484696049458 1.0000000180025095e-35 6.4385510104182506 10.205440575927131 9.3258962324578771 1.0000000180025095e-35 4.2253198460568022 -2.8738746968255717 2.1383330595080281 7.2602290800935139
decision_type=2 2 2 2 2 2 2 2 2 2 2 2 2 2 2 2 2 2 2 2 2 2 2 2 2 2 2 2 2 2
left_child=2 3 5 8 22 20 14 13 17 -8 28 16 15 18 -5 -7 -9 -2 -4 -10 26 -13 -3 -12 -24 -22 -1 -15 -6 -14
right_child=1 4 7 6 10 12 9 11 19 -11 23 21 29 27 -16 -17 -18 -19 -20 -21 25 -23 24 -25 -26 -27 -28 -29 -30 -31
leaf_value=-8.5069506059009026 2.0985724465389262 17.058591693779803 -1.0894457467658067 5.7152592334263712 18.348197123962038 -2.7050747411403191 9.5486876613805247 -0.081580589324569505 1.2085506764655205 6.2113319885853953 22.69489897350844 -1.6236339733173177 -7.5150648602890096 -4.460467594344661 3.7081520957442318 -3.6788011419848985 2.1149344693965455 4.4759555566853049 -2.5813966364858585 3.5152628218927817 -5.4748245386105046 0.36595264339191841 8.9417793898764852 27.151439903217124 12.694158315081056 -4.4596529158162141 -6.5471696600271905 -7.083775038199601 20.607334707754628 -6.4335605389286163
leaf_count=141 794 69 4607 2464 202 7023 1085 1241 3702 1465 201 1298 152 31 1276 6617 1404 1751 1868 548 1521 836 109 144 488 2536 271 113 145 140
internal_value=0 44.8998 -21.744 34.5208 144.827 -30.8081 50.728 -7.10975 19.5138 63.6161 183.281 1.86045 -27.1541 -13.5859 41.9287 -26.4803 9.0384 31.1265 -12.6679 12.5551 -42.1923 -7.03599 104.699 205.115 100.184 -40.344 -60.2774 -54.5622 161.148 -58.4655
internal_count=44242 14443 29799 13085 1358 18401 6290 11398 6795 2550 692 4779 13932 6619 3740 13640 2645 2545 6475 4250 4469 2134 666 345 597 4057 412 144 347 292
shrinkage=0.12


Tree=5
num_leaves=31
num_cat=0
split_feature=2 2 2 2 2 2 2 1 2 6 6 5 5 18 9 2 9 10 6 11 2 6 0 2 2 6 6 6 2 3
split_gain=3.35155e+07 1.0609e+07 4.36402e+06 1.96238e+06 1.32433e+06 905707 618679 497066 502045 378224 377154 639069 294477 214291 204637 198420 196024 185738 208787 181402 159991 151203 98024.8 72984.9 65515.5 49814.8 17205.7 6858.68 2701.37 1789.85
threshold=5.2489525223926492 5.7926024719432796 4.9188205903793181 5.4960026830392197 6.0357465133043791 5.053469173930865 4.7336427370471554 1.0000000180025095e-35 5.3611754999717922 7.5488193449910801 7.2445845309701786 10.687673426276966 9.6582249200528647 1.0000000180025095e-35 1.0000000180025095e-35 6.2171176325498001 1.0000000180025095e-35 1.0000000180025095e-35 7.2474365831768024 1.0000000180025095e-35 5.5949735173662791 7.3476217619459261 1.5000000000000002 5.9182655464111678 4.3281871823502227 6.821652431438479 6.8860206562826649 7.1550058294051988 4.7715931791699342 2.6735537653587347
decision_type=2 2 2 2 2 2 2 2 2 2 2 2 2 2 2 2 2 2 2 2 2 2 2 2 2 2 2 2 2 2
left_child=2 3 6 7 23 16 17 -2 -9 12 11 -5 -7 -11 19 26 21 24 -19 -8 -12 -4 -17 25 -1 -3 -6 -25 -16 -18
right_child=1 4 5 10 15 9 14 8 -10 13 20 -13 -14 -15 28 22 29 18 -20 -21 -22 -23 -24 27 -26 -27 -28 -29 -30 -31
leaf_value=-6.7681337056985473 -11.239725498331005 12.241710504533485 -0.64331721276047038 7.2114366602206337 16.499474943686778 0.19400883687138809 -2.5515219826860784 2.178884799112772 4.1231569318868155 0.3566849156753944 4.869964893172348 15.710373787306976 2.1596207877785893 -1.8961361577663223 -6.9854988315398678 19.788116276144123 -6.1721098332236997 -2.110382162772626 -4.1187294432920467 -5.1914546558371288 6.8759269467582049 -1.8317308935483732 24.757640536973945 13.19203036279621 -4.7737737715094903 9.5106053663306831 18.883243300379537 16.143457895439361 -5.8117561427752165 -4.7034792648292179
leaf_count=273 34 212 2714 889 198 2082 11141 3868 3790 1396 1410 149 2321 1076 74 166 107 952 3485 388 982 3573 129 99 2118 223 156 42 163 32
internal_value=0 44.2483 -17.1119 34.5142 132.545 -3.28132 -27.0048 25.6393 26.1788 4.69623 54.4058 70.3556 10.2532 -5.20141 -22.6072 163.582 -11.8159 -34.5789 -30.7358 -22.0061 47.4629 -10.9906 183.522 97.3951 -41.6976 90.5156 146.587 117.983 -51.6743 -48.8629
internal_count=44242 12347 31895 11122 1225 13301 18594 7692 7658 6875 3430 1038 4403 2472 11766 649 6426 6828 4437 11529 2392 6287 295 576 2391 435 354 141 237 139
shrinkage=0.12


Tree=6
num_leaves=31
num_cat=0
split_feature=2 2 2 2 2 6 2 2 3 5 5 1 0 6 10 2 2 5 6 1 6 6 6 2 5 6 0 5 4 3
split_gain=2.60888e+07 9.04658e+06 2.34654e+06 1.93087e+06 1.23232e+06 570173 504753 391181 373658 307456 306029 277113 258176 225319 257621 212700 188484 172189 167957 166645 163299 91008.4 80731 74608.7 73637.9 67607.3 61529.2 44178.3 16054.8 8585.86
threshold=5.2204836853639813 5.7629931880441774 4.8827726572537413 5.4611595483283883 6.0078559630803978 7.5727601205364659 5.0493757497314524 4.6735669150252344 1.8688348091416842 10.461314429797609 10.565852841399192 1.0000000180025095e-35 1.5000000000000002 7.2960741707616021 1.0000000180025095e-35 5.5711909119459513 6.173007282594642 10.53376010700484 7.2727454942847851 6.4950424989761482 7.7666287175525852 7.3585123255376939 6.7025742396217023 4.4161484696049458 9.6943073544891813 7.3527615103795085 1.5000000000000002 9.7268992495465501 -2.4011369817038131 2.249904835165133
decision_type=2 2 2 2 2 2 2 2 2 2 2 2 2 2 2 2 2 2 2 2 2 2 2 2 2 2 2 2 2 2
left_child=2 3 7 5 22 9 11 23 10 -2 -5 -4 21 14 -9 -10 29 -7 -14 -15 -13 -8 27 28 -24 -18 -25 -3 -1 -6
right_child=1 4 6 8 16 17 12 13 15 -11 -12 20 18 19 -16 -17 25 -19 -20 -21 -22 -23 24 26 -26 -27 -28 -29 -30 -31
leaf_value=-5.3960266102612513 2.4695061085849113 10.546546261102653 -12.602147095878168 6.085162158779605 14.374880220625135 0.40649424094888253 -0.12399312273631539 -3.2603572859954761 4.0255858971729177 4.8927767045148833 11.465557977842044 -1.0921507450878769 2.105382425850804 -2.7037232006654528 -1.3898605675662543 5.879477115154021 18.402706809391738 2.1502105402391418 0.15334788373353506 -3.8822687175188668 -2.3611394159270742 -1.6295932908157749 6.4892111401657138 -4.3327581730909905 10.005386572920758 24.612940143087638 -3.2263624715123118 14.650649840663355 -8.316987193037825 16.479297076840947
leaf_count=380 3464 240 31 626 253 2483 1245 1607 2816 965 203 6528 1031 5594 3122 1314 309 1214 1650 2511 1882 1079 153 1918 220 36 1189 53 32 94
internal_value=0 34.8927 -16.8924 26.8259 112.558 17.3334 -7.1055 -24.9388 42.3753 24.9859 61.7715 -11.823 0.851144 -22.3746 -16.8829 38.4706 142.15 8.16211 7.53715 -25.5767 -11.4695 -6.86153 81.6753 -34.283 71.5027 159.22 -32.5861 94.3927 -46.9901 124.849
internal_count=44242 14443 29799 13085 1358 8126 13446 16353 4959 4429 829 8441 5005 12834 4729 4130 692 3697 2681 8105 8410 2324 666 3519 373 345 3107 293 412 347
shrinkage=0.12


Tree=7
num_leaves=30
num_cat=0
split_feature=2 2 2 2 2 6 1 9 1 1 2 6 0 3 10 6 5 6 5 21 1 0 2 5 5 6 2 1 6
split_gain=2.03132e+07 5.28096e+06 4.45488e+06 966703 880291 478083 468869 293831 296148 286540 270013 266083 261494 240236 223131 293337 218292 129765 92048.8 76762 75498.5 72410.4 54389.5 42015.9 41836 41762.3 18361 8819.67 1052.8
threshold=5.344475681483579 5.8632128745418148 5.0493757497314524 5.6167996000204647 4.8063570445119543 6.9851790688787379 1.0000000180025095e-35 1.0000000180025095e-35 1.0000000180025095e-35 1.0000000180025095e-35 6.173007282594642 7.8432602105340861 1.5000000000000002 1.7005986908310777 1.0000000180025095e-35 7.4076210165145087 10.125630102515002 6.4385510104182506 9.3258962324578771 1.0000000180025095e-35 6.5800579086804207 1.5000000000000002 6.0715888525524377 10.565852841399192 10.045418695710588 7.2388559073370864 5.239372482586635 3.3754797222269679 6.979610607815288
decision_type=2 2 2 2 2 2 2 2 2 2 2 2 2 2 2 2 2 2 2 2 2 2 2 2 2 2 2 2 2
left_child=2 3 4 6 14 16 -2 8 -7 -6 22 -8 -11 18 20 -16 17 -4 -5 -15 -1 25 27 -18 -23 -12 -9 -3 -24
right_child=1 10 5 13 9 7 11 26 -10 12 21 -13 -14 19 15 -17 23 -19 -20 -21 -22 24 28 -25 -26 -27 -28 -29 -30
leaf_value=-3.0912030833558415 -11.292818330294125 8.575348167419433 9.4226781910221753 6.5894528921719253 -11.654631557752138 -10.633944816815076 4.1424451487270915 -4.4687382144785728 0.61992871334866306 -1.9262958234113994 14.119917138362549 2.4857072528020194 -0.84247874196574057 5.5592584219744356 -1.7169450902351016 -3.1684824014268944 5.0008975863268992 1.7451016214470825 10.036187050872378 10.088635661676269 -4.2449608692859835 16.080025471670186 13.108689522283118 9.3296500492095937 20.927081629724874 19.555863172423162 -2.3930245638424403 11.422080505125997 14.914546155749626
leaf_count=1459 30 31 32 179 39 33 3978 140 8968 7367 161 2159 5679 1241 3356 4994 304 1002 334 57 1900 66 136 37 87 31 116 242 84
internal_value=0 42.9648 -10.6757 35.0248 -18.0188 6.44857 29.0525 3.86305 4.81431 -12.3809 118.45 29.6668 -12.1216 55.34 -24.318 -21.5443 23.8423 16.5825 73.7154 48.036 -31.2059 140.214 103.016 45.7634 157.761 125.63 -29.4912 92.7098 115.418
internal_count=44242 8816 35426 7978 24794 10632 6167 9257 9001 13085 838 6137 13046 1811 11709 8350 1375 1034 513 1298 3359 345 493 341 153 192 256 273 220
shrinkage=0.12


Tree=8
num_leaves=30
num_cat=0
split_feature=2 2 2 2 2 6 2 9 1 0 6 5 5 1 0 6 18 6 2 11 0 2 6 5 5 6 2 5 4
split_gain=1.58958e+07 5.51849e+06 1.43552e+06 1.04442e+06 953671 401242 313203 298273 302809 286075 228148 356120 225283 184557 179174 137890 132618 127536 117937 99664.9 63543.9 56996.8 65174.8 55184.2 47865.8 22441.3 17927.4 9536.31 8029.65
threshold=5.2204836853639813 5.7025279039243655 4.9144865712347068 6.0078559630803978 5.4510809983116717 7.1612339548017436 4.686259995935349 1.0000000180025095e-35 1.0000000180025095e-35 1.5000000000000002 7.7666287175525852 10.455933815848761 10.565852841399192 1.0000000180025095e-35 1.5000000000000002 7.509061218325435 1.0000000180025095e-35 6.7025742396217023 6.2171176325498001 1.0000000180025095e-35 1.5000000000000002 4.4866991714001632 7.8432602105340861 9.7268992495465501 9.3258962324578771 7.3673928161276931 4.2253198460568022 10.455933815848761 -2.8738746968255717
decision_type=2 2 2 2 2 2 2 2 2 2 2 2 2 2 2 2 2 2 2 2 2 2 2 2 2 2 2 2 2
left_child=2 4 6 17 5 12 21 8 -4 -10 11 -6 -2 -7 19 -16 -12 23 25 -8 -20 26 -23 -3 -19 -5 -1 28 -9
right_child=1 3 7 18 10 13 14 27 9 -11 16 -13 -14 -15 15 -17 -18 24 20 -21 -22 22 -24 -25 -26 -27 -28 -29 -30
leaf_value=-5.4572615642574505 2.7702371561272292 8.3684182433671666 -10.385013996281035 11.463095447140891 3.2886775561201333 -8.1345494742207709 -2.2452428523864971 -2.9134875855365947 -0.98910418742186712 0.23041802770137876 3.1612495735494868 6.0680430883229874 7.654231167570237 1.1793537838050447 -0.94300586171867229 -2.0857864398955854 0.33105718894226122 2.1439290837680596 13.380059370685823 -4.2954122929484342 17.262564722481418 -2.8152842799799562 -4.6985817678879505 12.617083512964381 6.4812344307987555 15.037220961555603 -3.8509729260010284 -2.5900698041631354 -5.014737748143931
leaf_count=141 1631 299 43 360 1584 30 7585 35 5613 5467 1805 1148 148 6097 3279 2839 275 40 166 358 129 3492 288 56 638 37 419 39 201
internal_value=0 27.2402 -13.1818 80.3039 20.0383 13.2802 -18.6443 -4.3625 -3.55665 -3.2283 31.1375 37.1504 26.4989 9.43898 -16.3502 -12.2793 23.2282 60.0815 110.386 -19.484 126.002 -26.0723 -24.6647 75.548 51.9026 98.5501 -35.5233 -36.849 -39.2868
internal_count=44242 14443 29799 1725 12718 7906 18401 11398 11123 11080 4812 2732 1779 6127 14061 6118 2080 1033 692 7943 295 4340 3780 355 678 397 560 275 236
shrinkage=0.12


Tree=9
num_leaves=32
num_cat=0
split_feature=2 2 2 2 2 2 6 5 18 6 5 6 5 9 5 10 6 6 9 6 5 6 19 5 9 0 1 2 0 6 5
split_gain=1.23991e+07 3.61418e+06 2.03702e+06 656856 383508 366292 277584 330387 236504 234153 253872 227425 327130 187504 167218 141794 208777 138364 125310 126977 98626.3 97714.3 91744 73222.4 55498.7 30087.9 49490 19875 11241.5 9068.09 3431.51
threshold=5.2920829919657217 5.7981123411994036 4.9799357762037051 5.5015125124753537 4.7908596700244956 6.0715888525524377 7.6398827302766898 9.3834526360081298 1.0000000180025095e-35 7.6398827302766898 10.461314429797609 7.0179539710052294 10.687673426276966 1.0000000180025095e-35 10.769536515121123 1.0000000180025095e-35 7.2067480738400045 6.6444403513266588 1.0000000180025095e-35 7.8081198396587324 12.104556686302004 7.8688281353415954 1.0000000180025095e-35 10.205440575927131 1.0000000180025095e-35 2.5000000000000004 3.3754797222269679 6.2443679776594587 1.5000000000000002 6.6751923067246377 9.4342832839722437
decision_type=2 2 2 2 2 2 2 2 2 2 2 2 2 2 2 2 2 2 2 2 2 2 2 2 2 2 2 2 2 2 2
left_child=2 3 4 9 15 25 7 17 22 10 -2 12 -5 -9 -11 24 -17 -4 19 -6 -13 -10 -8 28 -1 26 -3 -25 -7 -27 -20
right_child=1 5 6 11 18 23 8 13 21 14 -12 20 -14 -15 -16 16 -18 -19 30 -21 -22 -23 -24 27 -26 29 -28 -29 -30 -31 -32
leaf_value=-2.8447171134370217 2.0078497426427742 3.4497988030234619 3.4207042971765151 5.1218060925964881 -1.0601358669404011 10.557800239290046 0.25470716558242251 1.1611851448330248 -1.4715420205286009 0.47791539774944508 4.2280096165014607 3.5337258886478109 13.430499118748122 -2.6655568055789796 2.2881631100364395 -0.82980066401964803 -2.360102542535667 -0.76885779733848958 -4.9828640485992119 -2.0775366600457215 10.17935937044097 -3.9205778790755037 -5.9749482753359038 11.52469534871681 -4.6628933248276834 11.73024582406749 7.7819889298079197 15.344788903475584 12.201785003653068 8.3454109288775733 -3.7825877971322304
leaf_count=2869 2227 44 118 648 8746 234 1561 5519 948 1650 1114 2723 76 190 1325 1619 6225 2555 96 2215 32 312 34 41 266 36 406 122 168 37 86
internal_value=0 29.322 -9.54833 23.244 -15.1175 83.9821 1.41582 4.31654 -7.09894 17.1624 22.9082 34.2784 50.0665 8.61213 10.7049 -19.3126 -17.0365 -4.85754 -10.9831 -10.549 30.1157 -17.3346 0.991026 101.7 -25.0014 64.7143 61.379 120.379 93.8996 84.3751 -36.9605
internal_count=44242 10883 33359 9795 22122 1088 11237 8382 2855 6316 3341 3479 724 5709 2975 10979 7844 2673 11143 10961 2755 1260 1595 565 3135 523 450 163 402 73 182
shrinkage=0.12


Tree=10
num_leaves=29
num_cat=0
split_feature=2 2 2 2 2 6 5 6 1 6 5 5 18 10 6 19 6 5 6 0 6 5 6 7 2 8 2 6
split_gain=9.65458e+06 3.36514e+06 902059 622704 587614 280709 331332 276891 225212 218690 300806 196801 187001 181174 259635 166454 165239 120517 109135 101110 88537.5 75399.7 73692.9 63118.5 60285.6 55669.7 41971.1 40486.6
threshold=5.2204836853639813 5.7025279039243655 4.8359633840273881 6.0357465133043791 5.3970547089043963 7.4451254152969417 9.1734161767445102 6.9851790688787379 1.0000000180025095e-35 7.8432602105340861 10.629221275788117 9.3834526360081298 1.0000000180025095e-35 1.0000000180025095e-35 7.576865848924859 1.0000000180025095e-35 7.7460844460118548 9.2953699620870616 6.9589234527158164 1.5000000000000002 6.4385510104182506 10.125630102515002 7.3527615103795085 1.0000000180025095e-35 4.5965705551031997 1.0000000180025095e-35 6.2171176325498001 7.1471657253210461
decision_type=2 2 2 2 2 2 2 2 2 2 2 2 2 2 2 2 2 2 2 2 2 2 2 2 2 2 2 2
left_child=2 4 13 20 7 6 18 21 -7 10 -6 -10 -11 23 19 -8 -9 -16 -4 -15 -3 -2 26 27 -25 -22 -5 -1
right_child=1 3 5 22 9 8 15 16 11 12 -12 -13 -14 14 17 -17 -18 -19 -20 -21 25 -23 -24 24 -26 -27 -28 -29
leaf_value=-2.5230410996522759 2.0762673482506773 9.3400638141039938 0.1965688330135231 9.084669431775465 2.3589962500798554 -9.3434668613577472 0.84905971948963055 1.1302661617522094 -2.3720134033359139 2.126785813874287 4.463022921012362 -0.78571029628131317 -1.3769437466005272 -1.6003893675290464 -3.0894795003391504 -1.3320143511878211 -0.39637420031875659 -1.7689643324520812 -1.3486710342472179 -0.62606781324219507 5.0605787005600673 4.4641229670223188 15.167463030954783 -3.0559505036581491 -1.9210995514451727 7.882400388215717 11.228142913486767 -4.0803722586918623
leaf_count=416 412 91 868 329 2399 47 3939 4251 1381 2053 1657 6101 245 3522 1953 577 1343 2040 2718 2720 868 358 47 1065 1861 117 273 591
internal_value=0 21.2318 -10.2707 62.6689 15.6079 -5.03205 -0.946591 8.814 -9.42777 22.4103 26.8274 -8.9895 14.6071 -16.0496 -13.8304 4.7515 6.36442 -20.1279 -8.12212 -9.79976 47.8485 26.5839 87.1497 -21.8203 -19.4576 45.0165 83.9207 -28.6636
internal_count=44242 14443 29799 1725 12718 15631 8102 6364 7529 6354 4056 7482 2298 14168 10235 4516 5594 3993 3586 6242 1076 770 649 3933 2926 985 602 1007
shrinkage=0.12


Tree=11
num_leaves=27
num_cat=0
split_feature=2 2 2 1 2 2 2 0 6 6 19 6 5 10 6 19 6 6 5 5 6 6 6 1 0 5
split_gain=7.5093e+06 2.3636e+06 971319 433500 438638 335603 242793 203342 196894 157602 163334 132962 216445 137424 127855 106623 124700 80392.7 71684 70029.3 58755.1 50509.9 49624.1 71344.8 32631.6 18769.8
threshold=5.2489525223926492 5.7629931880441774 4.9799357762037051 1.0000000180025095e-35 5.5015125124753537 6.0715888525524377 4.7368554018031457 1.5000000000000002 6.8664121796726612 6.8517137482728119 1.0000000180025095e-35 7.2524081849530022 9.2953699620870616 1.0000000180025095e-35 7.1674235306143332 1.0000000180025095e-35 7.3527615103795085 7.9267830720221824 9.7268992495465501 8.9176443548162485 6.7458242390288694 7.3527615103795085 6.4385510104182506 4.3718021196056496 1.5000000000000002 9.2140763793955358
decision_type=2 2 2 2 2 2 2 2 2 2 2 2 2 2 2 2 2 2 2 2 2 2 2 2 2 2
left_child=2 3 6 -2 8 22 17 15 -5 18 -11 13 -13 -8 -6 16 -4 19 -9 -1 -17 24 -3 -24 -7 -19
right_child=1 5 7 4 14 21 11 9 -10 10 -12 12 -14 -15 -16 20 -18 25 -20 -21 -22 -23 23 -25 -26 -27
leaf_value=-2.3730044437625106 -9.1318449631262961 8.5171192767207771 0.28704875242479982 3.3072060519166446 4.5020347090046009 8.1835698622875057 -1.5235221435807067 1.5720810950680255 1.2911995830789049 0.52250695833278527 -2.7831382966083797 -2.1136898099829349 -0.96878162902768505 -0.17924436430443388 2.73134629553789 0.03016061115909267 -1.0097436551325769 -4.9985794202181006 5.1509642204839823 -1.578878274001893 -3.5857860149429701 13.377829576516252 6.0654832801859921 3.384351528390543 10.232914730660044 -3.0997781540184812
leaf_count=2728 50 79 2035 775 780 290 1645 195 6971 4604 225 3753 6496 3274 2413 88 2245 124 138 3892 243 47 510 204 228 210
internal_value=0 20.9513 -8.09319 16.0847 16.5117 60.2986 -11.761 0.209425 12.4436 4.52027 3.06692 -9.51681 -11.5681 -5.24157 26.3746 -4.61633 -3.27667 -16.6543 25.5358 -15.8866 -21.8867 78.9549 46.939 44.2019 75.8348 -31.7939
internal_count=44242 12347 31895 10989 10939 1358 22122 9773 7746 5162 4829 15168 10249 4919 3193 4611 4280 6954 333 6620 331 565 793 714 518 334
shrinkage=0.12


Tree=12
num_leaves=29
num_cat=0
split_feature=2 2 2 2 2 1 6 9 5 0 6 11 1 1 1 6 2 21 6 10 5 6 0 4 6 6 12 12
split_gain=5.87704e+06 1.50804e+06 1.31444e+06 325955 275056 264608 247604 173801 162067 153002 148415 137731 133849 148699 100903 96473.8 83277.3 77098.4 76018.3 74018.8 69593.7 44763.7 36535.1 22280.1 15020.1 8811.54 8645.44 475.206
threshold=5.344475681483579 5.8632128745418148 5.0733788939463516 5.6167996000204647 4.8348174441105476 1.0000000180025095e-35 6.9851790688787379 1.0000000180025095e-35 11.664353644181576 1.5000000000000002 7.756409339243489 1.0000000180025095e-35 1.0000000180025095e-35 1.3918720653661192 6.5800579086804207 7.5727601205364659 6.2171176325498001 1.0000000180025095e-35 7.756409339243489 1.0000000180025095e-35 10.125630102515002 7.1037330777568206 1.5000000000000002 -2.9996599871988217 7.8133894102369252 6.4385510104182506 1.0000000180025095e-35 1.0000000180025095e-35
decision_type=2 2 2 2 2 2 2 2 2 2 2 2 2 2 2 2 2 2 2 2 2 2 2 2 2 2 2 2
left_child=2 3 4 5 9 -2 11 10 -7 14 -8 20 -6 -14 -1 19 23 -17 -11 -5 -4 22 -18 26 -9 -25 -3 -23
right_child=1 16 6 15 12 8 7 24 -10 18 -12 -13 13 -15 -16 17 21 -19 -20 -21 -22 27 -24 25 -26 -27 -28 -29
leaf_value=-1.4410778131240261 -9.2500423711306077 7.9174235657519132 1.6649935217801102 3.9912640222686298 -7.8390879046727742 1.8389527761929019 0.57245627051443027 -2.511150920512867 7.7862467756385572 -0.86155289832161341 -0.69410458016506194 -5.9205867558021046 0.79881242623335358 -0.81377505296545227 -2.296646483669293 2.219192369895906 6.9277726114825677 6.9984430577538221 -2.0057767912004132 6.9064542617817333 3.6747701833555211 13.289461602054795 10.126298399274749 8.0000945813934514 -5.246198624413589 5.6145490686480253 5.9886738747297494 10.567124947803777
leaf_count=4150 30 210 926 959 37 6071 6939 211 66 5059 1648 30 894 10337 3819 654 126 52 1002 146 340 34 103 30 34 245 58 32
internal_value=0 23.1146 -5.73782 18.8716 -9.59189 15.4039 3.88891 1.99406 15.8661 -12.547 2.74439 16.7921 -5.91174 -5.71129 -15.4275 30.6675 63.4526 21.4905 -8.75809 36.5104 18.39 77.1612 69.9756 55.901 -24.2245 49.1466 62.6619 100.944
internal_count=44242 8816 35426 7978 25298 6167 10128 8832 6137 14030 8587 1296 11268 11231 7969 1811 838 706 6061 1105 1266 295 229 543 245 275 268 66
shrinkage=0.12


Tree=13
num_leaves=29
num_cat=0
split_feature=2 2 2 8 1 5 6 6 0 6 1 6 10 6 9 5 5 5 6 5 4 5 6 2 5 6 6 5
split_gain=4.59159e+06 1.59851e+06 416580 363625 292755 290193 472449 232722 191961 183879 146962 130352 177382 114254 87982 79918.8 74816.3 69369.5 63506.4 49721.9 44379.1 36975.7 32106.4 26198 25831.8 18174.8 9649.21 7080.76
threshold=5.2204836853639813 5.6479112213533371 4.8359633840273881 1.0000000180025095e-35 1.0000000180025095e-35 10.651342126089007 7.2573551921260586 7.7408817459763046 1.5000000000000002 7.1102877930255497 1.0000000180025095e-35 7.7825987992135781 1.0000000180025095e-35 7.1955622733271403 1.0000000180025095e-35 9.1471334095483545 9.4122597651579749 9.7706699359072005 6.5316038380977854 10.53376010700484 -2.8895348499140643 9.2953699620870616 8.0476694342196335 6.2171176325498001 9.4304748871276125 8.12637034911962 7.1037330777568206 10.362493115609583
decision_type=2 2 2 2 2 2 2 2 2 2 2 2 2 2 2 2 2 2 2 2 2 2 2 2 2 2 2 2
left_child=2 4 11 18 -2 7 -7 -6 14 15 -11 12 20 -14 17 -10 25 -4 24 23 -1 -20 -18 -5 -3 -13 -21 -16
right_child=1 3 8 19 5 6 -8 -9 9 10 -12 16 13 -15 27 -17 22 -19 21 26 -22 -23 -24 -25 -26 -27 -28 -29
leaf_value=-1.5976302142534982 -7.7590187519029303 4.5720316688476066 -0.94782719724967157 6.0924843823022847 1.1662621796619193 6.1842969183776884 1.6987883168563793 -0.50502346481220839 0.33833684507573059 -7.2872093785366161 -0.22921680069675041 -2.943032902786193 -0.11936479736501332 -1.1297443643881024 -3.6249045163851239 2.082812019403335 -1.1351386961278274 -0.11529139133487179 1.2161894634936943 8.3795672997638313 -2.5069620073790784 3.5214206917308717 -2.5484550718469938 7.7309428766988724 7.4232715622278356 -5.1165202325061685 12.112213233353256 -1.5561929045249889
leaf_count=2765 51 148 6247 432 6761 371 3758 1458 763 42 5758 761 2171 6259 167 750 732 1874 113 33 1079 977 340 239 72 61 30 30
internal_value=0 14.6443 -7.08071 40.5502 10.3712 10.6853 17.5247 7.24795 -3.52069 0.216708 -2.34451 -11.0079 -9.81499 -7.24655 -6.80633 10.0316 -18.7304 -6.29795 30.5327 58.3751 -15.4448 27.3633 -13.2087 55.7061 46.076 -25.9105 85.7343 -27.6494
internal_count=44242 14443 29799 2044 12399 12348 4129 8219 15631 7313 5800 14168 12274 8430 8318 1513 1894 8121 1310 734 3844 1090 1072 671 220 822 63 197
shrinkage=0.12


Tree=14
num_leaves=31
num_cat=0
split_feature=2 2 2 6 5 1 5 6 18 6 5 6 21 9 2 0 6 18 0 1 2 5 2 0 6 6 5 4 3 5
split_gain=3.60211e+06 905418 787584 231278 316505 192798 182674 266879 185422 181684 188364 156586 152697 137468 125002 119315 114301 104128 94314.8 71664.3 69798.2 66871.2 49300.6 37542.9 34963.1 19740.7 18996 16678.4 10662 7199.47
threshold=5.344475681483579 5.8632128745418148 5.0534087684027602 7.1812115718282117 10.531429100451936 1.0000000180025095e-35 8.9408242641480999 7.576865848924859 1.0000000180025095e-35 7.2919966926741697 9.07394364199717 7.2622778468384972 1.0000000180025095e-35 1.0000000180025095e-35 5.5949735173662791 1.5000000000000002 6.8517137482728119 1.0000000180025095e-35 1.5000000000000002 1.3918720653661192 5.0733788939463516 8.5096363725112152 6.2171176325498001 1.5000000000000002 7.5139819503280583 7.1296980295274759 10.045418695710588 -2.9996599871988217 2.249904835165133 10.247957112701465
decision_type=2 2 2 2 2 2 2 2 2 2 2 2 2 2 2 2 2 2 2 2 2 2 2 2 2 2 2 2 2 2
left_child=2 3 6 4 14 -5 11 13 -9 10 20 21 -7 -8 -2 17 -6 -11 -12 -17 -4 -1 27 25 -13 -24 -25 28 -3 -29
right_child=1 22 9 5 16 12 7 8 -10 15 18 24 -14 -15 -16 19 -18 -19 -20 -21 -22 -23 23 26 -26 -27 -28 29 -30 -31
leaf_value=-2.0562232411745067 1.4432309259220872 5.4775904056431264 -7.0557299678079017 -7.4002006790891031 9.9702728130113716 1.342880994528217 -0.24661736744066054 -0.59042763766634032 -1.7479802199538661 0.22720781264695425 0.61104597637159774 -2.1021882378047501 5.5718505390232425 -2.9521243044791929 3.4560542282322602 1.1670488238733194 4.8712635393820243 -1.3344522515115593 1.8413204987222997 0.043190207274363721 -1.3003154647412651 -0.86405911451972794 5.2286591211412352 6.4062905265683323 -3.3325459836230431 8.6754618553562857 9.8245750770916427 4.9532726877655717 7.4958770383296294 3.5145050149750592
leaf_count=831 1130 212 34 35 90 5641 10232 3578 4501 1041 1820 1372 125 277 734 1125 223 1500 1772 2980 243 3676 134 42 444 32 87 192 56 83
internal_value=0 18.0976 -4.49069 14.8097 23.5991 11.5083 -7.55398 -5.97405 -10.2954 2.76646 8.21367 -12.1971 11.9611 -2.65132 18.6419 -0.405142 52.9952 -5.78968 10.1522 2.92818 -16.8782 -9.03514 49.3536 59.9068 -20.0366 49.4342 72.9894 43.5392 49.3394 37.7569
internal_count=44242 8816 35426 7978 2177 5801 24911 18588 8079 10515 3869 6323 5766 10509 1864 6646 313 2541 3592 4105 277 4507 838 295 1816 166 129 543 268 275
shrinkage=0.12


Tree=15
num_leaves=32
num_cat=0
split_feature=2 2 5 6 6 5 9 6 5 9 5 18 19 1 8 0 1 6 5 6 6 6 6 2 3 0 6 5 0 2 2
split_gain=2.80292e+06 805212 465207 441419 270528 201386 182755 180942 363494 152423 190073 144674 128456 115737 111700 98342.9 91599 90433.5 83824.9 64785.2 60789.8 60165.4 50821.8 40198 39649.2 34000.1 27398.7 29882.7 25159.7 17295.2 16360.6
threshold=5.2920829919657217 5.778325145088469 9.4122597651579749 7.7460844460118548 7.3476217619459261 9.0492898723150645 1.0000000180025095e-35 7.2573551921260586 10.742626897047067 1.0000000180025095e-35 11.138958759842811 1.0000000180025095e-35 1.0000000180025095e-35 1.837014069290728 1.0000000180025095e-35 1.5000000000000002 1.0000000180025095e-35 7.6762417892090227 9.7706699359072005 7.8896464503994101 6.8517137482728119 6.6207394291472461 8.000517139919717 5.4671793810892249 2.249904835165133 1.5000000000000002 6.8357219317121851 9.349014174640045 2.5000000000000004 6.1075655979673433 5.239372482586635
decision_type=2 2 2 2 2 2 2 2 2 2 2 2 2 2 2 2 2 2 2 2 2 2 2 2 2 2 2 2 2 2 2
left_child=2 7 4 6 5 15 12 8 18 10 -9 16 -4 19 26 -1 -5 -15 -2 -6 -10 -7 -13 -11 25 -16 28 -28 -3 -26 -8
right_child=1 14 3 11 13 21 30 9 20 23 -12 22 -14 17 24 -17 -18 -19 -20 -21 -22 -23 -24 -25 29 -27 27 -29 -30 -31 -32
leaf_value=-1.2531090453375893 1.1967960733667518 3.505620473426426 0.69250882331200914 -6.9314045499405772 -0.012881754673754324 4.0272222938669593 -2.4479976113629829 0.78480966543488162 11.463266642884069 -4.116061681925884 2.4899703836104949 -1.5357257821897838 -1.1775903572657123 -1.3885306298021278 4.1889281828832505 -0.36199255054314183 -0.45971009919353678 -2.3988388305468762 2.6751657462010598 -3.8776355179519704 5.9676411615345062 0.1245191802350617 -3.1674626760054561 -0.50651706173800037 5.861692080181502 6.087597146408787 0.67660576355003399 3.2516578594213725 6.5794964040205128 8.6036133829364925 -0.3789302900776399
leaf_count=4511 1534 216 8335 31 962 57 319 5682 36 97 1128 1081 564 5428 337 2951 3347 1671 865 66 171 3599 370 82 81 243 99 191 48 73 67
internal_value=0 13.9452 -4.53598 -0.175235 -7.73391 -4.52776 3.85774 10.7916 17.9031 8.13806 8.89603 -7.92919 4.78233 -12.1191 37.4158 -7.50657 -4.33964 -13.555 14.4217 -2.19936 58.036 1.55216 -16.2783 -20.6056 45.5214 41.5988 26.6249 19.81 34.0255 59.9983 -17.4219
internal_count=44242 10883 33359 14114 19245 11118 9285 9595 2606 6989 6810 4829 8899 8127 1288 7462 3378 7099 2399 1028 207 3656 1451 179 734 580 554 290 264 154 386
shrinkage=0.12


Tree=16
num_leaves=27
num_cat=0
split_feature=2 2 2 9 6 1 1 6 5 18 5 6 5 5 6 0 6 4 6 5 2 6 0 1 12 4
split_gain=2.21715e+06 633922 441854 180958 152530 152220 211462 148500 208745 135557 125590 231579 122542 106517 150346 119748 102900 65089.1 32569 31943.4 26144.6 25090.5 22022.8 13464.7 12565.5 6179.42
threshold=5.4510809983116717 5.0733788939463516 5.9262652100808078 1.0000000180025095e-35 6.8517137482728119 1.3918720653661192 1.0000000180025095e-35 7.7014262717498374 9.6197895649089364 1.0000000180025095e-35 8.9259805708837376 7.4256557720523473 10.687673426276966 11.043920837055831 7.3215191352639177 1.5000000000000002 7.1471657253210461 -2.2116288492621119 7.3527615103795085 9.201551070839038 5.3115117440357382 7.2573551921260586 1.5000000000000002 3.6035896143025741 1.0000000180025095e-35 -2.2043733297487145
decision_type=2 2 2 2 2 2 2 2 2 2 2 2 2 2 2 2 2 2 2 2 2 2 2 2 2 2
left_child=1 5 4 7 12 6 -1 8 -3 -9 16 -12 19 15 -15 -6 -7 -8 21 -2 24 22 -4 -20 -5 -22
right_child=2 3 18 20 13 10 17 9 -10 -11 11 -13 -14 14 -16 -17 -18 -19 23 -21 25 -23 -24 -25 -26 -27
leaf_value=-7.019713348041881 1.4284627220436641 -0.12388574748967179 4.1021786286897726 -1.4070970019701736 0.27676137453268296 -0.81213574908389929 0.3839425905085877 0.23250542753484044 1.0889166219968012 -1.4872698354866669 -0.080452347568603352 -0.96596716649666692 9.6570346483393532 7.2313144205242805 2.0377775493962691 1.6659096101768658 -1.815391890684807 2.6256277935301302 9.2531180539945286 3.2175609433829568 -3.4784479020623604 1.1299599658049546 5.573354073765584 5.435600970547374 -3.5083030397148542 -5.9207755113997544
leaf_count=52 186 3131 372 165 1485 3396 1303 2152 5882 951 7082 10646 39 86 1100 2245 2602 217 32 665 40 30 265 32 55 31
internal_value=0 -2.93793 17.0102 2.91692 14.0889 -5.80938 3.71845 3.50942 5.5635 -2.45653 -6.4408 -5.10205 26.1341 11.9042 20.159 9.27551 -10.3963 5.87707 40.1711 23.5695 -21.6915 38.0064 39.3382 61.9709 -16.197 -38.3353
internal_count=44242 37705 6537 12407 5806 25298 1572 12116 9013 3103 23726 17728 890 4916 1186 3730 5998 1520 731 851 291 667 637 64 220 71
shrinkage=0.12


Tree=17
num_leaves=29
num_cat=0
split_feature=2 2 5 6 6 1 1 5 6 5 18 9 21 6 1 6 6 2 6 1 5 13 12 4 4 2 6 0
split_gain=1.72424e+06 431535 404112 243212 230807 220105 158790 127592 125528 178830 130459 113798 82770.4 98744.4 77760 74157.3 69143.4 49873.3 49796.1 35324.2 24495.1 27495.7 23756.3 63118.2 25150.6 18993.8 12724.1 9767.82
threshold=5.344475681483579 5.7981123411994036 9.5662635009723989 7.6106052043540453 7.6762417892090227 1.3918720653661192 1.0000000180025095e-35 9.0492898723150645 7.7867594045217929 10.985927912471483 1.0000000180025095e-35 1.0000000180025095e-35 1.0000000180025095e-35 8.0269868415252024 7.6471977861039191 6.8357219317121851 7.1037330777568206 6.2171176325498001 7.9267830720221824 5.6088347100423794 10.267261856174768 1.0000000180025095e-35 1.0000000180025095e-35 -3.3019616187641923 -2.9081114129650079 5.0392597213015673 7.4526923903445494 1.5000000000000002
decision_type=2 2 2 2 2 2 2 2 2 2 2 2 2 2 2 2 2 2 2 2 2 2 2 2 2 2 2 2
left_child=2 6 4 11 5 16 -2 -7 9 -8 -10 15 13 -5 18 -4 -1 22 -6 -14 27 -22 24 -24 -3 -16 -13 -19
right_child=1 17 3 12 14 7 8 -9 10 -11 -12 26 19 -15 25 -17 -18 20 -20 -21 21 -23 23 -25 -26 -27 -28 -29
leaf_value=3.5200253262987382 -6.7876257364043981 3.9643024857832172 2.2209700656929656 -0.15412615627802592 -1.0353359779570568 -0.91794698837692956 1.3000139942338755 -0.28987898301183884 0.89420647840192757 3.3865335221401218 -1.6052691747017307 -2.3730460111898122 5.977629802567618 -1.3380345644391749 -2.6029870772733879 0.71589995383179705 0.7183425829010206 3.2589609581293644 -2.2367728229558206 1.4619823333525863 5.140563285909332 9.2257872763923974 -2.0866767854553663 3.1955649062191367 1.8963920619875363 -5.0159691004607492 -0.57101579547743053 5.147953364135045
leaf_count=143 35 498 519 4824 2162 9543 4105 9101 2557 691 340 164 30 1284 547 5102 1085 96 646 137 85 36 41 149 105 52 87 78
internal_value=0 12.5228 -3.10518 1.5703 -5.54486 -4.24067 9.89538 -5.09491 10.2037 13.3431 5.00388 6.19558 -2.75804 -3.35968 -13.1488 7.1265 8.72295 31.1634 -10.9361 19.1532 42.3142 53.4117 26.9757 17.0937 30.0614 -23.4919 -14.6051 34.3832
internal_count=44242 8816 35426 12147 23279 19872 7728 18644 7693 4796 2897 5872 6275 6108 3407 5621 1228 1088 2808 167 295 121 793 190 603 599 251 174
shrinkage=0.12


Tree=18
num_leaves=26
num_cat=0
split_feature=2 5 8 6 1 6 1 9 5 1 6 5 5 1 5 5 5 6 6 2 3 5 0 6 2
split_gain=1.36464e+06 415478 274385 234159 215938 202867 197352 161896 133467 120998 120945 115452 103450 101847 92596 90171.2 73749.7 47409.2 35966.8 34219.1 26487 24382.3 23897.4 16287.2 14208.6
threshold=5.4510809983116717 9.6582249200528647 1.0000000180025095e-35 7.8133894102369252 1.3918720653661192 7.509061218325435 1.0000000180025095e-35 1.0000000180025095e-35 8.9176443548162485 7.1206588036204517 6.8517137482728119 10.53376010700484 11.475223462996274 0.86429506858956606 10.565852841399192 12.104556686302004 9.8402805901082999 7.1037330777568206 7.3215191352639177 5.3115117440357382 2.602003343538398 9.201551070839038 2.5000000000000004 7.5414177775092108 6.0715888525524377
decision_type=2 2 2 2 2 2 2 2 2 2 2 2 2 2 2 2 2 2 2 2 2 2 2 2 2
left_child=1 4 10 7 6 8 -1 11 -6 -7 14 -3 13 -5 21 16 -12 -8 22 -9 -14 -2 24 -20 -4
right_child=2 3 18 12 5 9 17 19 -10 -11 15 -13 20 -15 -16 -17 -18 -19 23 -21 -22 -23 -24 -25 -26
leaf_value=-6.4574851464877163 1.0993144510338595 0.62080956818254873 2.2174006429770312 -4.0730786415992464 -0.9374437341008397 -0.88050851374352956 2.9189058719985486 -1.3650120622026742 -0.19015960572883281 -1.9902653934066752 0.08055959573917594 2.0609507809989287 1.7767286259583808 -0.45452562301881655 7.8156931197337611 7.2702193024313662 1.2729497481372052 0.67618663258092793 7.7071993111341426 -4.6766397381183387 6.5143336601934489 2.6627489536046696 5.9237802498793073 3.9170335374559677 3.6005876181060801
leaf_count=54 186 6817 147 115 4878 5523 146 283 11687 1903 921 908 36 3444 46 33 3958 1825 46 53 33 659 54 30 457
internal_value=0 -2.30408 13.3459 2.64804 -4.52911 -5.36616 5.38555 5.65058 -3.41881 -9.70911 11.0385 6.58577 -4.02279 -4.76972 21.7556 9.09111 8.73278 7.029 31.5554 -15.8128 34.1051 19.3341 29.1046 52.2393 27.2291
internal_count=44242 37705 6537 11689 26016 23991 2025 8061 16565 7426 5803 7725 3628 3559 891 4912 4879 1971 734 336 69 845 658 76 604
shrinkage=0.12


Tree=19
num_leaves=32
num_cat=0
split_feature=2 5 6 2 6 0 18 1 5 6 21 4 4 8 1 0 1 6 6 19 6 16 6 1 6 4 3 21 5 4 5
split_gain=1.05764e+06 333264 292371 218241 192853 126603 122410 111609 105774 93905.2 87362.5 84953.2 81199.2 76571.5 68191.6 55910.4 104732 88522 54824.4 49187.7 46148.5 42762.9 41625.6 35867 33461.1 31411.6 30578.6 27705.2 22875.2 6327.16 5626.83
threshold=5.4510809983116717 9.3834526360081298 7.5890828507392163 5.6182694269009943 7.2782837576331731 1.5000000000000002 1.0000000180025095e-35 6.4077557412337969 8.7660025895555922 6.8357219317121851 1.0000000180025095e-35 -2.8022668817664216 -2.5546382196053954 1.0000000180025095e-35 6.6629232772652554 1.5000000000000002 8.5987621070786506 7.5566892707265767 8.1674938511512227 1.0000000180025095e-35 6.8040598888354813 1.0000000180025095e-35 8.2034408818666176 1.3918720653661192 6.4385510104182506 -2.2739577207888626 2.249904835165133 1.0000000180025095e-35 9.7995140003196664 -3.0398812371464135 9.4304748871276125
decision_type=2 2 2 2 2 2 2 2 2 2 2 2 2 2 2 2 2 2 2 2 2 2 2 2 2 2 2 2 2 2 2
left_child=1 4 5 15 8 11 10 -8 20 -7 -4 -3 -10 24 23 16 18 -18 -2 -16 -1 22 -17 -6 30 -23 28 -26 -15 -28 -5
right_child=3 2 6 13 14 9 7 -9 12 -11 -12 -13 -14 26 19 21 17 -19 -20 -21 -22 25 -24 -25 27 -27 29 -29 -30 -31 -32
leaf_value=0.31149350881789006 -0.021870275235805595 0.85183965358486879 -0.088275041341090155 2.9899208057997471 0.060988737911869068 2.9590710019785056 -0.32013453815396131 -1.6679020391641171 0.12596682195744593 0.90846936869655581 2.4198098124180354 -0.26773698188009604 -1.6478280974642281 1.9509028274144813 -1.3328484577904143 1.2872698832907312 2.9727447402510498 0.29447796239592733 -2.4612101231989003 -4.3140614822499614 -1.0524000233757305 0.041290207170170443 -0.67657815598763549 -0.84498599907694549 1.6106750899509299 4.2718615758172511 3.4289338340941802 4.0985027333487443 3.5190041631961368 5.3321065747774545 4.7589631173070028
leaf_count=420 929 1556 6070 66 718 348 2131 1513 6599 4164 206 2615 393 220 3444 1994 322 396 154 81 2374 33 168 5073 1513 108 41 67 360 113 53
internal_value=0 -2.02773 0.984836 11.7499 -4.96156 5.22199 -2.724 -7.33334 -1.86103 8.89288 -0.0469818 1.24986 0.217301 19.2535 -8.21798 7.29843 3.12199 12.4808 -3.08657 -11.6862 -7.06093 10.5619 9.45358 -6.10541 15.5517 27.4019 27.7947 14.3188 24.399 40.3865 31.7094
internal_count=44242 37705 18603 6537 19102 8683 9920 3644 9786 4512 6276 4171 6992 2433 9316 4104 1801 718 1083 3525 2794 2303 2162 5791 1699 141 734 1580 580 154 119
shrinkage=0.12


Tree=20
num_leaves=25
num_cat=0
split_feature=2 2 0 1 6 19 6 5 1 5 20 1 6 4 16 2 6 6 21 5 3 0 6 2
split_gain=847918 332380 168634 133437 118880 112495 108629 122920 105107 97397.6 88330.3 92612.6 71212.3 64655 64503.2 61980 48259.5 41889.6 51866.1 35433.7 31970 21718.7 15796.1 12435.3
threshold=5.2204836853639813 5.6182694269009943 1.5000000000000002 1.0000000180025095e-35 7.1102877930255497 1.0000000180025095e-35 6.7895344892530387 11.286338442712701 1.0000000180025095e-35 10.589605554470554 1.0000000180025095e-35 6.5800579086804207 8.0581690536915236 -2.2689390031645744 1.0000000180025095e-35 4.61023072586711 6.8040598888354813 7.7347775191887687 1.0000000180025095e-35 9.6966168274173281 2.0126758453675748 2.5000000000000004 8.318010247759096 4.2253198460568022
decision_type=2 2 2 2 2 2 2 2 2 2 2 2 2 2 2 2 2 2 2 2 2 2 2 2
left_child=2 3 10 -2 15 8 9 -8 -6 -5 11 12 -1 -13 17 23 -17 19 -19 -3 -7 22 -16 -4
right_child=1 14 4 6 5 20 7 -9 -10 -11 -12 13 -14 -15 21 16 -18 18 -20 -21 -22 -23 -24 -25
leaf_value=-0.25222197244709554 -5.6410221747338296 1.3980398608120672 -2.4872039614736505 1.4564942268505849 -5.4697130533665081 -5.3364842538563186 0.32018115854508966 1.9642654251479119 -0.15197680338801306 6.207224250177366 -6.9429267080774846 -0.82042523788576538 -1.6321869016977559 -2.1881634667892875 3.1940157478076165 1.9602808199716746 0.5911399866442556 -0.10894574016475611 3.9148832649906189 2.5254936747918002 -1.9867162831894207 5.5029403505688306 0.36407036974885554 -0.60043544638890767
leaf_count=8127 50 775 67 764 53 64 10431 698 10473 67 31 7087 576 535 382 454 2016 291 54 843 117 57 31 199
internal_value=0 6.29581 -3.04006 4.13593 -0.415945 -1.9193 4.35294 3.52866 -1.49313 15.377 -5.19664 -5.09376 -2.86422 -7.63884 16.9524 5.46579 7.02823 14.4212 4.40161 16.554 -26.583 27.48 24.8579 -9.01722
internal_count=44242 14443 29799 12010 13443 10707 11960 11129 10526 831 16356 16325 8703 7622 2433 2736 2470 1963 345 1618 181 470 413 266
shrinkage=0.12


Tree=21
num_leaves=31
num_cat=0
split_feature=2 2 5 6 6 9 6 5 0 5 6 5 5 18 10 5 16 4 19 6 5 6 5 1 4 4 0 2 5 5
split_gain=656935 257640 133066 154005 127178 114699 107752 157480 96403.2 116521 82099.2 80597.9 74880.2 73498.3 67874.8 54489.3 50058.4 45294.9 43719 39042.2 38923.4 36627.7 58166.1 44982.9 33748.2 20382 18497.7 15537.9 11388.6 8075.52
threshold=5.2204836853639813 5.6182694269009943 9.1708187683059581 7.8495187878227162 7.1895449545830656 1.0000000180025095e-35 7.311552274248398 10.464173622721107 1.5000000000000002 11.463208630112488 7.342455459958285 10.687673426276966 11.286338442712701 1.0000000180025095e-35 1.0000000180025095e-35 9.5627547146430754 1.0000000180025095e-35 -2.6462607840899754 1.0000000180025095e-35 7.8896464503994101 9.8139709428827455 7.2524081849530022 10.464173622721107 8.5050873402112561 -2.8924213069692075 -2.4350695671183966 1.5000000000000002 6.2443679776594587 9.8528517204392347 10.461314429797609
decision_type=2 2 2 2 2 2 2 2 2 2 2 2 2 2 2 2 2 2 2 2 2 2 2 2 2 2 2 2 2 2
left_child=2 6 4 5 14 10 7 15 9 -8 -4 -10 -9 20 24 -2 21 -16 19 -6 -5 22 -3 -23 -1 -15 28 -28 -18 -7
right_child=1 16 3 13 18 29 8 12 11 -11 -12 -13 -14 25 17 -17 26 -19 -20 -21 -22 23 -24 -25 -26 -27 27 -29 -30 -31
leaf_value=-0.36136417868916831 0.043740618533099844 1.794389859655678 0.63908513000569567 -1.0349403298240636 -0.86619936860160673 -1.924541287181353 -0.46573910448518907 2.3441505118609705 0.18804899712086828 3.4122247977083826 -0.034064772874494401 1.2077391288404224 8.0784565134706163 -1.4842416479186897 0.34986045473624405 1.0603112544623376 0.40850394078663416 -1.0575748483261069 -4.2586053153830514 -2.5564230965250911 -0.0093004301660796988 0.066382491076635616 7.0870049657450087 1.9518584732754862 -1.2296561393261258 -3.4974905779700589 2.6919020220759795 4.7310233773559816 2.5502031099480251 0.078227957059752259
leaf_count=2472 1365 1186 3760 892 6996 415 3057 629 3449 115 8518 1650 34 994 2819 1711 44 372 56 202 1322 433 30 314 872 78 116 109 201 31
internal_value=0 5.54153 -2.67596 -0.714709 -4.95287 0.861472 3.63992 8.09434 1.62556 -2.70241 1.43417 4.31808 22.0645 -6.81694 -1.75272 5.078 14.9238 1.54609 -7.83521 -7.61604 -3.52324 12.6939 16.0801 7.16923 -4.90045 -13.611 24.1982 30.7786 18.0712 -14.8769
internal_count=44242 14443 29799 16010 13789 12724 12010 3739 8271 3172 12278 5099 663 3286 6535 3076 2433 3191 7254 7198 2214 1963 1216 747 3344 1072 470 225 245 446
shrinkage=0.12


Tree=22
num_leaves=31
num_cat=0
split_feature=2 0 6 19 1 6 5 4 5 1 16 6 6 21 9 1 6 6 13 5 1 2 14 5 4 5 5 6 5 6
split_gain=510934 213132 127214 151537 111773 106287 139570 109175 94643.4 90989.5 81828.5 75811.2 75429.2 160283 65597 62961.2 70806.8 55340.1 54415.1 46221.9 39250.5 31734 30983 28862.5 28240.2 28063 27293.5 15187.3 13048.6 9654.79
threshold=5.4510809983116717 1.5000000000000002 6.8517137482728119 1.0000000180025095e-35 1.0000000180025095e-35 7.2524081849530022 10.742626897047067 -2.0657704928902851 9.1708187683059581 0.86429506858956606 1.0000000180025095e-35 7.3585123255376939 8.2894139038122301 1.0000000180025095e-35 1.0000000180025095e-35 4.3718021196056496 6.6207394291472461 7.1812115718282117 1.0000000180025095e-35 8.3156467294346843 6.5800579086804207 5.6184769102901138 1.0000000180025095e-35 10.205440575927131 -2.2195126075936824 9.9534667779080461 9.0782355138428645 7.0383447524178626 11.035695465974401 7.4676566996017071
decision_type=2 2 2 2 2 2 2 2 2 2 2 2 2 2 2 2 2 2 2 2 2 2 2 2 2 2 2 2 2 2
left_child=1 8 18 4 -4 6 15 28 17 -10 12 -11 14 -14 -7 21 -17 19 26 -1 -19 -2 -5 29 -25 -20 -3 -9 -8 -12
right_child=5 2 3 22 -6 10 7 27 9 11 23 -13 13 -15 -16 16 -18 20 25 -21 -22 -23 -24 24 -26 -27 -28 -29 -30 -31
leaf_value=-2.0669759275741257 0.92849819999380301 0.17542364232589042 -4.4591726315859699 -2.9023961838187216 0.12935403484916441 0.64863376205721834 6.6113623694734205 3.8836539376720673 -5.3375451322348724 0.27204898178199549 -1.1804551823629716 -0.40023061870590609 -3.7426652684366819 3.7497651734916113 -2.2944275755007215 1.9753438210203906 -0.32597031776687629 -0.70173596168283037 2.3024738882740783 -0.32336780476682347 -1.4286214638941748 2.1648769978835429 -0.47615683665854391 3.6274894467847236 1.4501052062658231 5.5326457028511244 1.6921618825911606 0.97069062205996826 10.355782836716751 1.4847918471305266
leaf_count=232 418 373 76 291 16536 3299 35 50 49 3462 41 7985 156 55 112 302 528 2236 248 3696 2057 1068 103 189 160 46 315 54 34 36
internal_value=0 -1.40875 1.08036 0.441003 0.901183 8.16734 13.3092 40.6521 -3.67958 -1.82654 5.00355 -1.64079 3.45921 -14.8535 4.59546 11.2531 4.26963 -6.27029 12.1424 -3.55646 -8.75207 15.1487 -18.9218 18.1011 21.9595 23.5154 7.25966 19.9252 71.2947 0.557124
internal_count=44242 37705 17988 17006 16612 6537 2489 173 19717 11496 4048 11447 3622 211 3411 2316 830 8221 982 3928 4293 1486 394 426 349 294 688 104 69 77
shrinkage=0.12


Tree=23
num_leaves=30
num_cat=0
split_feature=2 6 5 1 1 21 16 6 5 6 19 5 6 5 2 0 5 4 6 1 4 3 6 1 6 0 6 4 5
split_gain=416913 154053 138428 120459 135821 115739 113689 158894 97884.4 91072.7 156865 96926.3 85675.5 84016 73229.4 56109.9 55092.2 51760.3 44368.9 40394 39705.1 38709.1 35462.2 33263.5 29536.5 23231.2 16656.9 14210 3303.23
threshold=5.2204836853639813 7.5451254091351414 9.5662635009723989 1.3918720653661192 1.0000000180025095e-35 1.0000000180025095e-35 1.0000000180025095e-35 8.2894139038122301 11.003763736250578 7.0035197977545716 1.0000000180025095e-35 9.1708187683059581 6.7633072077471583 8.5096363725112152 5.650563269595124 2.5000000000000004 10.93377616455285 -2.2885895698235927 6.9851790688787379 2.2200899629856092 -3.0413947093119562 1.8688348091416842 7.1176108538148393 9.1532893122561774 7.8369622166328723 2.5000000000000004 8.12637034911962 -2.4627848579945453 9.5627547146430754
decision_type=2 2 2 2 2 2 2 2 2 2 2 2 2 2 2 2 2 2 2 2 2 2 2 2 2 2 2 2 2
left_child=3 2 12 4 28 6 7 -3 14 13 11 -11 25 27 -4 -15 26 22 -10 -18 -14 -12 -6 -8 -19 -2 -7 -5 -1
right_child=1 5 8 9 17 16 23 -9 18 10 21 -13 20 15 -16 -17 19 24 -20 -21 -22 -23 -24 -25 -26 -27 -28 -29 -30
leaf_value=-5.7563786675794519 0.77841135051485832 -0.016603894723685352 0.86056409348834828 -0.94285866580449473 2.3989180730611355 2.4314100070891342 1.2381351999148738 -3.2474709171632381 7.2445827350945304 -0.63636957920619341 -3.8179106011655182 -0.14665333696301128 0.44821651615784192 0.29139541677880892 1.9932871604485678 1.808608922587823 1.3392878619630133 2.4146195818801006 2.7067389073391643 6.1184723562747241 -0.92614101936420345 -1.6312789483054353 0.34506449031288849 4.003213547960681 -1.3232991341020934 2.4660107198756904 0.0042132743199666343 -3.389726192640222 -3.7565115178864579
leaf_count=31 697 5805 3885 521 130 73 566 227 34 10438 201 13156 450 2565 1043 406 39 329 325 76 921 282 1637 70 33 141 91 36 34
internal_value=0 4.41519 7.55902 -2.13118 4.99918 1.02232 0.186108 -1.15517 10.3364 -2.69805 -3.39334 -3.02769 0.909928 2.04645 9.17172 4.15994 20.947 6.38024 26.2661 37.6582 -3.95809 -21.2188 4.14367 12.8939 17.262 8.87132 9.09794 -9.21509 -39.7512
internal_count=44242 14443 7496 29799 2194 6947 6668 6032 5287 27605 24077 23594 2209 3528 4928 2971 279 2129 359 115 1371 483 1767 636 362 838 164 557 65
shrinkage=0.12


Tree=24
num_leaves=31
num_cat=0
split_feature=5 6 6 9 1 3 6 19 5 5 1 4 0 1 6 6 1 5 11 4 6 2 12 6 6 4 18 12 6 4
split_gain=336141 220519 147717 126573 121087 105398 104455 132564 99860.1 92719.6 81069.3 78990.5 50041.8 46789.9 44662.1 42775.1 40939.6 36861.6 34296.5 34162.8 31980.5 26625.9 24232 17663.9 13723.8 13489.6 11789.3 11494.5 4953.43 4201.88
threshold=9.6582249200528647 7.2622778468384972 7.756409339243489 1.0000000180025095e-35 1.0000000180025095e-35 2.0126758453675748 6.7244330414940263 1.0000000180025095e-35 9.1708187683059581 10.565852841399192 3.6035896143025741 -2.2689390031645744 2.5000000000000004 0.86429506858956606 6.9082550291486795 7.134492286379376 7.7669382315192257 11.063116466176778 1.0000000180025095e-35 -2.2466420058540764 8.12637034911962 5.0392597213015673 1.0000000180025095e-35 7.6150518522684445 8.0091968808498901 -2.2623295847800819 1.0000000180025095e-35 1.0000000180025095e-35 8.2442026590759419 -2.2219118729971732
decision_type=2 2 2 2 2 2 2 2 2 2 2 2 2 2 2 2 2 2 2 2 2 2 2 2 2 2 2 2 2 2
left_child=2 9 6 4 29 -6 12 8 -8 10 19 -12 18 -14 22 -9 20 -16 -1 -2 26 24 -11 25 -18 -5 -4 -25 -22 -3
right_child=1 3 16 23 5 -7 7 15 -10 14 11 -13 13 -15 17 -17 21 -19 -20 -21 28 -23 -24 27 -26 -27 -28 -29 -30 -31
leaf_value=0.66909608467773507 2.1814178647539366 -5.8250767682251325 -0.40798970507899951 -0.16326628647120714 -1.0283171324505962 0.38419634709729172 -0.39560123819187304 -1.1939028287229498 0.11537786564387932 5.702042177813536 1.3153233189305136 0.0024584138839426964 -1.393038991586022 3.3238777888015627 1.4714505894060523 -3.2011605321472651 -1.4843626609622245 4.5500326242184235 -2.429815929201899 5.3412273456360575 -1.8777481920558672 -5.1780169891712058 1.866079703985587 -2.0835349927953817 -3.3751254126379049 -1.9169777576751015 -0.97136196027514521 -4.257600260269947 -3.1653285722721085 -3.6247455537009547
leaf_count=1172 301 35 841 121 812 11867 12673 467 9739 95 1670 1091 36 177 277 228 271 70 53 59 124 39 33 160 70 132 1481 46 72 30
internal_value=0 3.52844 -2.15109 1.63725 2.22527 2.44723 -1.3537 -1.86843 -1.44632 10.4699 8.48435 6.63946 6.91327 21.0331 23.4785 -15.4622 -8.90213 17.515 4.44537 22.5853 -7.437 -18.5724 39.4297 -14.6628 -15.6647 -9.01486 -6.3964 -21.5339 -19.6847 -40.5618
internal_count=44242 16799 27443 13203 12744 12679 24545 23107 22412 3596 3121 2761 1438 213 475 695 2898 347 1225 360 2518 380 128 459 341 253 2322 206 196 65
shrinkage=0.12


Tree=25
num_leaves=31
num_cat=0
split_feature=5 6 4 18 5 6 17 1 6 0 4 9 6 5 1 19 6 1 1 6 5 0 5 3 0 4 6 1 2 5
split_gain=268476 163649 170415 163809 157541 142795 116048 152400 124508 106048 176141 97694.6 94222.5 80826.8 66541.4 57827.1 48200 42064 40069.3 37225.8 28804.5 27110.8 23831.9 24685 16878.7 15669.2 14371 12493.7 9927.89 2138.23
threshold=9.7706699359072005 7.8432602105340861 -2.8031125964371788 1.0000000180025095e-35 10.455933815848761 7.6725251761356335 1.0000000180025095e-35 0.86429506858956606 8.2894139038122301 1.5000000000000002 -2.5296727129782774 1.0000000180025095e-35 6.8357219317121851 9.0492898723150645 1.3918720653661192 1.0000000180025095e-35 8.000517139919717 9.1532893122561774 7.8252643136726769 8.222956340987599 9.349014174640045 2.5000000000000004 10.17827027857709 2.602003343538398 2.5000000000000004 -3.0583354312475084 7.9907461724176256 6.3180655209374281 5.0392597213015673 9.2362510119654981
decision_type=2 2 2 2 2 2 2 2 2 2 2 2 2 2 2 2 2 2 2 2 2 2 2 2 2 2 2 2 2 2
left_child=5 2 22 6 14 9 7 -3 -8 10 13 -6 21 -1 -4 -14 18 -12 20 26 -7 -11 23 -2 -24 29 -5 -27 -20 -18
right_child=1 3 4 19 11 16 8 -9 -10 12 17 -13 15 -15 -16 -17 25 -19 28 -21 -22 -23 24 -25 -26 27 -28 -29 -30 -31
leaf_value=-0.54108750170105435 1.7877332030871311 -5.8313703140915862 1.2214976510285798 -1.2190282942324775 1.3070919916482224 -0.94688374494175676 0.011998518007628814 1.5737289300006783 -2.5889132293341408 0.84734145193445298 -1.6599992072161662 -1.4213760241479181 0.11581517587017499 0.066083868242351157 -0.12602596878580946 -1.5760477103186574 -0.78819008359833365 -3.9264217109064896 -1.2622266783040421 -5.2217553100830472 -0.23110702025578705 2.1440263513160618 2.3653721073458667 0.094708421651130067 4.7309154894981242 -1.5429084903819683 -2.4624753674840139 -2.7468680325758319 -2.4295850104892285 0.40351100369701237
leaf_count=5790 1166 41 604 358 2999 1224 2991 950 290 865 586 201 9810 6941 4138 299 37 148 457 46 2392 318 261 139 53 572 217 161 138 50
internal_value=0 3.5408 5.94778 -1.16251 4.04061 -1.71145 1.04439 10.5234 -1.8203 -0.724333 -2.61961 9.4614 1.53562 -1.75053 0.381402 0.547031 -6.56791 -17.6741 -5.19987 -16.3274 -3.94647 9.97663 15.2963 13.397 23.133 -13.5804 -14.0936 -15.0849 -12.8003 -0.873123
internal_count=44242 14454 9561 4893 7942 29788 4272 991 3281 24757 13465 3200 11292 12731 4742 10109 5031 734 4211 621 3616 1183 1619 1305 314 820 575 733 595 87
shrinkage=0.12


Tree=26
num_leaves=29
num_cat=0
split_feature=2 0 6 5 20 12 5 12 6 19 0 6 5 16 6 18 5 1 6 4 5 17 6 6 5 1 17 17
split_gain=214404 124761 90527.9 105587 80123.2 77820.5 90263.1 68997.4 54204.9 52819 48195.5 62122.1 55174.4 49019.1 52859.9 45469.6 41319.4 33633.5 33537 28497.1 41576.9 24048.6 21550.1 17824.3 16279.8 16093.2 13376.8 7037.37
threshold=5.4545425440309581 1.5000000000000002 7.756409339243489 9.4304748871276125 1.0000000180025095e-35 1.0000000180025095e-35 11.514173905069525 1.0000000180025095e-35 7.1029107091503816 1.0000000180025095e-35 1.5000000000000002 8.000517139919717 11.228731199386662 1.0000000180025095e-35 6.5316038380977854 1.0000000180025095e-35 11.043920837055831 6.5800579086804207 8.1390027147901964 -2.249116196077658 10.960409036734715 1.0000000180025095e-35 8.2442026590759419 8.12637034911962 10.022380466561669 1.3918720653661192 1.0000000180025095e-35 1.0000000180025095e-35
decision_type=2 2 2 2 2 2 2 2 2 2 2 2 2 2 2 2 2 2 2 2 2 2 2 2 2 2 2 2
left_child=1 4 3 8 5 6 -1 10 -3 -5 11 16 -13 14 -12 21 -2 -7 -17 20 22 -4 -9 25 -15 -21 -25 -22
right_child=7 2 15 9 -6 17 -8 19 -10 -11 13 12 -14 24 -16 18 -18 -19 -20 23 27 -23 -24 26 -26 -27 -28 -29
leaf_value=-0.20027278037971094 0.48079101006598474 0.46189600158047517 1.0008751624944257 0.69604600080439361 -6.154885709680749 -0.40618073001535515 5.5947764114989456 0.19463197826978754 -0.23591277483299358 -0.66678907637255991 3.2423812184458112 -1.8372108497832313 0.91350313515971893 1.1015977433374373 0.87642515995681536 -0.85290479359061622 1.9182276364508961 -1.1003282578322895 -3.6560769700562514 1.4594694352323991 4.5769692056829276 -0.24157098439068192 -2.9441042100583634 -0.52687355927058621 3.2368755737253974 -0.75876957259615152 -3.227741495033281 1.9607862815066912
leaf_count=15644 1555 2215 254 6156 33 1887 38 793 5795 438 144 283 166 70 2282 1240 353 2155 64 54 30 1875 32 44 207 335 67 33
internal_value=0 -0.905716 0.995776 2.08202 -2.64168 -2.55817 -1.5495 5.33286 -0.357578 5.0453 7.04591 3.73848 -6.83511 9.92771 8.48269 -3.62429 6.22896 -6.47029 -8.27262 -0.911982 2.48719 -0.774798 0.583639 -6.94483 22.5196 -3.73525 -18.0785 27.0822
internal_count=44242 37794 18037 14604 19757 19724 15682 6448 8010 6594 5060 2357 449 2703 2426 3433 1908 4042 1304 1388 888 2129 825 500 277 389 111 63
shrinkage=0.12


Tree=27
num_leaves=30
num_cat=0
split_feature=5 6 6 5 9 3 6 4 1 1 4 6 6 3 5 6 5 4 5 6 13 6 5 5 0 2 2 6 2
split_gain=180916 144076 118631 90280.9 87265.9 88066 102882 80736.2 91547.4 73182.7 66788.4 61215.8 49174.3 48043.3 52616.9 44131.5 39902.8 39239.5 37348.5 54905.3 30866.8 22041.3 21734.6 28736.2 21621.9 20613.8 17983.2 13368 1836.28
threshold=9.7706699359072005 7.134492286379376 7.4292240187943674 9.0782355138428645 1.0000000180025095e-35 2.0126758453675748 7.7666287175525852 -2.8022668817664216 3.8151391385171745 7.1206588036204517 -2.4394964285726464 7.1955622733271403 6.5316038380977854 2.0126758453675748 10.565852841399192 7.9267830720221824 9.349014174640045 -2.5296727129782774 8.5096363725112152 7.0098604000079341 1.0000000180025095e-35 7.8688281353415954 11.389372018776376 11.157320803281053 1.5000000000000002 4.7908596700244956 4.2253198460568022 8.2442026590759419 5.9262652100808078
decision_type=2 2 2 2 2 2 2 2 2 2 2 2 2 2 2 2 2 2 2 2 2 2 2 2 2 2 2 2 2
left_child=2 12 3 18 5 10 -7 11 -9 15 -3 -5 20 14 -14 16 -4 21 26 -20 28 -11 23 -6 -15 -19 -1 -17 -2
right_child=1 4 9 7 22 6 -8 8 -10 17 -12 -13 13 24 -16 27 -18 25 19 -21 -22 -23 -24 -25 -26 -27 -28 -29 -30
leaf_value=-2.3926324338280334 2.9083222623707097 1.1750657257691846 -0.4877030645522753 0.9334781040535689 -1.3204427125979372 0.74119053102167531 0.005749121920668088 1.3576034614173653 -0.62913566193536341 -0.74973327630516906 -1.3453761626560545 0.17025545264898576 0.44310241473995399 1.2639039401944809 2.4380555664226606 -0.9075641588264739 0.048679512444804361 -0.34498390942403717 0.34370590893644642 -0.33692473547955248 6.753624110221863 -1.8477254500535296 0.98075757165989241 -4.452011182697249 2.7878211361878966 -3.3443033077196818 -0.75837855196112569 -2.5870887909187537 1.5839533757581945
leaf_count=110 38 188 3707 2972 379 5210 5775 403 1931 2381 765 3084 1164 248 227 975 4328 43 2356 6186 34 296 49 47 298 145 798 73 32
internal_value=0 2.90617 -1.40536 0.227779 1.62554 2.15478 2.95495 2.61515 -2.38089 -3.84377 -7.06246 4.54082 10.6906 9.54374 6.41622 -2.45327 -1.65663 -8.24993 -1.89176 -1.2431 31.8078 -7.2641 -11.6553 -13.9489 17.489 -22.193 -7.98665 -8.55441 19.4083
internal_count=44242 14454 29788 17840 12413 11938 10985 8390 2334 11948 953 6056 2041 1937 1391 9083 8035 2865 9450 8542 104 2677 475 426 546 188 908 1048 70
shrinkage=0.12


Tree=28
num_leaves=29
num_cat=0
split_feature=5 6 3 4 6 1 5 6 19 4 9 5 5 4 6 6 5 6 6 5 21 4 4 2 2 6 5 6
split_gain=145602 133314 153138 114561 99174.4 98171.9 88177.4 87825.7 84743.8 69561.6 85737.8 81160.6 64647.2 61101.2 60348.6 51358.9 49960.3 49908.8 43237.9 37035.2 34099.7 26850.2 26069.6 24911.1 24535.1 23339.2 6116.66 3521.72
threshold=10.531429100451936 7.1232697219018464 2.0126758453675748 -2.249116196077658 7.9115072698358473 1.3918720653661192 8.7660025895555922 7.2622778468384972 1.0000000180025095e-35 -2.1607751069762524 1.0000000180025095e-35 11.286338442712701 10.93377616455285 -2.2043733297487145 6.6444403513266588 7.5414177775092108 9.9647000638970713 8.1674938511512227 6.7025742396217023 11.063116466176778 1.0000000180025095e-35 -2.2787038753162281 -2.2505489480348162 5.5571165457250684 4.2253198460568022 6.8040598888354813 9.5662635009723989 6.8664121796726612
decision_type=2 2 2 2 2 2 2 2 2 2 2 2 2 2 2 2 2 2 2 2 2 2 2 2 2 2 2 2
left_child=1 6 3 15 5 -4 24 18 16 10 12 17 -9 -6 -10 -3 -8 -11 -2 22 -13 -12 -20 -21 27 -26 -5 -1
right_child=7 2 4 26 13 -7 8 9 14 11 21 20 -14 -15 -16 -17 -18 -19 19 23 -22 -23 -24 -25 25 -27 -28 -29
leaf_value=-1.3083830622592956 5.22665487435731 -0.6048818787999054 0.64034064121220546 -5.2616715335192756 -0.65024043141196275 -0.11865798271764959 0.51198051304589143 0.56935859218854379 1.3779918461914578 -0.48107585020648214 1.1734300748313344 0.57296299991637079 1.8631162106245758 -3.5346603709459306 -1.1199593046857068 -1.9494205634722745 1.5198726036130499 -2.7429222516307497 2.9917384770253963 6.0557709444995123 3.472352790295802 -2.6790101655415435 0.78611939083644566 1.7242728057740229 0.59003119852722741 -0.45261679528158361 -3.5059328913254508 -2.7158362473330451
leaf_count=49 52 2727 2804 43 2923 19617 6098 2074 173 925 32 601 760 109 701 481 801 165 96 41 64 130 387 37 373 1787 131 61
internal_value=0 -0.67096 -1.76381 -8.08516 -0.92362 -0.197607 2.4666 4.8865 4.06783 3.43132 6.35938 -1.56739 7.63975 -6.2906 -5.20497 -6.72454 5.24314 -6.87762 16.1442 13.5436 7.13319 -15.9618 10.241 33.6722 -3.01556 -2.26976 -33.0206 -17.531
internal_count=44242 38878 28835 3382 25453 22421 10043 5364 7773 4751 2996 1755 2834 3032 874 3208 6899 1090 613 561 665 162 483 78 2270 2160 174 110
shrinkage=0.12


Tree=29
num_leaves=18
num_cat=0
split_feature=1 12 5 6 18 1 6 5 0 9 3 1 4 6 5 4 4
split_gain=137659 135083 131657 118327 78340.6 68704.8 54019.3 51992.7 50360.2 44218.3 34724.1 33942.5 12444.8 8624.82 8054.07 4664.34 5959.27
threshold=1.0000000180025095e-35 1.0000000180025095e-35 9.5477046694941485 7.4076210165145087 1.0000000180025095e-35 1.3918720653661192 7.3307327585315187 9.0492898723150645 1.5000000000000002 1.0000000180025095e-35 2.9700856263602158 1.3918720653661192 -2.131099033682422 7.2388559073370864 9.7995140003196664 -2.2116288492621119 -2.7297370571077204
decision_type=2 2 2 2 2 2 2 2 2 2 2 2 2 2 2 2 2
left_child=15 2 6 8 -5 12 7 -2 -4 10 -7 -8 14 -11 -3 16 -1
right_child=1 5 3 4 -6 9 11 -9 -10 13 -12 -13 -14 -15 -16 -17 -18
leaf_value=-3.1018314331073267 -0.13072170560747501 0.47923292929370559 0.50396138220060238 0.3974065659479501 -0.28054278185952475 -0.47200469908335357 0.45891282777786724 0.41719057954764038 1.2882938134085504 -0.24527461850797971 2.6154729584672234 -0.37654917369005853 -1.320447167876506 -2.440138320491263 1.3028776774364499 -2.8438574965835852 -5.4160300093544027
leaf_count=30 5962 611 2455 7044 3766 8219 765 4286 2271 30 52 8183 45 196 238 38 51
internal_value=0 0.0945139 1.00437 3.16848 1.34341 -3.27024 -0.747141 0.820299 7.34195 -4.1477 -3.76942 -2.54231 5.06487 -17.9258 5.92706 -33.8495 -38.3234
internal_count=44242 44123 34732 15536 10810 9391 19196 10248 4726 8497 8271 8948 894 226 849 119 81
shrinkage=0.12


Tree=30
num_leaves=28
num_cat=0
split_feature=0 5 6 5 4 1 5 6 1 5 4 6 5 19 18 6 6 5 6 1 1 4 1 6 4 3 6
split_gain=117045 84084.8 84070.4 78174.5 117711 93545.9 84655.9 76666.4 71771.2 64478.1 63961.1 53523.3 49497.1 46242.7 45995.9 44621.1 36220.6 35710.5 34957.6 34072.3 34021.6 32767.9 31805.1 29949.7 26595.7 21529 870.1
threshold=1.5000000000000002 10.531429100451936 7.5328912131221761 11.043920837055831 -2.7653638807848062 0.86429506858956606 9.6966168274173281 7.9664132370989362 1.837014069290728 9.3834526360081298 -2.3447842818200426 7.6489780543884391 9.9534667779080461 1.0000000180025095e-35 1.0000000180025095e-35 7.1895449545830656 7.9829283213610038 11.003763736250578 7.0035197977545716 8.8655998741145883 9.7346576794099438 -2.4350695671183966 1.0000000180025095e-35 7.9664132370989362 -2.1808487037143416 2.249904835165133 8.000517139919717
decision_type=2 2 2 2 2 2 2 2 2 2 2 2 2 2 2 2 2 2 2 2 2 2 2 2 2 2 2
left_child=3 2 9 4 6 -6 15 -8 22 18 -5 17 -7 -11 19 -1 -16 24 -2 -13 23 -10 -4 -12 -3 -19 -22
right_child=1 11 8 10 5 12 7 -9 21 13 20 14 -14 -15 16 -17 -18 25 -20 -21 26 -23 -24 -25 -26 -27 -28
leaf_value=0.12021663418161894 0.56209517700953304 1.995768054955432 -2.5407374653271737 5.5456988880143099 -5.7630913348547743 -1.0269510741848513 1.0969334039008161 -0.41331951368879077 -0.33665059057404578 0.79849521808486656 1.1090704753076825 0.54218926794271605 -0.33599118028752561 -0.60545559136055549 -0.1597841097386378 -0.33845722357311137 -3.4657152301315977 4.5032034764310183 -0.067543345549561207 2.230453463455508 3.945856825724825 -1.1478578070609473 0.30024135912886429 -0.24504682386380583 0.29667916928601956 1.4797104808848394 2.743894486311194
leaf_count=4707 1696 320 57 39 51 2672 1531 707 3670 4040 490 1438 3386 368 190 8694 63 93 5044 195 30 891 3107 451 227 55 30
internal_value=0 1.67841 0.946108 -1.57605 -1.98119 -5.70326 -0.526984 5.16511 -1.58915 2.70298 6.89033 7.03097 -5.34053 5.67647 4.26264 -1.47789 -8.26423 14.5286 0.75773 6.20701 5.32175 -4.12763 2.07001 3.83595 10.7692 28.2854 28.2539
internal_count=44242 21454 18873 22788 21748 6109 15639 2238 7725 11148 1040 2581 6058 4408 1886 13401 253 695 6740 1633 1001 4561 3164 941 547 148 60
shrinkage=0.12


Tree=31
num_leaves=25
num_cat=0
split_feature=12 6 5 5 19 20 4 5 9 1 9 21 6 1 6 11 0 5 5 19 4 0 6 4
split_gain=104889 92626.4 89164.7 78167.9 71997.6 72540.6 53226.2 85604.4 66245.8 38412.2 33928.3 27881.3 58441.1 27748.5 26789.9 25581.5 22125.9 16698.3 16455.9 35124.8 9660.6 7388.52 6540.37 4560.53
threshold=1.0000000180025095e-35 6.7458242390288694 10.531429100451936 10.013350411119974 1.0000000180025095e-35 1.0000000180025095e-35 -2.1607751069762524 11.129464014858565 1.0000000180025095e-35 1.3918720653661192 1.0000000180025095e-35 1.0000000180025095e-35 8.1843742635642727 1.0000000180025095e-35 7.134492286379376 1.0000000180025095e-35 3.5000000000000004 10.695060187775718 10.589605554470554 1.0000000180025095e-35 -2.131099033682422 2.5000000000000004 7.2388559073370864 -2.249116196077658
decision_type=2 2 2 2 2 2 2 2 2 2 2 2 2 2 2 2 2 2 2 2 2 2 2 2
left_child=1 3 4 15 5 -3 8 -8 -4 13 11 12 -11 -2 -6 16 -1 -13 19 -5 21 -15 -12 -24
right_child=9 2 6 18 14 -7 7 -9 -10 10 22 17 -14 20 -16 -17 -18 -19 -20 -21 -22 -23 23 -25
leaf_value=0.66069100046124751 -3.1622986821849626 0.01377789458440374 1.0498003558145568 4.0312467783954942 -0.64021060629916937 -5.1784615459884575 -0.79854493732090248 0.98497784097009622 -1.6008152922038739 -0.36164940297254156 -0.22278338791488053 0.28246537016785667 -2.3409848860975191 0.84510958430537986 -2.1610223682118308 -2.0269707672854507 3.4966574355433973 4.0984538035423723 5.2719024388755908 0.52382681594253588 -1.1974312475987396 0.096245206569200423 -1.8087729010896656 -3.2387519657121948
leaf_count=1454 30 28161 2455 98 443 38 847 713 143 7985 30 36 220 562 268 49 40 30 41 71 45 287 153 43
internal_value=0 0.80297 0.427332 7.885 -0.195434 0.0552575 4.75674 0.138683 7.5285 -2.95798 -3.6239 -3.29254 -3.45797 3.16275 -10.1281 5.41356 6.1543 17.0563 25.951 21.3974 4.17677 4.93668 -15.693 -17.7906
internal_count=44242 34821 33068 1753 28910 28199 4158 1560 2598 9421 8497 8271 8205 924 711 1543 1494 66 210 169 894 849 226 196
shrinkage=0.12


Tree=32
num_leaves=27
num_cat=0
split_feature=0 1 1 21 6 17 5 16 6 5 5 1 4 2 1 2 5 6 4 2 5 15 1 6 2 15
split_gain=91947.4 79875.9 105203 84072.7 105070 101250 66827.5 58659.9 55415.3 58171 38722.4 34207.7 33501.8 30182.9 29880.9 30561.5 22744.8 22355.8 18022.4 15161.8 32900 13590.8 13575.8 13313.6 7325.6 2701.8
threshold=2.5000000000000004 1.3918720653661192 1.0000000180025095e-35 1.0000000180025095e-35 8.1674938511512227 1.0000000180025095e-35 10.916223538481878 1.0000000180025095e-35 7.1102877930255497 10.672726964282933 10.995828030663741 8.2078741485697844 -2.4350695671183966 5.680717163076177 0.86429506858956606 5.2619326249408163 10.247957112701465 6.5701821913769409 -2.3447842818200426 5.5949735173662791 10.205440575927131 1.0000000180025095e-35 7.2602290800935139 7.9418290307102071 5.4698309299744059 1.0000000180025095e-35
decision_type=2 2 2 2 2 2 2 2 2 2 2 2 2 2 2 2 2 2 2 2 2 2 2 2 2 2
left_child=1 2 25 4 5 -3 22 -6 11 19 12 16 -4 -8 -11 -16 18 -13 -2 23 -21 -19 -5 -10 -12 -1
right_child=8 3 10 6 7 -7 13 -9 9 14 24 17 -14 -15 15 -17 -18 21 -20 20 -22 -23 -24 -25 -26 -27
leaf_value=-3.9751659418069401 0.69218499682310008 -0.21520441486322006 0.39907041142252386 0.18290072853558847 -1.8134196005757237 0.27294337236526633 6.438493183303053 0.094954271789621833 0.12878781858492244 -1.7260151729461191 -3.5041833575360188 5.1103090912955151 1.2845734547105503 1.8252601739044849 5.1289158336709191 1.3476495953196339 3.5822066361230358 2.0508374968528953 -1.4938934651199653 0.026680296502427425 4.6784428629642578 0.21270789298970821 2.9524809852247307 -0.63435885775925938 -0.9642964497823564 -2.4200995220456805
leaf_count=59 714 25543 1448 149 814 8045 54 324 4250 42 30 30 1071 34 32 544 36 344 58 66 32 70 30 356 37 30
internal_value=0 -0.600521 4.66545 -1.00319 -1.1393 -0.818972 16.6471 -10.586 3.45235 2.04324 5.83251 9.43641 6.46571 39.0808 11.1581 13.0392 5.551 16.4827 4.38704 0.843896 13.1015 14.5107 5.48901 0.580692 -17.7575 -28.9857
internal_count=44242 37668 2675 34993 34726 33588 267 1138 6574 5322 2586 1252 2519 88 618 576 808 444 772 4704 98 414 179 4606 67 89
shrinkage=0.12


Tree=33
num_leaves=24
num_cat=0
split_feature=16 6 17 1 18 20 11 7 21 6 5 2 6 6 1 14 6 2 0 2 2 6 1
split_gain=86262 96838.7 123695 95673.8 71743.4 70553.4 69782.9 62699.5 46042.7 77745.7 34029.1 33962.8 32862.9 29008.8 25434.1 19718.5 18845.8 16608.7 15313.3 8798.81 15138.2 7930.72 2383.79
threshold=1.0000000180025095e-35 7.8369622166328723 1.0000000180025095e-35 8.309806047539519 1.0000000180025095e-35 1.0000000180025095e-35 1.0000000180025095e-35 1.0000000180025095e-35 1.0000000180025095e-35 8.2894139038122301 10.916223538481878 5.1672182652034255 7.5232111153229342 8.3856027645233322 9.1532893122561774 1.0000000180025095e-35 8.222956340987599 4.9746239659202791 1.5000000000000002 5.4611595483283883 5.4698309299744059 8.2034408818666176 4.5365361473354211
decision_type=2 2 2 2 2 2 2 2 2 2 2 2 2 2 2 2 2 2 2 2 2 2 2
left_child=1 2 5 12 8 6 -1 -5 9 -3 -10 21 -4 14 15 17 -13 -2 -17 22 -21 -6 -15
right_child=13 4 3 7 11 -7 -8 -9 10 -11 -12 16 -14 19 -16 18 -18 -19 -20 20 -22 -23 -24
leaf_value=-0.02327716420470698 -1.2715356415798231 -0.15243194923065451 0.66582981117342566 2.8296787253852669 -0.69387488462227964 -4.3279655865700013 -1.0871267999427063 -0.29083124848841063 0.14098525399490905 -2.1096492659710369 2.8342506644220062 -1.7023507233110617 0.13894364599138956 -2.229032418907813 3.7928191629431884 1.1513084828949742 -4.4689364483430216 0.91298628208235932 3.0103967296246448 2.278294965152083 -0.92217102997494438 -1.9090275945179704 -0.85822682877055934
leaf_count=28151 53 3925 3003 383 1277 55 916 122 157 315 118 477 3944 31 51 148 38 746 114 34 54 82 48
internal_value=0 -0.239074 0.388422 4.0237 -3.83092 -0.541862 -0.473625 17.303 -1.67115 -2.48526 10.8488 -9.03104 3.05639 8.09222 9.93723 8.87184 -15.9441 6.39028 16.3941 -4.17715 2.68897 -6.40288 -11.7858
internal_count=44242 42963 36574 7452 6389 29122 29067 505 4515 4240 275 1874 6947 1279 1112 1061 515 799 262 167 88 1359 79
shrinkage=0.12


Tree=34
num_leaves=28
num_cat=0
split_feature=12 5 6 3 4 6 5 6 5 10 6 18 19 6 6 9 4 4 3 5 4 6 5 5 6 5 3
split_gain=81645.8 69645.7 74229.2 105658 74988.8 69766.5 54469.8 35294.4 34899.3 34061.7 41134.2 35329.6 33989.3 39586.3 27156.7 24602.3 22722.8 22226.1 21892.4 30910.7 21390.2 21305.8 20887.7 20557.4 16099.3 10891.4 5697.26
threshold=1.0000000180025095e-35 11.043920837055831 7.0979622446027903 2.0126758453675748 -2.4350695671183966 8.0091968808498901 9.9534667779080461 6.7458242390288694 8.7363206568818175 1.0000000180025095e-35 7.6854733346051907 1.0000000180025095e-35 1.0000000180025095e-35 6.6207394291472461 7.2573551921260586 1.0000000180025095e-35 -2.0657704928902851 -2.2210502209289751 2.0126758453675748 10.651342126089007 -2.2116288492621119 6.9851790688787379 10.531429100451936 8.9176443548162485 7.1102877930255497 11.352021571379652 2.3502401828962087
decision_type=2 2 2 2 2 2 2 2 2 2 2 2 2 2 2 2 2 2 2 2 2 2 2 2 2 2 2
left_child=1 2 6 4 -4 -5 8 -8 -1 17 16 -12 14 -14 18 23 -11 -3 21 -20 24 -2 -22 -16 -15 -19 -17
right_child=12 9 3 5 -6 -7 7 -9 -10 10 11 -13 13 20 15 26 -18 25 19 -21 22 -23 -24 -25 -26 -27 -28
leaf_value=-0.29287682590536995 0.070598448811422007 -3.7608459210686571 -0.38096747102957723 0.11313843738479441 -1.7986991908171168 -0.58645998675156308 2.5327701042663238 0.82452473044408059 0.41160700979392312 3.4587960333233112 1.1256629602159662 -0.64983130114221477 2.1576074978186917 -0.24893058243520094 -1.3404371327337152 -1.2466976636550466 1.2612609351812354 -1.5360433909578142 0.26375143783547206 4.1044359765733995 -3.7827317529981315 -0.84037764790376401 -0.36998351919239963 -0.32139563571771124 -2.8122574359824859 1.5361150193214417 -2.6578478110075681
leaf_count=1276 909 32 2328 21101 698 2273 231 708 4893 142 736 206 38 122 300 109 132 31 1514 30 110 622 34 5515 49 34 69
internal_value=0 0.708218 0.428147 -0.344147 -5.90344 0.375702 3.29638 10.3889 2.21547 7.85045 9.29015 6.14223 -2.60996 -12.2267 -2.23446 -3.47394 20.0603 -10.118 0.181217 2.83771 -15.9096 -2.49739 -24.8675 -3.11802 -8.28071 0.571761 -15.0308
internal_count=44242 34821 33508 26400 3026 23374 7108 939 6169 1313 1216 942 9421 353 9068 5993 274 97 3075 1544 315 1531 144 5815 171 65 178
shrinkage=0.12


Tree=35
num_leaves=30
num_cat=0
split_feature=0 19 6 5 18 6 11 17 10 5 1 1 5 6 2 19 14 4 1 1 5 5 1 2 6 6 1 5 2
split_gain=71298.7 64009.6 61546.5 101934 75459.6 59510.4 55706.2 55304 53074.4 42965.9 41155.1 38932.2 37013.6 36327.6 30094.5 25516.5 21813.6 23109.4 18556 18625.7 18408 17734.1 18514.6 14698.4 12344.4 10100.6 8481.24 8235.61 2374.3
threshold=2.5000000000000004 1.0000000180025095e-35 7.6150518522684445 9.3834526360081298 1.0000000180025095e-35 6.7458242390288694 1.0000000180025095e-35 1.0000000180025095e-35 1.0000000180025095e-35 10.589605554470554 8.2592160389793801 8.0490925442743961 10.629221275788117 6.9589234527158164 5.7227895966571785 1.0000000180025095e-35 1.0000000180025095e-35 -2.141682597153014 0.86429506858956606 1.837014069290728 11.21603409975644 9.0103347432633338 8.6446723777764465 5.0392597213015673 7.1612339548017436 7.4733530982642025 3.1277824844220317 10.345758569315917 4.9467457399710408
decision_type=2 2 2 2 2 2 2 2 2 2 2 2 2 2 2 2 2 2 2 2 2 2 2 2 2 2 2 2 2
left_child=1 2 3 8 7 9 -5 -4 -1 23 12 -6 14 21 25 20 17 -7 -14 -20 -15 28 -23 -3 -17 -2 -16 -18 -12
right_child=10 5 4 6 11 16 -8 -9 -10 -11 13 -13 18 15 26 24 27 -19 19 -21 -22 22 -24 -25 -26 -27 -28 -29 -30
leaf_value=-0.37883684958938652 0.27347438388209 1.4527631060631723 0.83542969742902295 0.39777671930590475 -0.38966140837978192 -1.425515360916924 -3.1056534253572621 -0.13591840980276468 0.082241741267384608 4.3506223642359902 4.5904365891423717 -1.1129700402368414 -1.1117584423169697 0.71187522247549562 2.6675807643549607 0.31228218842829975 -0.75772066386762105 -3.1953438428859013 2.3242989835715977 0.71945219037856045 3.1870828111931746 -0.32311883032986666 2.2673752701611507 -0.49495018634364829 -2.368974387414994 -0.081876494410915587 0.84417872391559279 1.1156288020120282 3.011640847723688
leaf_count=6572 1997 72 980 9736 3580 522 65 6053 7934 35 34 1530 43 822 77 44 176 134 200 219 45 53 155 238 55 2719 72 41 39
internal_value=0 -0.529039 -0.290641 0.627774 -2.12904 -7.65783 3.11901 -0.00395403 -1.05545 3.45381 3.03986 -5.05324 1.82847 8.2096 1.01516 5.2889 -12.0491 -14.9219 10.3745 12.4057 7.0273 18.2038 13.4011 -0.330785 -9.8616 0.571651 14.9694 -3.33776 31.5838
internal_count=44242 37668 36450 24307 12143 1218 9801 7033 14506 345 6574 5110 5327 1247 4865 966 873 656 462 419 867 281 208 310 99 4716 149 217 73
shrinkage=0.12


Tree=36
num_leaves=16
num_cat=0
split_feature=1 1 5 6 10 4 3 5 6 4 0 2 1 6 6
split_gain=69309.9 71933 78594.1 79817.5 74385 73860.9 65446.9 61530.9 46607.2 39087.7 62507.8 20470.6 17998.2 4221.92 5963.58
threshold=1.0000000180025095e-35 1.3918720653661192 11.003763736250578 7.5328912131221761 1.0000000180025095e-35 -2.2787038753162281 2.0126758453675748 11.186154501986438 7.9907461724176256 -2.3126323545007312 1.5000000000000002 5.4721267677910364 0.86429506858956606 7.7068377846673357 7.9503261612304357
decision_type=2 2 2 2 2 2 2 2 2 2 2 2 2 2 2
left_child=13 7 3 4 -3 11 -5 9 -7 12 -11 -4 -2 -1 -15
right_child=1 2 5 6 -6 8 -8 -9 -10 10 -12 -13 -14 14 -16
leaf_value=-4.0904318496657588 0.75619403048407308 -0.19402551063051163 2.5717768694792582 -1.5351306054343563 0.2352198854231958 1.1202991235148032 -0.24639593487326064 -4.7572226837446099 -0.1313001160250416 -2.7575304116134265 1.2074774255008942 6.2461011469430767 0.0409232927041175 -1.1213022713414553 -3.1954920601047108
leaf_count=32 717 9903 62 591 14075 936 13834 31 789 59 1368 35 1723 34 53
internal_value=0 0.0666416 -0.330841 -0.635377 0.482795 6.085 -2.49404 4.16785 4.56648 4.5274 8.68352 32.8233 2.09438 -24.019 -20.0299
internal_count=44242 44123 40225 38403 23978 1822 14425 3898 1725 3867 1427 97 2440 119 87
shrinkage=0.12


Tree=37
num_leaves=22
num_cat=0
split_feature=9 5 6 3 5 3 6 4 10 6 3 2 6 1 6 4 5 5 1 14 5
split_gain=66001.4 60380.5 72889.7 59683.2 52222.5 48859.5 41174.3 40211.2 38351.2 37842.1 35884.5 27279.6 24789.5 23128 19751.8 18017.9 13860.4 26958 12165.9 8584.4 4336.49
threshold=1.0000000180025095e-35 9.349014174640045 7.576865848924859 2.0126758453675748 10.742626897047067 2.0126758453675748 7.1232697219018464 -2.4332374760643725 1.0000000180025095e-35 8.1674938511512227 2.0126758453675748 5.0463328868159545 7.3892550256480369 6.5800579086804207 7.536630533985341 -2.4350695671183966 11.389372018776376 11.186154501986438 7.3942176599549043 1.0000000180025095e-35 9.106366819759721
decision_type=2 2 2 2 2 2 2 2 2 2 2 2 2 2 2 2 2 2 2 2 2
left_child=1 6 4 15 5 -3 7 8 -1 -5 11 -8 -6 -9 -12 -4 17 18 20 -20 -2
right_child=16 2 3 9 12 -7 10 13 -10 -11 14 -13 -14 -15 -16 -17 -18 -19 19 -21 -22
leaf_value=-0.098284805987707405 -0.41998558345962972 -0.03125224252403306 -0.84999079211239226 0.06718405418170334 2.1695853336286106 0.4983052501710597 -0.63902532945490764 0.74417563772693129 0.4953088020811543 -0.55405801113251496 -0.064510650645236631 -2.7266631231428695 0.61716316999539333 -2.6488757554895868 -0.42226711549624424 -2.8311922288925286 0.93197871951606326 -4.5441210340104012 -0.92112699988435043 0.16268203772341747 -1.7754150800156032
leaf_count=3815 40 3935 136 11238 323 6920 1887 38 2659 1614 6839 94 275 116 3292 130 50 31 410 141 259
internal_value=0 0.18029 1.21144 -0.397851 3.05466 2.55284 -1.17166 0.831946 1.21277 -0.0904658 -2.26813 -6.15995 12.1468 -15.0958 -1.50662 -15.2016 -8.32594 -9.24637 -8.16697 -5.36479 -13.3001
internal_count=44242 43311 24571 13118 11453 10855 18740 6628 6474 12852 12112 1981 598 154 10131 266 931 881 850 551 299
shrinkage=0.12


Tree=38
num_leaves=29
num_cat=0
split_feature=12 6 16 3 10 4 5 4 5 5 1 5 6 0 6 1 1 6 1 6 1 6 4 1 5 2 3 0
split_gain=62236.5 54811.4 53700.1 50380.4 53985.8 50011.2 35333.3 29901.8 29850.3 22688.5 21874.5 21317.5 38692.2 26017.9 20273.6 25870.5 14187.2 15041.1 13733.3 22622.8 14192.9 13282.1 11514.5 10876.9 7070.36 6971.31 6816.11 3901.65
threshold=1.0000000180025095e-35 6.6751923067246377 1.0000000180025095e-35 2.0126758453675748 1.0000000180025095e-35 -2.141682597153014 10.464173622721107 -2.6462607840899754 9.7995140003196664 9.6669709456330803 9.192540913712449 9.07394364199717 6.4385510104182506 2.5000000000000004 8.3856027645233322 9.1532893122561774 0.86429506858956606 7.1392636679552224 1.3918720653661192 7.5286005116747496 0.86429506858956606 7.6268138116547979 -2.9019385496414087 8.2592160389793801 9.9028621615853023 5.4698309299744059 1.8688348091416842 2.5000000000000004
decision_type=2 2 2 2 2 2 2 2 2 2 2 2 2 2 2 2 2 2 2 2 2 2 2 2 2 2 2 2
left_child=1 6 3 5 -5 -3 11 9 10 16 21 13 -13 -1 15 -4 27 -18 20 -20 -10 -9 23 -11 -24 -16 -12 -2
right_child=7 2 14 4 -6 -7 -8 8 18 22 26 12 -14 -15 25 -17 17 -19 19 -21 -22 -23 24 -25 -26 -27 -28 -29
leaf_value=-0.29934502816312952 1.5486143386332529 -0.20116078578082711 0.99427481569364884 -0.17641307330995559 0.20495138652946052 -1.719218703840254 4.5044880002477896 -0.77715841836805044 -1.0237463425226132 0.53949658184639149 -4.0339658429732381 2.8902465429494337 0.71368445358344024 2.5670959976206187 0.10625059717944985 4.0984465241782804 0.054352270849863042 -0.39416410818940389 -0.0042010262039223825 -0.81529731010867956 0.95129959434536682 -2.1910698496630796 -0.51863365096653968 2.2291349101066587 0.45521318619028994 -1.8099949459193911 -1.6492691134167956 0.27004253000020978
leaf_count=380 75 6324 788 7538 18368 328 36 592 70 581 47 141 697 51 92 40 1537 3590 864 1160 201 114 248 60 188 38 30 64
internal_value=0 0.617695 0.370019 0.152775 0.783151 -2.30188 6.97394 -2.27935 -4.8365 -1.03789 -10.1657 6.08316 9.02025 0.36454 7.74604 9.56802 -1.89332 -2.16416 -3.01505 -3.91037 3.66063 -8.39854 3.14232 5.83653 -0.82028 -3.83994 -26.1051 8.046
internal_count=44242 34821 33516 32558 25906 6652 1305 9421 3078 6343 783 1269 838 431 958 828 5266 5127 2295 2024 271 706 1077 641 436 130 77 139
shrinkage=0.12


Tree=39
num_leaves=17
num_cat=0
split_feature=20 0 4 1 5 5 6 6 5 1 4 21 19 10 6 6
split_gain=59864.1 55175.8 47683.4 78963.7 64426.5 47424.8 45177.6 42659 53985.3 46466.6 40879.9 36354.5 36324 28565.1 27210.9 26378.3
threshold=1.0000000180025095e-35 1.5000000000000002 -2.8022668817664216 1.3918720653661192 11.063116466176778 9.7268992495465501 8.0476694342196335 7.3215191352639177 10.166620456663063 1.837014069290728 -2.3126323545007312 1.0000000180025095e-35 1.0000000180025095e-35 1.0000000180025095e-35 7.8832578527217469 7.1895449545830656
decision_type=2 2 2 2 2 2 2 2 2 2 2 2 2 2 2 2
left_child=1 2 5 14 -5 15 -7 8 13 10 -9 -11 -10 -3 -4 -1
right_child=-2 7 3 4 -6 6 -8 9 12 11 -12 -13 -14 -15 -16 -17
leaf_value=0.14273832527629904 -3.8931478746172408 0.024382875661524493 -1.5186099949479104 -0.45977913020077077 0.56779143137313282 0.82932846652077652 -0.53183872664695908 -0.014130464570465911 1.6891339129523779 -0.17674062541440436 0.67650830477493018 2.3056484328971041 -0.77830574392077922 0.50677084795264105 -5.3224230949972204 -0.21343756739915412
leaf_count=4665 56 3532 52 6548 1014 1614 448 2643 627 8592 2314 85 99 3539 58 8356
internal_value=0 0.0424941 -1.04193 -3.0715 -2.68277 -0.00942523 4.44547 1.19395 3.05948 0.126915 2.56923 -1.26835 11.2671 2.21549 -29.5756 -0.715192
internal_count=44242 44186 22755 7672 7562 15083 2062 21431 7797 13634 4957 8677 726 7071 110 13021
shrinkage=0.12


Tree=40
num_leaves=15
num_cat=0
split_feature=1 12 5 6 19 4 5 5 5 6 6 4 13 4
split_gain=50121.1 48753.2 46506.5 42596.4 49375.9 26407.3 39281 39033.2 22747.1 21426.5 16953 6842.44 4472.89 4433.39
threshold=1.0000000180025095e-35 1.0000000180025095e-35 11.825726871498135 6.7244330414940263 1.0000000180025095e-35 -2.2689390031645744 9.4304748871276125 10.960409036734715 9.9534667779080461 8.2442026590759419 7.7825987992135781 -2.301075449148366 1.0000000180025095e-35 -2.2210502209289751
decision_type=2 2 2 2 2 2 2 2 2 2 2 2 2 2
left_child=12 2 3 8 -5 7 -7 9 -2 -3 -8 -9 13 -1
right_child=1 5 -4 4 -6 6 10 11 -10 -11 -12 -13 -14 -15
leaf_value=-2.6034810564447852 0.50015744026185172 -0.13952422431799014 3.5977781951471774 0.061155591935051413 -0.8763322068149102 -3.9697603093859666 -0.29745849669410551 3.835179635448569 1.8672358265625999 -1.8134722714901823 -1.0914734841725751 1.5105068901606968 -3.7039938133167771 -0.7918931900779469
leaf_count=57 1394 7372 53 32256 829 49 1213 33 200 111 569 44 31 31
internal_value=0 0.0560406 0.602652 0.557039 0.313681 -1.96536 -5.37205 -1.13969 5.60497 -1.37132 -4.59517 21.1435 -20.4259 -16.4939
internal_count=44242 44123 34732 34679 33085 9391 1831 7560 1594 7483 1782 77 119 88
shrinkage=0.12


Tree=41
num_leaves=24
num_cat=0
split_feature=0 20 6 17 1 1 16 21 1 5 6 3 2 9 6 6 4 18 5 1 2 0 5
split_gain=47180.9 45350.8 44707.8 73832.1 66022.3 55916.3 35099.2 38242.1 30053.8 28435.8 24186.7 21992.9 20713.9 19689.9 18292.2 14241.9 18416.3 13656.6 13304.1 14550.5 11688.5 7427.49 2383.65
threshold=2.5000000000000004 1.0000000180025095e-35 7.8369622166328723 1.0000000180025095e-35 7.6471977861039191 1.3918720653661192 1.0000000180025095e-35 1.0000000180025095e-35 8.2592160389793801 10.629221275788117 6.9589234527158164 1.7005986908310777 5.7227895966571785 1.0000000180025095e-35 8.3856027645233322 7.6442013552795478 -2.2067581851225944 1.0000000180025095e-35 9.0103347432633338 8.6446723777764465 5.6609451655512029 3.5000000000000004 8.8428672646121722
decision_type=2 2 2 2 2 2 2 2 2 2 2 2 2 2 2 2 2 2 2 2 2 2 2
left_child=1 2 3 5 -5 -1 7 -4 9 12 18 17 20 -13 -8 -11 -17 -12 22 -20 -2 -14 -10
right_child=8 -3 6 4 -6 -7 14 -9 10 15 11 13 21 -15 -16 16 -18 -19 19 -21 -22 -23 -24
leaf_value=0.64551560398192886 0.065734892229198108 -3.6347637175387288 -0.51557584070242513 0.24402377162993408 1.5031131043501398 -0.12477507128528831 0.84324544563473058 1.0077580850856478 2.3479207812095515 3.5692907227788653 -2.4751628474134897 1.0530841779447122 0.97522562816422032 -1.3148915210170469 -0.69085065352982578 1.5301272031121109 -0.06708145279604491 -0.046342661291994949 -0.40372960849322348 1.8913056929028842 -1.5098742537235106 2.937088785322886 3.87000197978475
leaf_count=1438 4648 50 5152 5598 671 23874 493 248 34 30 39 667 112 54 144 259 173 206 53 155 68 37 39
internal_value=0 -0.430994 -0.390643 0.0859978 3.15817 -0.674927 -2.88388 -3.71216 2.4722 1.43701 6.89 4.50636 0.724157 7.28615 4.13222 8.92759 7.42784 -3.66799 15.0454 10.8896 0.356197 12.301 26.6294
internal_count=44242 37668 37618 31581 6269 25312 6037 5400 6574 5327 1247 966 4865 721 637 462 432 245 281 208 4716 149 73
shrinkage=0.12


Tree=42
num_leaves=24
num_cat=0
split_feature=9 5 4 4 5 0 1 6 6 6 5 5 6 6 6 4 5 2 4 1 5 4 18
split_gain=42968.8 47677.2 62954.6 50846.5 73206.1 61391 56979.7 46183.5 40422.7 34927.7 55874.2 33780.9 34773.3 32569.8 29262.5 9930.18 9643.94 18744 25114.9 12796 11275.6 8274.83 6836.5
threshold=1.0000000180025095e-35 10.53376010700484 -2.1607751069762524 -2.760611974629922 9.7268992495465501 1.5000000000000002 7.5857051619744933 7.2524081849530022 7.8369622166328723 8.318010247759096 11.003763736250578 11.138958759842811 7.7867594045217929 7.4292240187943674 7.6442013552795478 -2.249116196077658 11.623456157525174 5.3115117440357382 -2.249116196077658 8.2078741485697844 11.186154501986438 -2.2011392135017949 1.0000000180025095e-35
decision_type=2 2 2 2 2 2 2 2 2 2 2 2 2 2 2 2 2 2 2 2 2 2 2
left_child=1 3 9 4 7 13 -6 -1 -7 10 -3 14 -13 -5 -4 -11 17 19 -19 22 -20 -21 -2
right_child=16 2 11 5 6 8 -8 -9 -10 15 -12 12 -14 -15 -16 -17 -18 18 20 21 -22 -23 -24
leaf_value=0.18394589130353892 0.40881752467392962 0.61111201734321163 0.12362101889905769 -0.35236259012594429 0.39710200146119162 0.074893163271604141 1.9158047330309764 -0.15477203257931055 -0.86950878129706199 -0.05487776373711574 2.0855689467212666 1.6380787107636687 -0.074005307433396159 -1.0517259425655794 -1.1305654718057871 -1.5495472658334957 1.2181969819163403 0.088980470962240793 -2.2191787212162732 -0.28443247029676788 -4.8989679787076756 1.3962042659792036 -1.1375594469288608
leaf_count=9839 45 2215 463 2572 3115 6101 401 14106 730 230 444 237 606 1530 634 88 32 53 74 209 34 52 432
internal_value=0 0.145149 3.07672 -0.230323 0.495782 -2.0541 4.75612 -0.129895 -0.217558 5.9647 7.14922 -1.35521 3.40259 -5.11162 -5.01193 -3.93041 -6.71822 -7.32809 -17.0834 -5.18262 -25.7793 0.44403 -8.25861
internal_count=44242 43311 4917 38394 27461 10933 3516 23945 6831 2977 2659 1940 843 4102 1097 318 931 899 161 738 108 261 477
shrinkage=0.12


Tree=43
num_leaves=23
num_cat=0
split_feature=5 6 18 5 10 17 19 1 1 6 2 3 10 6 4 2 5 0 4 5 1 7
split_gain=39085.8 54181.7 56787.4 55438.3 53132.5 101233 49316 58583.7 42410.9 40789 41014.6 37832.8 24029.7 16862.5 14108.6 11309.3 11343.5 9342.91 8916.03 9249.93 7333.73 3311.39
threshold=8.7985985308322103 7.4076210165145087 1.0000000180025095e-35 11.298276628241373 1.0000000180025095e-35 1.0000000180025095e-35 1.0000000180025095e-35 9.0734562308304678 6.5800579086804207 7.8832578527217469 5.5366247338655503 2.0126758453675748 1.0000000180025095e-35 6.8664121796726612 -2.4011369817038131 4.8778862723779834 7.9283654434119564 1.5000000000000002 -2.7077343859541547 8.3156467294346843 8.9917783222643362 1.0000000180025095e-35
decision_type=2 2 2 2 2 2 2 2 2 2 2 2 2 2 2 2 2 2 2 2 2 2
